<?xml version="1.0"?>
<opencv_storage>
<cascade>
  <stageType>BOOST</stageType>
  <featureType>HAAR</featureType>
  <height>20</height>
  <width>20</width>
  <stageParams>
    <boostType>GAB</boostType>
    <minHitRate>9.9500000476837158e-01</minHitRate>
    <maxFalseAlarm>5.0000000000000000e-01</maxFalseAlarm>
    <weightTrimRate>9.4999999999999996e-01</weightTrimRate>
    <maxDepth>1</maxDepth>
    <maxWeakCount>100</maxWeakCount></stageParams>
  <featureParams>
    <maxCatCount>0</maxCatCount>
    <featSize>1</featSize>
    <mode>BASIC</mode></featureParams>
  <stageNum>5</stageNum>
  <stages>
    <!-- stage 0 -->
    <_>
      <maxWeakCount>4</maxWeakCount>
      <stageThreshold>-1.1354985237121582e+00</stageThreshold>
      <weakClassifiers>
        <_>
          <internalNodes>
            0 -1 7 1.6809817403554916e-02</internalNodes>
          <leafValues>
            -8.8430452346801758e-01 6.6229295730590820e-01</leafValues></_>
        <_>
          <internalNodes>
            0 -1 16 2.3633940145373344e-03</internalNodes>
          <leafValues>
            -8.9460414648056030e-01 4.0216743946075439e-01</leafValues></_>
        <_>
          <internalNodes>
            0 -1 6 -8.7311118841171265e-04</internalNodes>
          <leafValues>
            3.0542004108428955e-01 -9.0233498811721802e-01</leafValues></_>
        <_>
          <internalNodes>
            0 -1 14 7.4437406146898866e-04</internalNodes>
          <leafValues>
            -6.4295804500579834e-01 3.3799010515213013e-01</leafValues></_></weakClassifiers></_>
    <!-- stage 1 -->
    <_>
      <maxWeakCount>3</maxWeakCount>
      <stageThreshold>-1.9169412553310394e-01</stageThreshold>
      <weakClassifiers>
        <_>
          <internalNodes>
            0 -1 3 1.8941020825877786e-03</internalNodes>
          <leafValues>
            -8.0193483829498291e-01 5.1131850481033325e-01</leafValues></_>
        <_>
          <internalNodes>
            0 -1 23 -5.9421057812869549e-04</internalNodes>
          <leafValues>
            3.4543135762214661e-01 -8.0245554447174072e-01</leafValues></_>
        <_>
          <internalNodes>
            0 -1 20 -8.2679244223982096e-04</internalNodes>
          <leafValues>
            2.6480934023857117e-01 -9.3385177850723267e-01</leafValues></_></weakClassifiers></_>
    <!-- stage 2 -->
    <_>
      <maxWeakCount>6</maxWeakCount>
      <stageThreshold>-8.2380437850952148e-01</stageThreshold>
      <weakClassifiers>
        <_>
          <internalNodes>
            0 -1 8 2.0978044631192461e-05</internalNodes>
          <leafValues>
            -7.7954846620559692e-01 4.8216903209686279e-01</leafValues></_>
        <_>
          <internalNodes>
            0 -1 25 -8.9187752455472946e-03</internalNodes>
          <leafValues>
            6.5582138299942017e-01 -4.0188437700271606e-01</leafValues></_>
        <_>
          <internalNodes>
            0 -1 1 7.7576952753588557e-04</internalNodes>
          <leafValues>
            -3.5202085971832275e-01 6.1566066741943359e-01</leafValues></_>
        <_>
          <internalNodes>
            0 -1 13 1.5146452933549881e-03</internalNodes>
          <leafValues>
            -6.1144959926605225e-01 3.7591868638992310e-01</leafValues></_>
        <_>
          <internalNodes>
            0 -1 12 -1.1949103645747527e-04</internalNodes>
          <leafValues>
            2.3768965899944305e-01 -9.2712330818176270e-01</leafValues></_>
        <_>
          <internalNodes>
            0 -1 19 1.4306681696325541e-03</internalNodes>
          <leafValues>
            -9.2698580026626587e-01 1.1572770029306412e-01</leafValues></_></weakClassifiers></_>
    <!-- stage 3 -->
    <_>
      <maxWeakCount>7</maxWeakCount>
      <stageThreshold>-1.3612868785858154e+00</stageThreshold>
      <weakClassifiers>
        <_>
          <internalNodes>
            0 -1 9 -1.4121269341558218e-03</internalNodes>
          <leafValues>
            5.1777505874633789e-01 -5.1485341787338257e-01</leafValues></_>
        <_>
          <internalNodes>
            0 -1 18 3.2691139495000243e-04</internalNodes>
          <leafValues>
            -9.3407249450683594e-01 2.7946576476097107e-01</leafValues></_>
        <_>
          <internalNodes>
            0 -1 24 -4.9853183329105377e-02</internalNodes>
          <leafValues>
            5.9256088733673096e-01 -4.0340381860733032e-01</leafValues></_>
        <_>
          <internalNodes>
            0 -1 11 -9.4247443485073745e-05</internalNodes>
          <leafValues>
            -8.8006263971328735e-01 2.2219395637512207e-01</leafValues></_>
        <_>
          <internalNodes>
            0 -1 21 1.4699538587592542e-04</internalNodes>
          <leafValues>
            2.3057149350643158e-01 -7.8230780363082886e-01</leafValues></_>
        <_>
          <internalNodes>
            0 -1 0 1.1240611784160137e-03</internalNodes>
          <leafValues>
            -3.8177186250686646e-01 4.8049482703208923e-01</leafValues></_>
        <_>
          <internalNodes>
            0 -1 15 4.0659435093402863e-02</internalNodes>
          <leafValues>
            2.1939025819301605e-01 -8.1092429161071777e-01</leafValues></_></weakClassifiers></_>
    <!-- stage 4 -->
    <_>
      <maxWeakCount>6</maxWeakCount>
      <stageThreshold>-1.2456246614456177e+00</stageThreshold>
      <weakClassifiers>
        <_>
          <internalNodes>
            0 -1 4 6.0984939336776733e-02</internalNodes>
          <leafValues>
            -4.4725948572158813e-01 5.9050369262695313e-01</leafValues></_>
        <_>
          <internalNodes>
            0 -1 17 -1.5702208038419485e-03</internalNodes>
          <leafValues>
            -8.1551873683929443e-01 2.9999032616615295e-01</leafValues></_>
        <_>
          <internalNodes>
            0 -1 2 7.2290643583983183e-04</internalNodes>
          <leafValues>
            -7.3632210493087769e-01 1.9986507296562195e-01</leafValues></_>
        <_>
          <internalNodes>
            0 -1 22 1.1025478306692094e-04</internalNodes>
          <leafValues>
            1.6085903346538544e-01 -9.7058749198913574e-01</leafValues></_>
        <_>
          <internalNodes>
            0 -1 10 1.4009313599672168e-04</internalNodes>
          <leafValues>
            -8.5560011863708496e-01 1.5687114000320435e-01</leafValues></_>
        <_>
          <internalNodes>
            0 -1 5 6.8514058366417885e-03</internalNodes>
          <leafValues>
            2.4521273374557495e-01 -6.7976361513137817e-01</leafValues></_></weakClassifiers></_></stages>
  <features>
    <_>
      <rects>
        <_>
          4 12 2 1 -1.</_>
        <_>
          5 12 1 1 2.</_></rects>
      <tilted>0</tilted></_>
    <_>
      <rects>
        <_>
          5 13 3 1 -1.</_>
        <_>
          6 13 1 1 3.</_></rects>
      <tilted>0</tilted></_>
    <_>
      <rects>
        <_>
          5 13 4 1 -1.</_>
        <_>
          7 13 2 1 2.</_></rects>
      <tilted>0</tilted></_>
    <_>
      <rects>
        <_>
          5 14 6 1 -1.</_>
        <_>
          8 14 3 1 2.</_></rects>
      <tilted>0</tilted></_>
    <_>
      <rects>
        <_>
          6 8 9 12 -1.</_>
        <_>
          6 12 9 4 3.</_></rects>
      <tilted>0</tilted></_>
    <_>
      <rects>
        <_>
          6 13 6 1 -1.</_>
        <_>
          9 13 3 1 2.</_></rects>
      <tilted>0</tilted></_>
    <_>
      <rects>
        <_>
          6 13 7 2 -1.</_>
        <_>
          6 14 7 1 2.</_></rects>
      <tilted>0</tilted></_>
    <_>
      <rects>
        <_>
          7 9 9 5 -1.</_>
        <_>
          10 9 3 5 3.</_></rects>
      <tilted>0</tilted></_>
    <_>
      <rects>
        <_>
          7 9 8 2 -1.</_>
        <_>
          11 9 4 2 2.</_></rects>
      <tilted>0</tilted></_>
    <_>
      <rects>
        <_>
          8 9 2 6 -1.</_>
        <_>
          8 9 1 3 2.</_>
        <_>
          9 12 1 3 2.</_></rects>
      <tilted>0</tilted></_>
    <_>
      <rects>
        <_>
          8 12 2 4 -1.</_>
        <_>
          9 12 1 4 2.</_></rects>
      <tilted>0</tilted></_>
    <_>
      <rects>
        <_>
          8 13 4 2 -1.</_>
        <_>
          10 13 2 2 2.</_></rects>
      <tilted>0</tilted></_>
    <_>
      <rects>
        <_>
          8 13 3 4 -1.</_>
        <_>
          8 15 3 2 2.</_></rects>
      <tilted>0</tilted></_>
    <_>
      <rects>
        <_>
          9 9 3 4 -1.</_>
        <_>
          10 9 1 4 3.</_></rects>
      <tilted>0</tilted></_>
    <_>
      <rects>
        <_>
          9 10 3 2 -1.</_>
        <_>
          10 10 1 2 3.</_></rects>
      <tilted>0</tilted></_>
    <_>
      <rects>
        <_>
          10 6 5 10 -1.</_>
        <_>
          10 11 5 5 2.</_></rects>
      <tilted>0</tilted></_>
    <_>
      <rects>
        <_>
          10 7 4 4 -1.</_>
        <_>
          10 9 4 2 2.</_></rects>
      <tilted>0</tilted></_>
    <_>
      <rects>
        <_>
          10 13 4 1 -1.</_>
        <_>
          12 13 2 1 2.</_></rects>
      <tilted>0</tilted></_>
    <_>
      <rects>
        <_>
          11 5 3 10 -1.</_>
        <_>
          11 10 3 5 2.</_></rects>
      <tilted>0</tilted></_>
    <_>
      <rects>
        <_>
          11 8 2 6 -1.</_>
        <_>
          11 10 2 2 3.</_></rects>
      <tilted>0</tilted></_>
    <_>
      <rects>
        <_>
          11 10 4 3 -1.</_>
        <_>
          13 10 2 3 2.</_></rects>
      <tilted>0</tilted></_>
    <_>
      <rects>
        <_>
          11 11 2 2 -1.</_>
        <_>
          12 11 1 2 2.</_></rects>
      <tilted>0</tilted></_>
    <_>
      <rects>
        <_>
          12 11 2 2 -1.</_>
        <_>
          13 11 1 2 2.</_></rects>
      <tilted>0</tilted></_>
    <_>
      <rects>
        <_>
          13 10 1 6 -1.</_>
        <_>
          13 13 1 3 2.</_></rects>
      <tilted>0</tilted></_>
    <_>
      <rects>
        <_>
          14 4 6 9 -1.</_>
        <_>
          17 4 3 9 2.</_></rects>
      <tilted>0</tilted></_>
    <_>
      <rects>
        <_>
          14 12 4 2 -1.</_>
        <_>
          16 12 2 2 2.</_></rects>
      <tilted>0</tilted></_></features></cascade>
</opencv_storage>
