<?xml version="1.0"?>
<opencv_storage>
<cascade>
  <stageType>BOOST</stageType>
  <featureType>HAAR</featureType>
  <height>20</height>
  <width>20</width>
  <stageParams>
    <boostType>GAB</boostType>
    <minHitRate>9.9500000476837158e-01</minHitRate>
    <maxFalseAlarm>5.0000000000000000e-01</maxFalseAlarm>
    <weightTrimRate>9.4999999999999996e-01</weightTrimRate>
    <maxDepth>1</maxDepth>
    <maxWeakCount>100</maxWeakCount></stageParams>
  <featureParams>
    <maxCatCount>0</maxCatCount>
    <featSize>1</featSize>
    <mode>ALL</mode></featureParams>
  <stageNum>10</stageNum>
  <stages>
    <!-- stage 0 -->
    <_>
      <maxWeakCount>4</maxWeakCount>
      <stageThreshold>-1.3120397329330444e+00</stageThreshold>
      <weakClassifiers>
        <_>
          <internalNodes>
            0 -1 2 5.0199949741363525e-01</internalNodes>
          <leafValues>
            -8.0667704343795776e-01 6.2554115056991577e-01</leafValues></_>
        <_>
          <internalNodes>
            0 -1 16 5.6357257999479771e-03</internalNodes>
          <leafValues>
            -9.2567938566207886e-01 3.8497686386108398e-01</leafValues></_>
        <_>
          <internalNodes>
            0 -1 44 1.4121213462203741e-03</internalNodes>
          <leafValues>
            -9.4194763898849487e-01 2.2335366904735565e-01</leafValues></_>
        <_>
          <internalNodes>
            0 -1 1 4.4833924621343613e-03</internalNodes>
          <leafValues>
            -9.1611969470977783e-01 1.9696304202079773e-01</leafValues></_></weakClassifiers></_>
    <!-- stage 1 -->
    <_>
      <maxWeakCount>5</maxWeakCount>
      <stageThreshold>-1.6068553924560547e+00</stageThreshold>
      <weakClassifiers>
        <_>
          <internalNodes>
            0 -1 8 5.4117226973176003e-03</internalNodes>
          <leafValues>
            -7.3792177438735962e-01 4.7589686512947083e-01</leafValues></_>
        <_>
          <internalNodes>
            0 -1 70 1.1164115276187658e-03</internalNodes>
          <leafValues>
            -9.1599756479263306e-01 2.0615988969802856e-01</leafValues></_>
        <_>
          <internalNodes>
            0 -1 37 3.1631411984562874e-03</internalNodes>
          <leafValues>
            -8.6440169811248779e-01 2.2142507135868073e-01</leafValues></_>
        <_>
          <internalNodes>
            0 -1 7 1.0469682514667511e-01</internalNodes>
          <leafValues>
            -4.2680364847183228e-01 5.9772032499313354e-01</leafValues></_>
        <_>
          <internalNodes>
            0 -1 65 1.3529765419661999e-03</internalNodes>
          <leafValues>
            -9.4886243343353271e-01 2.5244256854057312e-01</leafValues></_></weakClassifiers></_>
    <!-- stage 2 -->
    <_>
      <maxWeakCount>7</maxWeakCount>
      <stageThreshold>-1.6347215175628662e+00</stageThreshold>
      <weakClassifiers>
        <_>
          <internalNodes>
            0 -1 0 3.1416255235671997e-01</internalNodes>
          <leafValues>
            -7.1794378757476807e-01 4.0365448594093323e-01</leafValues></_>
        <_>
          <internalNodes>
            0 -1 28 1.5922507736831903e-03</internalNodes>
          <leafValues>
            -7.3888677358627319e-01 3.2873642444610596e-01</leafValues></_>
        <_>
          <internalNodes>
            0 -1 61 -1.3381382450461388e-04</internalNodes>
          <leafValues>
            -9.3051922321319580e-01 2.2707480192184448e-01</leafValues></_>
        <_>
          <internalNodes>
            0 -1 36 -7.5974814535584301e-05</internalNodes>
          <leafValues>
            2.7092936635017395e-01 -8.4079813957214355e-01</leafValues></_>
        <_>
          <internalNodes>
            0 -1 18 1.7342075007036328e-03</internalNodes>
          <leafValues>
            -5.0887107849121094e-01 3.7365907430648804e-01</leafValues></_>
        <_>
          <internalNodes>
            0 -1 48 -4.7424942022189498e-04</internalNodes>
          <leafValues>
            -7.3218184709548950e-01 2.8683134913444519e-01</leafValues></_>
        <_>
          <internalNodes>
            0 -1 33 3.4552759025245905e-03</internalNodes>
          <leafValues>
            -2.7326807379722595e-01 7.3958754539489746e-01</leafValues></_></weakClassifiers></_>
    <!-- stage 3 -->
    <_>
      <maxWeakCount>5</maxWeakCount>
      <stageThreshold>-1.6157995462417603e+00</stageThreshold>
      <weakClassifiers>
        <_>
          <internalNodes>
            0 -1 75 7.4114203453063965e-02</internalNodes>
          <leafValues>
            -6.6348165273666382e-01 4.2876121401786804e-01</leafValues></_>
        <_>
          <internalNodes>
            0 -1 3 2.1470496430993080e-03</internalNodes>
          <leafValues>
            -7.5149697065353394e-01 2.5636279582977295e-01</leafValues></_>
        <_>
          <internalNodes>
            0 -1 60 1.1781287321355194e-04</internalNodes>
          <leafValues>
            1.8016505241394043e-01 -9.6741324663162231e-01</leafValues></_>
        <_>
          <internalNodes>
            0 -1 64 -2.6401452487334609e-04</internalNodes>
          <leafValues>
            -8.8598495721817017e-01 1.8001490831375122e-01</leafValues></_>
        <_>
          <internalNodes>
            0 -1 11 8.7138835806399584e-04</internalNodes>
          <leafValues>
            -5.6100082397460938e-01 3.2457029819488525e-01</leafValues></_></weakClassifiers></_>
    <!-- stage 4 -->
    <_>
      <maxWeakCount>7</maxWeakCount>
      <stageThreshold>-1.6315736770629883e+00</stageThreshold>
      <weakClassifiers>
        <_>
          <internalNodes>
            0 -1 27 2.4044955149292946e-02</internalNodes>
          <leafValues>
            -7.5046193599700928e-01 1.8858096003532410e-01</leafValues></_>
        <_>
          <internalNodes>
            0 -1 46 1.4868963509798050e-02</internalNodes>
          <leafValues>
            1.4379954338073730e-01 -8.0590873956680298e-01</leafValues></_>
        <_>
          <internalNodes>
            0 -1 6 -4.6288338489830494e-04</internalNodes>
          <leafValues>
            1.7031335830688477e-01 -8.0612504482269287e-01</leafValues></_>
        <_>
          <internalNodes>
            0 -1 51 3.8765729404985905e-03</internalNodes>
          <leafValues>
            2.1957466006278992e-01 -8.5679906606674194e-01</leafValues></_>
        <_>
          <internalNodes>
            0 -1 41 -1.9833126571029425e-03</internalNodes>
          <leafValues>
            -9.1157561540603638e-01 1.7315690219402313e-01</leafValues></_>
        <_>
          <internalNodes>
            0 -1 40 1.7247552750632167e-04</internalNodes>
          <leafValues>
            -6.3047796487808228e-01 2.2846707701683044e-01</leafValues></_>
        <_>
          <internalNodes>
            0 -1 13 -4.8248832172248513e-05</internalNodes>
          <leafValues>
            2.1801750361919403e-01 -7.6502054929733276e-01</leafValues></_></weakClassifiers></_>
    <!-- stage 5 -->
    <_>
      <maxWeakCount>9</maxWeakCount>
      <stageThreshold>-1.9234682321548462e+00</stageThreshold>
      <weakClassifiers>
        <_>
          <internalNodes>
            0 -1 76 1.2941514141857624e-02</internalNodes>
          <leafValues>
            -6.6179460287094116e-01 2.2812755405902863e-01</leafValues></_>
        <_>
          <internalNodes>
            0 -1 19 -4.4334610720397905e-05</internalNodes>
          <leafValues>
            1.9509314000606537e-01 -7.8424072265625000e-01</leafValues></_>
        <_>
          <internalNodes>
            0 -1 31 3.6460745614022017e-03</internalNodes>
          <leafValues>
            1.7769686877727509e-01 -8.2161933183670044e-01</leafValues></_>
        <_>
          <internalNodes>
            0 -1 38 2.7371016331017017e-03</internalNodes>
          <leafValues>
            1.5744203329086304e-01 -8.7504589557647705e-01</leafValues></_>
        <_>
          <internalNodes>
            0 -1 66 -2.5176245253533125e-03</internalNodes>
          <leafValues>
            1.9226813316345215e-01 -8.6466151475906372e-01</leafValues></_>
        <_>
          <internalNodes>
            0 -1 10 3.8927076384425163e-03</internalNodes>
          <leafValues>
            -4.5904690027236938e-01 3.2295152544975281e-01</leafValues></_>
        <_>
          <internalNodes>
            0 -1 45 -1.1646348051726818e-02</internalNodes>
          <leafValues>
            -8.0531007051467896e-01 1.9802527129650116e-01</leafValues></_>
        <_>
          <internalNodes>
            0 -1 47 -7.2891416493803263e-04</internalNodes>
          <leafValues>
            1.6661126911640167e-01 -8.7741917371749878e-01</leafValues></_>
        <_>
          <internalNodes>
            0 -1 72 6.9887284189462662e-04</internalNodes>
          <leafValues>
            -7.9494160413742065e-01 1.3360090553760529e-01</leafValues></_></weakClassifiers></_>
    <!-- stage 6 -->
    <_>
      <maxWeakCount>9</maxWeakCount>
      <stageThreshold>-1.3869843482971191e+00</stageThreshold>
      <weakClassifiers>
        <_>
          <internalNodes>
            0 -1 17 1.1125437915325165e-02</internalNodes>
          <leafValues>
            -7.1195828914642334e-01 1.1579386889934540e-01</leafValues></_>
        <_>
          <internalNodes>
            0 -1 5 1.9525694660842419e-03</internalNodes>
          <leafValues>
            -9.5301598310470581e-01 9.8599255084991455e-02</leafValues></_>
        <_>
          <internalNodes>
            0 -1 12 -1.2188246473670006e-03</internalNodes>
          <leafValues>
            3.0117812752723694e-01 -5.6442821025848389e-01</leafValues></_>
        <_>
          <internalNodes>
            0 -1 21 1.7266168724745512e-03</internalNodes>
          <leafValues>
            1.7436626553535461e-01 -7.2587221860885620e-01</leafValues></_>
        <_>
          <internalNodes>
            0 -1 52 1.7029471928253770e-04</internalNodes>
          <leafValues>
            -8.2499015331268311e-01 1.6254024207592010e-01</leafValues></_>
        <_>
          <internalNodes>
            0 -1 63 5.4656993597745895e-03</internalNodes>
          <leafValues>
            1.9025939702987671e-01 -7.7702802419662476e-01</leafValues></_>
        <_>
          <internalNodes>
            0 -1 57 3.4320112317800522e-02</internalNodes>
          <leafValues>
            1.3012506067752838e-01 -9.0188032388687134e-01</leafValues></_>
        <_>
          <internalNodes>
            0 -1 49 2.3334189318120480e-03</internalNodes>
          <leafValues>
            -8.0553102493286133e-01 1.6233785450458527e-01</leafValues></_>
        <_>
          <internalNodes>
            0 -1 58 -6.1636622995138168e-03</internalNodes>
          <leafValues>
            -7.7778077125549316e-01 1.2510353326797485e-01</leafValues></_></weakClassifiers></_>
    <!-- stage 7 -->
    <_>
      <maxWeakCount>10</maxWeakCount>
      <stageThreshold>-1.5950276851654053e+00</stageThreshold>
      <weakClassifiers>
        <_>
          <internalNodes>
            0 -1 74 5.9145693667232990e-03</internalNodes>
          <leafValues>
            -6.5446645021438599e-01 2.1316872537136078e-01</leafValues></_>
        <_>
          <internalNodes>
            0 -1 20 5.4802326485514641e-03</internalNodes>
          <leafValues>
            -4.3916633725166321e-01 3.7255463004112244e-01</leafValues></_>
        <_>
          <internalNodes>
            0 -1 39 2.2178369108587503e-03</internalNodes>
          <leafValues>
            -6.1056143045425415e-01 2.3095043003559113e-01</leafValues></_>
        <_>
          <internalNodes>
            0 -1 59 -1.9273909856565297e-04</internalNodes>
          <leafValues>
            -8.3548480272293091e-01 1.3959759473800659e-01</leafValues></_>
        <_>
          <internalNodes>
            0 -1 50 7.6893540099263191e-03</internalNodes>
          <leafValues>
            1.5577615797519684e-01 -8.5972207784652710e-01</leafValues></_>
        <_>
          <internalNodes>
            0 -1 44 1.2714092154055834e-03</internalNodes>
          <leafValues>
            -9.2845553159713745e-01 1.1925490200519562e-01</leafValues></_>
        <_>
          <internalNodes>
            0 -1 34 2.2213964257389307e-03</internalNodes>
          <leafValues>
            -2.5219619274139404e-01 6.4440697431564331e-01</leafValues></_>
        <_>
          <internalNodes>
            0 -1 35 -2.0798426121473312e-03</internalNodes>
          <leafValues>
            5.8964133262634277e-01 -2.8208178281784058e-01</leafValues></_>
        <_>
          <internalNodes>
            0 -1 69 2.9520067619159818e-04</internalNodes>
          <leafValues>
            -7.8022235631942749e-01 2.1445424854755402e-01</leafValues></_>
        <_>
          <internalNodes>
            0 -1 71 6.6824527457356453e-03</internalNodes>
          <leafValues>
            1.6752633452415466e-01 -6.2950241565704346e-01</leafValues></_></weakClassifiers></_>
    <!-- stage 8 -->
    <_>
      <maxWeakCount>11</maxWeakCount>
      <stageThreshold>-1.7969086170196533e+00</stageThreshold>
      <weakClassifiers>
        <_>
          <internalNodes>
            0 -1 9 -1.9391372799873352e-02</internalNodes>
          <leafValues>
            5.0591200590133667e-02 -7.0817780494689941e-01</leafValues></_>
        <_>
          <internalNodes>
            0 -1 15 1.8837382085621357e-03</internalNodes>
          <leafValues>
            -4.9108037352561951e-01 2.3792514204978943e-01</leafValues></_>
        <_>
          <internalNodes>
            0 -1 32 -1.4487466251011938e-04</internalNodes>
          <leafValues>
            -7.2751843929290771e-01 1.7259348928928375e-01</leafValues></_>
        <_>
          <internalNodes>
            0 -1 32 1.6763003077358007e-03</internalNodes>
          <leafValues>
            2.1493616700172424e-01 -7.5671535730361938e-01</leafValues></_>
        <_>
          <internalNodes>
            0 -1 29 1.5464089810848236e-03</internalNodes>
          <leafValues>
            -6.5652179718017578e-01 1.6597402095794678e-01</leafValues></_>
        <_>
          <internalNodes>
            0 -1 43 4.3978602625429630e-03</internalNodes>
          <leafValues>
            -2.1806776523590088e-01 5.5012625455856323e-01</leafValues></_>
        <_>
          <internalNodes>
            0 -1 54 4.0950828406494111e-05</internalNodes>
          <leafValues>
            -8.5032021999359131e-01 1.4849294722080231e-01</leafValues></_>
        <_>
          <internalNodes>
            0 -1 68 2.6262577623128891e-02</internalNodes>
          <leafValues>
            1.3504019379615784e-01 -8.0328744649887085e-01</leafValues></_>
        <_>
          <internalNodes>
            0 -1 24 1.0489368811249733e-02</internalNodes>
          <leafValues>
            -2.2337567806243896e-01 6.9823384284973145e-01</leafValues></_>
        <_>
          <internalNodes>
            0 -1 25 -2.1494221873581409e-03</internalNodes>
          <leafValues>
            5.7309955358505249e-01 -2.2020371258258820e-01</leafValues></_>
        <_>
          <internalNodes>
            0 -1 26 3.6421255208551884e-03</internalNodes>
          <leafValues>
            1.8137365579605103e-01 -7.2906988859176636e-01</leafValues></_></weakClassifiers></_>
    <!-- stage 9 -->
    <_>
      <maxWeakCount>12</maxWeakCount>
      <stageThreshold>-1.5463392734527588e+00</stageThreshold>
      <weakClassifiers>
        <_>
          <internalNodes>
            0 -1 67 6.6732307896018028e-03</internalNodes>
          <leafValues>
            -6.8250161409378052e-01 5.4749067872762680e-02</leafValues></_>
        <_>
          <internalNodes>
            0 -1 30 -1.9243520000600256e-05</internalNodes>
          <leafValues>
            1.2941500544548035e-01 -7.4730014801025391e-01</leafValues></_>
        <_>
          <internalNodes>
            0 -1 14 9.2632020823657513e-04</internalNodes>
          <leafValues>
            1.5135835111141205e-01 -7.3109072446823120e-01</leafValues></_>
        <_>
          <internalNodes>
            0 -1 4 -2.2789901122450829e-03</internalNodes>
          <leafValues>
            1.8178239464759827e-01 -7.3652499914169312e-01</leafValues></_>
        <_>
          <internalNodes>
            0 -1 22 -3.6428584717214108e-03</internalNodes>
          <leafValues>
            -9.0405249595642090e-01 1.3767950236797333e-01</leafValues></_>
        <_>
          <internalNodes>
            0 -1 62 1.3049195695202798e-04</internalNodes>
          <leafValues>
            1.4857977628707886e-01 -6.8322443962097168e-01</leafValues></_>
        <_>
          <internalNodes>
            0 -1 56 1.4451697934418917e-03</internalNodes>
          <leafValues>
            -2.6289469003677368e-01 4.8133859038352966e-01</leafValues></_>
        <_>
          <internalNodes>
            0 -1 55 4.5079118572175503e-03</internalNodes>
          <leafValues>
            -1.9731725752353668e-01 6.3215535879135132e-01</leafValues></_>
        <_>
          <internalNodes>
            0 -1 42 4.8666270449757576e-03</internalNodes>
          <leafValues>
            -2.1291446685791016e-01 6.4838016033172607e-01</leafValues></_>
        <_>
          <internalNodes>
            0 -1 53 3.9718151092529297e-03</internalNodes>
          <leafValues>
            2.2615067660808563e-01 -6.2756979465484619e-01</leafValues></_>
        <_>
          <internalNodes>
            0 -1 23 3.8482809904962778e-03</internalNodes>
          <leafValues>
            -2.7474674582481384e-01 4.6632608771324158e-01</leafValues></_>
        <_>
          <internalNodes>
            0 -1 73 -7.8679608122911304e-05</internalNodes>
          <leafValues>
            -6.3881814479827881e-01 2.0916599035263062e-01</leafValues></_></weakClassifiers></_></stages>
  <features>
    <_>
      <rects>
        <_>
          2 8 18 10 -1.</_>
        <_>
          8 8 6 10 3.</_></rects>
      <tilted>0</tilted></_>
    <_>
      <rects>
        <_>
          4 12 10 1 -1.</_>
        <_>
          9 12 5 1 2.</_></rects>
      <tilted>0</tilted></_>
    <_>
      <rects>
        <_>
          5 4 15 15 -1.</_>
        <_>
          10 9 5 5 9.</_></rects>
      <tilted>0</tilted></_>
    <_>
      <rects>
        <_>
          5 13 4 2 -1.</_>
        <_>
          7 13 2 2 2.</_></rects>
      <tilted>0</tilted></_>
    <_>
      <rects>
        <_>
          6 12 5 4 -1.</_>
        <_>
          6 14 5 2 2.</_></rects>
      <tilted>0</tilted></_>
    <_>
      <rects>
        <_>
          6 13 6 2 -1.</_>
        <_>
          9 13 3 2 2.</_></rects>
      <tilted>0</tilted></_>
    <_>
      <rects>
        <_>
          6 13 5 2 -1.</_>
        <_>
          6 14 5 1 2.</_></rects>
      <tilted>0</tilted></_>
    <_>
      <rects>
        <_>
          7 3 12 13 -1.</_>
        <_>
          10 3 6 13 2.</_></rects>
      <tilted>0</tilted></_>
    <_>
      <rects>
        <_>
          7 10 2 3 -1.</_>
        <_>
          6 11 2 1 3.</_></rects>
      <tilted>1</tilted></_>
    <_>
      <rects>
        <_>
          7 16 7 4 -1.</_>
        <_>
          7 18 7 2 2.</_></rects>
      <tilted>0</tilted></_>
    <_>
      <rects>
        <_>
          8 8 4 4 -1.</_>
        <_>
          9 8 2 4 2.</_></rects>
      <tilted>0</tilted></_>
    <_>
      <rects>
        <_>
          8 9 2 1 -1.</_>
        <_>
          9 9 1 1 2.</_></rects>
      <tilted>0</tilted></_>
    <_>
      <rects>
        <_>
          8 9 2 6 -1.</_>
        <_>
          8 9 1 3 2.</_>
        <_>
          9 12 1 3 2.</_></rects>
      <tilted>0</tilted></_>
    <_>
      <rects>
        <_>
          8 9 4 6 -1.</_>
        <_>
          8 9 2 3 2.</_>
        <_>
          10 12 2 3 2.</_></rects>
      <tilted>0</tilted></_>
    <_>
      <rects>
        <_>
          8 9 6 6 -1.</_>
        <_>
          8 9 3 3 2.</_>
        <_>
          11 12 3 3 2.</_></rects>
      <tilted>0</tilted></_>
    <_>
      <rects>
        <_>
          8 10 1 3 -1.</_>
        <_>
          7 11 1 1 3.</_></rects>
      <tilted>1</tilted></_>
    <_>
      <rects>
        <_>
          8 10 6 5 -1.</_>
        <_>
          10 10 2 5 3.</_></rects>
      <tilted>0</tilted></_>
    <_>
      <rects>
        <_>
          8 10 6 4 -1.</_>
        <_>
          7 11 6 2 2.</_></rects>
      <tilted>1</tilted></_>
    <_>
      <rects>
        <_>
          8 11 1 3 -1.</_>
        <_>
          7 12 1 1 3.</_></rects>
      <tilted>1</tilted></_>
    <_>
      <rects>
        <_>
          8 11 4 1 -1.</_>
        <_>
          8 11 2 1 2.</_></rects>
      <tilted>1</tilted></_>
    <_>
      <rects>
        <_>
          8 11 3 3 -1.</_>
        <_>
          7 12 3 1 3.</_></rects>
      <tilted>1</tilted></_>
    <_>
      <rects>
        <_>
          8 12 3 1 -1.</_>
        <_>
          9 13 1 1 3.</_></rects>
      <tilted>1</tilted></_>
    <_>
      <rects>
        <_>
          8 13 4 1 -1.</_>
        <_>
          8 13 2 1 2.</_></rects>
      <tilted>1</tilted></_>
    <_>
      <rects>
        <_>
          8 13 2 3 -1.</_>
        <_>
          7 14 2 1 3.</_></rects>
      <tilted>1</tilted></_>
    <_>
      <rects>
        <_>
          9 3 3 5 -1.</_>
        <_>
          10 3 1 5 3.</_></rects>
      <tilted>0</tilted></_>
    <_>
      <rects>
        <_>
          9 6 3 2 -1.</_>
        <_>
          10 6 1 2 3.</_></rects>
      <tilted>0</tilted></_>
    <_>
      <rects>
        <_>
          9 8 6 1 -1.</_>
        <_>
          12 8 3 1 2.</_></rects>
      <tilted>0</tilted></_>
    <_>
      <rects>
        <_>
          9 8 6 6 -1.</_>
        <_>
          7 10 6 2 3.</_></rects>
      <tilted>1</tilted></_>
    <_>
      <rects>
        <_>
          9 9 3 4 -1.</_>
        <_>
          10 9 1 4 3.</_></rects>
      <tilted>0</tilted></_>
    <_>
      <rects>
        <_>
          9 9 3 7 -1.</_>
        <_>
          10 9 1 7 3.</_></rects>
      <tilted>0</tilted></_>
    <_>
      <rects>
        <_>
          9 12 2 1 -1.</_>
        <_>
          9 12 1 1 2.</_></rects>
      <tilted>1</tilted></_>
    <_>
      <rects>
        <_>
          9 12 3 2 -1.</_>
        <_>
          10 13 1 2 3.</_></rects>
      <tilted>1</tilted></_>
    <_>
      <rects>
        <_>
          9 13 3 1 -1.</_>
        <_>
          10 14 1 1 3.</_></rects>
      <tilted>1</tilted></_>
    <_>
      <rects>
        <_>
          10 4 3 2 -1.</_>
        <_>
          11 4 1 2 3.</_></rects>
      <tilted>0</tilted></_>
    <_>
      <rects>
        <_>
          10 6 3 1 -1.</_>
        <_>
          11 6 1 1 3.</_></rects>
      <tilted>0</tilted></_>
    <_>
      <rects>
        <_>
          10 6 3 2 -1.</_>
        <_>
          11 6 1 2 3.</_></rects>
      <tilted>0</tilted></_>
    <_>
      <rects>
        <_>
          10 6 6 1 -1.</_>
        <_>
          10 6 3 1 2.</_></rects>
      <tilted>1</tilted></_>
    <_>
      <rects>
        <_>
          10 7 4 4 -1.</_>
        <_>
          10 9 4 2 2.</_></rects>
      <tilted>0</tilted></_>
    <_>
      <rects>
        <_>
          10 8 4 6 -1.</_>
        <_>
          10 8 2 3 2.</_>
        <_>
          12 11 2 3 2.</_></rects>
      <tilted>0</tilted></_>
    <_>
      <rects>
        <_>
          10 9 3 2 -1.</_>
        <_>
          11 10 1 2 3.</_></rects>
      <tilted>1</tilted></_>
    <_>
      <rects>
        <_>
          10 13 4 1 -1.</_>
        <_>
          11 14 2 1 2.</_></rects>
      <tilted>1</tilted></_>
    <_>
      <rects>
        <_>
          10 13 2 2 -1.</_>
        <_>
          10 13 1 2 2.</_></rects>
      <tilted>1</tilted></_>
    <_>
      <rects>
        <_>
          11 3 3 3 -1.</_>
        <_>
          12 3 1 3 3.</_></rects>
      <tilted>0</tilted></_>
    <_>
      <rects>
        <_>
          11 4 3 1 -1.</_>
        <_>
          12 5 1 1 3.</_></rects>
      <tilted>1</tilted></_>
    <_>
      <rects>
        <_>
          11 8 2 6 -1.</_>
        <_>
          11 10 2 2 3.</_></rects>
      <tilted>0</tilted></_>
    <_>
      <rects>
        <_>
          11 8 4 5 -1.</_>
        <_>
          13 8 2 5 2.</_></rects>
      <tilted>0</tilted></_>
    <_>
      <rects>
        <_>
          11 9 3 6 -1.</_>
        <_>
          12 11 1 2 9.</_></rects>
      <tilted>0</tilted></_>
    <_>
      <rects>
        <_>
          11 11 4 2 -1.</_>
        <_>
          13 11 2 2 2.</_></rects>
      <tilted>0</tilted></_>
    <_>
      <rects>
        <_>
          11 14 2 2 -1.</_>
        <_>
          11 14 1 2 2.</_></rects>
      <tilted>1</tilted></_>
    <_>
      <rects>
        <_>
          12 6 2 6 -1.</_>
        <_>
          12 9 2 3 2.</_></rects>
      <tilted>0</tilted></_>
    <_>
      <rects>
        <_>
          12 8 2 6 -1.</_>
        <_>
          12 10 2 2 3.</_></rects>
      <tilted>0</tilted></_>
    <_>
      <rects>
        <_>
          12 10 2 4 -1.</_>
        <_>
          12 10 1 4 2.</_></rects>
      <tilted>1</tilted></_>
    <_>
      <rects>
        <_>
          12 12 2 1 -1.</_>
        <_>
          12 12 1 1 2.</_></rects>
      <tilted>1</tilted></_>
    <_>
      <rects>
        <_>
          12 12 2 3 -1.</_>
        <_>
          12 12 1 3 2.</_></rects>
      <tilted>1</tilted></_>
    <_>
      <rects>
        <_>
          12 13 1 2 -1.</_>
        <_>
          12 13 1 1 2.</_></rects>
      <tilted>1</tilted></_>
    <_>
      <rects>
        <_>
          13 3 3 1 -1.</_>
        <_>
          14 4 1 1 3.</_></rects>
      <tilted>1</tilted></_>
    <_>
      <rects>
        <_>
          13 5 3 1 -1.</_>
        <_>
          14 5 1 1 3.</_></rects>
      <tilted>0</tilted></_>
    <_>
      <rects>
        <_>
          13 5 3 10 -1.</_>
        <_>
          13 10 3 5 2.</_></rects>
      <tilted>0</tilted></_>
    <_>
      <rects>
        <_>
          13 6 4 1 -1.</_>
        <_>
          13 6 2 1 2.</_></rects>
      <tilted>1</tilted></_>
    <_>
      <rects>
        <_>
          13 7 1 6 -1.</_>
        <_>
          13 10 1 3 2.</_></rects>
      <tilted>0</tilted></_>
    <_>
      <rects>
        <_>
          13 9 1 2 -1.</_>
        <_>
          13 9 1 1 2.</_></rects>
      <tilted>1</tilted></_>
    <_>
      <rects>
        <_>
          13 10 2 1 -1.</_>
        <_>
          13 10 1 1 2.</_></rects>
      <tilted>1</tilted></_>
    <_>
      <rects>
        <_>
          13 10 1 2 -1.</_>
        <_>
          13 10 1 1 2.</_></rects>
      <tilted>1</tilted></_>
    <_>
      <rects>
        <_>
          13 11 2 3 -1.</_>
        <_>
          13 11 1 3 2.</_></rects>
      <tilted>1</tilted></_>
    <_>
      <rects>
        <_>
          13 12 1 2 -1.</_>
        <_>
          13 12 1 1 2.</_></rects>
      <tilted>1</tilted></_>
    <_>
      <rects>
        <_>
          13 12 1 4 -1.</_>
        <_>
          13 12 1 2 2.</_></rects>
      <tilted>1</tilted></_>
    <_>
      <rects>
        <_>
          14 6 2 4 -1.</_>
        <_>
          14 6 2 2 2.</_></rects>
      <tilted>1</tilted></_>
    <_>
      <rects>
        <_>
          14 9 4 2 -1.</_>
        <_>
          15 10 2 2 2.</_></rects>
      <tilted>1</tilted></_>
    <_>
      <rects>
        <_>
          14 9 2 6 -1.</_>
        <_>
          12 11 2 2 3.</_></rects>
      <tilted>1</tilted></_>
    <_>
      <rects>
        <_>
          14 10 2 2 -1.</_>
        <_>
          14 10 1 2 2.</_></rects>
      <tilted>1</tilted></_>
    <_>
      <rects>
        <_>
          14 10 2 4 -1.</_>
        <_>
          14 10 1 4 2.</_></rects>
      <tilted>1</tilted></_>
    <_>
      <rects>
        <_>
          14 10 2 5 -1.</_>
        <_>
          14 10 1 5 2.</_></rects>
      <tilted>1</tilted></_>
    <_>
      <rects>
        <_>
          14 12 1 4 -1.</_>
        <_>
          14 12 1 2 2.</_></rects>
      <tilted>1</tilted></_>
    <_>
      <rects>
        <_>
          14 13 1 2 -1.</_>
        <_>
          14 13 1 1 2.</_></rects>
      <tilted>1</tilted></_>
    <_>
      <rects>
        <_>
          15 10 3 2 -1.</_>
        <_>
          16 11 1 2 3.</_></rects>
      <tilted>1</tilted></_>
    <_>
      <rects>
        <_>
          16 10 4 6 -1.</_>
        <_>
          16 10 2 6 2.</_></rects>
      <tilted>1</tilted></_>
    <_>
      <rects>
        <_>
          17 10 2 3 -1.</_>
        <_>
          17 10 1 3 2.</_></rects>
      <tilted>1</tilted></_></features></cascade>
</opencv_storage>
