<?xml version="1.0"?>
<opencv_storage>
<cascade>
  <stageType>BOOST</stageType>
  <featureType>HAAR</featureType>
  <height>20</height>
  <width>20</width>
  <stageParams>
    <boostType>GAB</boostType>
    <minHitRate>9.9500000476837158e-01</minHitRate>
    <maxFalseAlarm>5.0000000000000000e-01</maxFalseAlarm>
    <weightTrimRate>9.4999999999999996e-01</weightTrimRate>
    <maxDepth>1</maxDepth>
    <maxWeakCount>100</maxWeakCount></stageParams>
  <featureParams>
    <maxCatCount>0</maxCatCount>
    <featSize>1</featSize>
    <mode>ALL</mode></featureParams>
  <stageNum>10</stageNum>
  <stages>
    <!-- stage 0 -->
    <_>
      <maxWeakCount>2</maxWeakCount>
      <stageThreshold>-4.8400175571441650e-01</stageThreshold>
      <weakClassifiers>
        <_>
          <internalNodes>
            0 -1 32 7.4254861101508141e-03</internalNodes>
          <leafValues>
            -9.0151190757751465e-01 6.5891140699386597e-01</leafValues></_>
        <_>
          <internalNodes>
            0 -1 3 6.4847879111766815e-03</internalNodes>
          <leafValues>
            -9.2508727312088013e-01 4.1751012206077576e-01</leafValues></_></weakClassifiers></_>
    <!-- stage 1 -->
    <_>
      <maxWeakCount>4</maxWeakCount>
      <stageThreshold>-6.3444960117340088e-01</stageThreshold>
      <weakClassifiers>
        <_>
          <internalNodes>
            0 -1 0 4.7738099098205566e-01</internalNodes>
          <leafValues>
            -4.9934008717536926e-01 7.5268065929412842e-01</leafValues></_>
        <_>
          <internalNodes>
            0 -1 24 1.4818564523011446e-03</internalNodes>
          <leafValues>
            -6.8423944711685181e-01 5.3448659181594849e-01</leafValues></_>
        <_>
          <internalNodes>
            0 -1 8 -5.3760211449116468e-04</internalNodes>
          <leafValues>
            2.8093960881233215e-01 -8.7961167097091675e-01</leafValues></_>
        <_>
          <internalNodes>
            0 -1 33 2.3655421100556850e-03</internalNodes>
          <leafValues>
            -8.4302645921707153e-01 2.6819032430648804e-01</leafValues></_></weakClassifiers></_>
    <!-- stage 2 -->
    <_>
      <maxWeakCount>4</maxWeakCount>
      <stageThreshold>-4.9861621856689453e-01</stageThreshold>
      <weakClassifiers>
        <_>
          <internalNodes>
            0 -1 9 8.3902060985565186e-02</internalNodes>
          <leafValues>
            -4.1941100358963013e-01 6.8819475173950195e-01</leafValues></_>
        <_>
          <internalNodes>
            0 -1 17 2.2381930612027645e-03</internalNodes>
          <leafValues>
            -4.0003034472465515e-01 6.1333310604095459e-01</leafValues></_>
        <_>
          <internalNodes>
            0 -1 55 -1.4326801465358585e-04</internalNodes>
          <leafValues>
            -9.2116099596023560e-01 3.0273687839508057e-01</leafValues></_>
        <_>
          <internalNodes>
            0 -1 7 8.9315138757228851e-04</internalNodes>
          <leafValues>
            -9.8113793134689331e-01 2.2862266004085541e-01</leafValues></_></weakClassifiers></_>
    <!-- stage 3 -->
    <_>
      <maxWeakCount>8</maxWeakCount>
      <stageThreshold>-1.3147821426391602e+00</stageThreshold>
      <weakClassifiers>
        <_>
          <internalNodes>
            0 -1 14 -1.3061899226158857e-03</internalNodes>
          <leafValues>
            5.2410644292831421e-01 -5.3935045003890991e-01</leafValues></_>
        <_>
          <internalNodes>
            0 -1 69 5.7225711643695831e-02</internalNodes>
          <leafValues>
            -3.8094308972358704e-01 6.5950262546539307e-01</leafValues></_>
        <_>
          <internalNodes>
            0 -1 47 -8.6538284085690975e-04</internalNodes>
          <leafValues>
            -8.9631932973861694e-01 2.6538890600204468e-01</leafValues></_>
        <_>
          <internalNodes>
            0 -1 50 1.6458724858239293e-03</internalNodes>
          <leafValues>
            2.2270449995994568e-01 -8.7689685821533203e-01</leafValues></_>
        <_>
          <internalNodes>
            0 -1 51 5.0731068477034569e-03</internalNodes>
          <leafValues>
            1.5596117079257965e-01 -8.7471991777420044e-01</leafValues></_>
        <_>
          <internalNodes>
            0 -1 45 -8.5953681264072657e-04</internalNodes>
          <leafValues>
            2.0226557552814484e-01 -9.0886944532394409e-01</leafValues></_>
        <_>
          <internalNodes>
            0 -1 59 1.5379164833575487e-03</internalNodes>
          <leafValues>
            -9.0878516435623169e-01 1.5575936436653137e-01</leafValues></_>
        <_>
          <internalNodes>
            0 -1 30 4.5951949432492256e-03</internalNodes>
          <leafValues>
            -2.9696679115295410e-01 7.1892207860946655e-01</leafValues></_></weakClassifiers></_>
    <!-- stage 4 -->
    <_>
      <maxWeakCount>6</maxWeakCount>
      <stageThreshold>-5.1835042238235474e-01</stageThreshold>
      <weakClassifiers>
        <_>
          <internalNodes>
            0 -1 16 5.1265964284539223e-03</internalNodes>
          <leafValues>
            -4.0826871991157532e-01 5.7991802692413330e-01</leafValues></_>
        <_>
          <internalNodes>
            0 -1 64 8.2323998212814331e-03</internalNodes>
          <leafValues>
            2.9967686533927917e-01 -7.9341000318527222e-01</leafValues></_>
        <_>
          <internalNodes>
            0 -1 57 -1.9386473286431283e-04</internalNodes>
          <leafValues>
            2.5211533904075623e-01 -7.4355757236480713e-01</leafValues></_>
        <_>
          <internalNodes>
            0 -1 54 1.7874041805043817e-04</internalNodes>
          <leafValues>
            1.6136299073696136e-01 -9.7018730640411377e-01</leafValues></_>
        <_>
          <internalNodes>
            0 -1 34 3.0718841589987278e-03</internalNodes>
          <leafValues>
            1.5533006191253662e-01 -8.9776444435119629e-01</leafValues></_>
        <_>
          <internalNodes>
            0 -1 60 -5.3724035387858748e-04</internalNodes>
          <leafValues>
            -8.2173210382461548e-01 1.7942765355110168e-01</leafValues></_></weakClassifiers></_>
    <!-- stage 5 -->
    <_>
      <maxWeakCount>8</maxWeakCount>
      <stageThreshold>-1.2978577613830566e+00</stageThreshold>
      <weakClassifiers>
        <_>
          <internalNodes>
            0 -1 66 -5.7823996758088470e-04</internalNodes>
          <leafValues>
            -7.0445573329925537e-01 4.3026593327522278e-01</leafValues></_>
        <_>
          <internalNodes>
            0 -1 65 8.4663555026054382e-04</internalNodes>
          <leafValues>
            -8.3938145637512207e-01 2.2786693274974823e-01</leafValues></_>
        <_>
          <internalNodes>
            0 -1 63 -3.1976716127246618e-03</internalNodes>
          <leafValues>
            1.9446422159671783e-01 -8.6688125133514404e-01</leafValues></_>
        <_>
          <internalNodes>
            0 -1 15 -5.4625379561912268e-05</internalNodes>
          <leafValues>
            2.0931299030780792e-01 -7.8884446620941162e-01</leafValues></_>
        <_>
          <internalNodes>
            0 -1 22 4.3043248355388641e-02</internalNodes>
          <leafValues>
            2.3335053026676178e-01 -7.3314720392227173e-01</leafValues></_>
        <_>
          <internalNodes>
            0 -1 37 2.2340682335197926e-03</internalNodes>
          <leafValues>
            1.6688972711563110e-01 -8.1722080707550049e-01</leafValues></_>
        <_>
          <internalNodes>
            0 -1 18 -4.7049969434738159e-03</internalNodes>
          <leafValues>
            -8.8519161939620972e-01 1.6213262081146240e-01</leafValues></_>
        <_>
          <internalNodes>
            0 -1 19 3.3847088925540447e-03</internalNodes>
          <leafValues>
            -7.2017067670822144e-01 1.3639016449451447e-01</leafValues></_></weakClassifiers></_>
    <!-- stage 6 -->
    <_>
      <maxWeakCount>8</maxWeakCount>
      <stageThreshold>-1.0557081699371338e+00</stageThreshold>
      <weakClassifiers>
        <_>
          <internalNodes>
            0 -1 26 -3.4164782846346498e-05</internalNodes>
          <leafValues>
            4.3916681408882141e-01 -6.7418140172958374e-01</leafValues></_>
        <_>
          <internalNodes>
            0 -1 70 1.0729297995567322e-02</internalNodes>
          <leafValues>
            -3.7381649017333984e-01 5.3499919176101685e-01</leafValues></_>
        <_>
          <internalNodes>
            0 -1 43 1.4053533086553216e-03</internalNodes>
          <leafValues>
            -9.5023798942565918e-01 1.9388520717620850e-01</leafValues></_>
        <_>
          <internalNodes>
            0 -1 13 -1.4882369432598352e-03</internalNodes>
          <leafValues>
            3.7800195813179016e-01 -4.4305467605590820e-01</leafValues></_>
        <_>
          <internalNodes>
            0 -1 6 -2.8749590273946524e-04</internalNodes>
          <leafValues>
            1.9800181686878204e-01 -8.1139725446701050e-01</leafValues></_>
        <_>
          <internalNodes>
            0 -1 56 5.3409291431307793e-03</internalNodes>
          <leafValues>
            1.7170871794223785e-01 -8.0359154939651489e-01</leafValues></_>
        <_>
          <internalNodes>
            0 -1 25 1.6135387122631073e-03</internalNodes>
          <leafValues>
            -7.0059001445770264e-01 1.9676198065280914e-01</leafValues></_>
        <_>
          <internalNodes>
            0 -1 29 2.9391772113740444e-03</internalNodes>
          <leafValues>
            -3.2501330971717834e-01 4.5976766943931580e-01</leafValues></_></weakClassifiers></_>
    <!-- stage 7 -->
    <_>
      <maxWeakCount>10</maxWeakCount>
      <stageThreshold>-1.0270742177963257e+00</stageThreshold>
      <weakClassifiers>
        <_>
          <internalNodes>
            0 -1 48 4.0186233818531036e-02</internalNodes>
          <leafValues>
            3.4299096465110779e-01 -7.9045307636260986e-01</leafValues></_>
        <_>
          <internalNodes>
            0 -1 4 2.0231860689818859e-03</internalNodes>
          <leafValues>
            -7.3893100023269653e-01 2.3052436113357544e-01</leafValues></_>
        <_>
          <internalNodes>
            0 -1 67 -3.9685601368546486e-03</internalNodes>
          <leafValues>
            1.8560741841793060e-01 -7.8427690267562866e-01</leafValues></_>
        <_>
          <internalNodes>
            0 -1 52 3.7271432578563690e-02</internalNodes>
          <leafValues>
            1.7386873066425323e-01 -8.4284251928329468e-01</leafValues></_>
        <_>
          <internalNodes>
            0 -1 36 -2.4483804008923471e-04</internalNodes>
          <leafValues>
            -6.6315519809722900e-01 1.8378207087516785e-01</leafValues></_>
        <_>
          <internalNodes>
            0 -1 1 6.7992479307577014e-04</internalNodes>
          <leafValues>
            -3.8679492473602295e-01 3.7300860881805420e-01</leafValues></_>
        <_>
          <internalNodes>
            0 -1 58 5.9624668210744858e-04</internalNodes>
          <leafValues>
            -8.4211313724517822e-01 1.6465373337268829e-01</leafValues></_>
        <_>
          <internalNodes>
            0 -1 27 -2.1442538127303123e-04</internalNodes>
          <leafValues>
            -6.9863289594650269e-01 1.6667532920837402e-01</leafValues></_>
        <_>
          <internalNodes>
            0 -1 39 -2.8424110496416688e-04</internalNodes>
          <leafValues>
            -7.7753901481628418e-01 1.6104230284690857e-01</leafValues></_>
        <_>
          <internalNodes>
            0 -1 40 -6.6532669588923454e-03</internalNodes>
          <leafValues>
            7.0627111196517944e-01 -2.2295075654983521e-01</leafValues></_></weakClassifiers></_>
    <!-- stage 8 -->
    <_>
      <maxWeakCount>11</maxWeakCount>
      <stageThreshold>-1.1891297101974487e+00</stageThreshold>
      <weakClassifiers>
        <_>
          <internalNodes>
            0 -1 11 -1.7067564651370049e-02</internalNodes>
          <leafValues>
            5.3085762262344360e-01 -3.0303961038589478e-01</leafValues></_>
        <_>
          <internalNodes>
            0 -1 14 -1.3691370841115713e-03</internalNodes>
          <leafValues>
            3.0166313052177429e-01 -5.0410532951354980e-01</leafValues></_>
        <_>
          <internalNodes>
            0 -1 53 -1.9646596047095954e-04</internalNodes>
          <leafValues>
            -8.4849512577056885e-01 1.5441881120204926e-01</leafValues></_>
        <_>
          <internalNodes>
            0 -1 20 1.8512548413127661e-03</internalNodes>
          <leafValues>
            1.3590888679027557e-01 -8.1667417287826538e-01</leafValues></_>
        <_>
          <internalNodes>
            0 -1 37 -1.5678307972848415e-03</internalNodes>
          <leafValues>
            -8.6093521118164063e-01 1.5287604928016663e-01</leafValues></_>
        <_>
          <internalNodes>
            0 -1 44 2.2562223020941019e-03</internalNodes>
          <leafValues>
            -7.7245318889617920e-01 1.5979458391666412e-01</leafValues></_>
        <_>
          <internalNodes>
            0 -1 41 4.1388571262359619e-03</internalNodes>
          <leafValues>
            -2.4888885021209717e-01 6.1024987697601318e-01</leafValues></_>
        <_>
          <internalNodes>
            0 -1 62 2.4132989346981049e-03</internalNodes>
          <leafValues>
            -2.6413354277610779e-01 5.9086579084396362e-01</leafValues></_>
        <_>
          <internalNodes>
            0 -1 23 1.7469659447669983e-02</internalNodes>
          <leafValues>
            2.6133209466934204e-01 -6.5988308191299438e-01</leafValues></_>
        <_>
          <internalNodes>
            0 -1 49 -1.4483137056231499e-04</internalNodes>
          <leafValues>
            1.4744873344898224e-01 -6.3404530286788940e-01</leafValues></_>
        <_>
          <internalNodes>
            0 -1 46 -8.0037128645926714e-04</internalNodes>
          <leafValues>
            1.3805742561817169e-01 -8.5911840200424194e-01</leafValues></_></weakClassifiers></_>
    <!-- stage 9 -->
    <_>
      <maxWeakCount>12</maxWeakCount>
      <stageThreshold>-1.2674916982650757e+00</stageThreshold>
      <weakClassifiers>
        <_>
          <internalNodes>
            0 -1 35 2.4993121623992920e-03</internalNodes>
          <leafValues>
            -5.5741566419601440e-01 4.0591529011726379e-01</leafValues></_>
        <_>
          <internalNodes>
            0 -1 68 5.2293115295469761e-03</internalNodes>
          <leafValues>
            -3.1940698623657227e-01 5.4400086402893066e-01</leafValues></_>
        <_>
          <internalNodes>
            0 -1 2 7.8588258475065231e-03</internalNodes>
          <leafValues>
            -2.9990097880363464e-01 4.3433976173400879e-01</leafValues></_>
        <_>
          <internalNodes>
            0 -1 31 3.7233282346278429e-03</internalNodes>
          <leafValues>
            -2.0312461256980896e-01 6.2120044231414795e-01</leafValues></_>
        <_>
          <internalNodes>
            0 -1 21 4.0833717212080956e-03</internalNodes>
          <leafValues>
            -2.5386059284210205e-01 6.5301597118377686e-01</leafValues></_>
        <_>
          <internalNodes>
            0 -1 42 -1.2222316116094589e-02</internalNodes>
          <leafValues>
            -8.0068862438201904e-01 1.8529386818408966e-01</leafValues></_>
        <_>
          <internalNodes>
            0 -1 12 5.9518963098526001e-03</internalNodes>
          <leafValues>
            -2.2049058973789215e-01 6.3641434907913208e-01</leafValues></_>
        <_>
          <internalNodes>
            0 -1 28 -8.7283400353044271e-04</internalNodes>
          <leafValues>
            -7.5778508186340332e-01 1.9353616237640381e-01</leafValues></_>
        <_>
          <internalNodes>
            0 -1 10 5.3693675436079502e-03</internalNodes>
          <leafValues>
            -2.1459472179412842e-01 6.4649653434753418e-01</leafValues></_>
        <_>
          <internalNodes>
            0 -1 38 8.0972822615876794e-04</internalNodes>
          <leafValues>
            -4.4408619403839111e-01 2.9884421825408936e-01</leafValues></_>
        <_>
          <internalNodes>
            0 -1 61 -1.1323060607537627e-04</internalNodes>
          <leafValues>
            -8.1872028112411499e-01 1.3932575285434723e-01</leafValues></_>
        <_>
          <internalNodes>
            0 -1 5 -5.9207025915384293e-03</internalNodes>
          <leafValues>
            5.2952218055725098e-01 -2.3609811067581177e-01</leafValues></_></weakClassifiers></_></stages>
  <features>
    <_>
      <rects>
        <_>
          4 4 15 15 -1.</_>
        <_>
          9 9 5 5 9.</_></rects>
      <tilted>0</tilted></_>
    <_>
      <rects>
        <_>
          4 11 3 1 -1.</_>
        <_>
          5 11 1 1 3.</_></rects>
      <tilted>0</tilted></_>
    <_>
      <rects>
        <_>
          5 10 3 2 -1.</_>
        <_>
          5 10 3 1 2.</_></rects>
      <tilted>1</tilted></_>
    <_>
      <rects>
        <_>
          5 12 8 2 -1.</_>
        <_>
          9 12 4 2 2.</_></rects>
      <tilted>0</tilted></_>
    <_>
      <rects>
        <_>
          5 13 4 2 -1.</_>
        <_>
          7 13 2 2 2.</_></rects>
      <tilted>0</tilted></_>
    <_>
      <rects>
        <_>
          6 9 2 3 -1.</_>
        <_>
          5 10 2 1 3.</_></rects>
      <tilted>1</tilted></_>
    <_>
      <rects>
        <_>
          6 12 4 4 -1.</_>
        <_>
          6 14 4 2 2.</_></rects>
      <tilted>0</tilted></_>
    <_>
      <rects>
        <_>
          6 13 6 1 -1.</_>
        <_>
          9 13 3 1 2.</_></rects>
      <tilted>0</tilted></_>
    <_>
      <rects>
        <_>
          6 13 6 2 -1.</_>
        <_>
          6 14 6 1 2.</_></rects>
      <tilted>0</tilted></_>
    <_>
      <rects>
        <_>
          7 4 12 10 -1.</_>
        <_>
          10 4 6 10 2.</_></rects>
      <tilted>0</tilted></_>
    <_>
      <rects>
        <_>
          7 5 3 3 -1.</_>
        <_>
          8 5 1 3 3.</_></rects>
      <tilted>0</tilted></_>
    <_>
      <rects>
        <_>
          7 16 7 4 -1.</_>
        <_>
          7 18 7 2 2.</_></rects>
      <tilted>0</tilted></_>
    <_>
      <rects>
        <_>
          8 5 3 3 -1.</_>
        <_>
          9 5 1 3 3.</_></rects>
      <tilted>0</tilted></_>
    <_>
      <rects>
        <_>
          8 8 2 6 -1.</_>
        <_>
          8 8 1 3 2.</_>
        <_>
          9 11 1 3 2.</_></rects>
      <tilted>0</tilted></_>
    <_>
      <rects>
        <_>
          8 9 2 6 -1.</_>
        <_>
          8 9 1 3 2.</_>
        <_>
          9 12 1 3 2.</_></rects>
      <tilted>0</tilted></_>
    <_>
      <rects>
        <_>
          8 9 4 6 -1.</_>
        <_>
          8 9 2 3 2.</_>
        <_>
          10 12 2 3 2.</_></rects>
      <tilted>0</tilted></_>
    <_>
      <rects>
        <_>
          8 10 5 4 -1.</_>
        <_>
          7 11 5 2 2.</_></rects>
      <tilted>1</tilted></_>
    <_>
      <rects>
        <_>
          8 11 1 3 -1.</_>
        <_>
          7 12 1 1 3.</_></rects>
      <tilted>1</tilted></_>
    <_>
      <rects>
        <_>
          8 12 4 1 -1.</_>
        <_>
          8 12 2 1 2.</_></rects>
      <tilted>1</tilted></_>
    <_>
      <rects>
        <_>
          8 12 6 4 -1.</_>
        <_>
          10 12 2 4 3.</_></rects>
      <tilted>0</tilted></_>
    <_>
      <rects>
        <_>
          8 13 3 1 -1.</_>
        <_>
          9 14 1 1 3.</_></rects>
      <tilted>1</tilted></_>
    <_>
      <rects>
        <_>
          9 5 3 2 -1.</_>
        <_>
          10 5 1 2 3.</_></rects>
      <tilted>0</tilted></_>
    <_>
      <rects>
        <_>
          9 8 6 6 -1.</_>
        <_>
          11 10 2 2 9.</_></rects>
      <tilted>0</tilted></_>
    <_>
      <rects>
        <_>
          9 8 5 6 -1.</_>
        <_>
          9 10 5 2 3.</_></rects>
      <tilted>0</tilted></_>
    <_>
      <rects>
        <_>
          9 9 3 4 -1.</_>
        <_>
          10 9 1 4 3.</_></rects>
      <tilted>0</tilted></_>
    <_>
      <rects>
        <_>
          9 9 3 7 -1.</_>
        <_>
          10 9 1 7 3.</_></rects>
      <tilted>0</tilted></_>
    <_>
      <rects>
        <_>
          9 12 2 1 -1.</_>
        <_>
          9 12 1 1 2.</_></rects>
      <tilted>1</tilted></_>
    <_>
      <rects>
        <_>
          9 13 3 1 -1.</_>
        <_>
          10 14 1 1 3.</_></rects>
      <tilted>1</tilted></_>
    <_>
      <rects>
        <_>
          9 14 2 1 -1.</_>
        <_>
          9 14 1 1 2.</_></rects>
      <tilted>1</tilted></_>
    <_>
      <rects>
        <_>
          9 14 2 3 -1.</_>
        <_>
          8 15 2 1 3.</_></rects>
      <tilted>1</tilted></_>
    <_>
      <rects>
        <_>
          10 4 3 3 -1.</_>
        <_>
          11 4 1 3 3.</_></rects>
      <tilted>0</tilted></_>
    <_>
      <rects>
        <_>
          10 6 3 2 -1.</_>
        <_>
          11 6 1 2 3.</_></rects>
      <tilted>0</tilted></_>
    <_>
      <rects>
        <_>
          10 7 6 2 -1.</_>
        <_>
          12 9 2 2 3.</_></rects>
      <tilted>1</tilted></_>
    <_>
      <rects>
        <_>
          10 7 4 4 -1.</_>
        <_>
          10 9 4 2 2.</_></rects>
      <tilted>0</tilted></_>
    <_>
      <rects>
        <_>
          10 8 4 6 -1.</_>
        <_>
          10 8 2 3 2.</_>
        <_>
          12 11 2 3 2.</_></rects>
      <tilted>0</tilted></_>
    <_>
      <rects>
        <_>
          10 9 3 2 -1.</_>
        <_>
          11 10 1 2 3.</_></rects>
      <tilted>1</tilted></_>
    <_>
      <rects>
        <_>
          10 12 4 2 -1.</_>
        <_>
          10 12 2 1 2.</_>
        <_>
          12 13 2 1 2.</_></rects>
      <tilted>0</tilted></_>
    <_>
      <rects>
        <_>
          10 13 2 2 -1.</_>
        <_>
          10 13 1 2 2.</_></rects>
      <tilted>1</tilted></_>
    <_>
      <rects>
        <_>
          10 13 4 2 -1.</_>
        <_>
          11 14 2 2 2.</_></rects>
      <tilted>1</tilted></_>
    <_>
      <rects>
        <_>
          10 14 2 1 -1.</_>
        <_>
          11 14 1 1 2.</_></rects>
      <tilted>0</tilted></_>
    <_>
      <rects>
        <_>
          11 3 3 3 -1.</_>
        <_>
          12 3 1 3 3.</_></rects>
      <tilted>0</tilted></_>
    <_>
      <rects>
        <_>
          11 4 3 2 -1.</_>
        <_>
          12 4 1 2 3.</_></rects>
      <tilted>0</tilted></_>
    <_>
      <rects>
        <_>
          11 7 4 6 -1.</_>
        <_>
          13 7 2 6 2.</_></rects>
      <tilted>0</tilted></_>
    <_>
      <rects>
        <_>
          11 8 2 6 -1.</_>
        <_>
          11 10 2 2 3.</_></rects>
      <tilted>0</tilted></_>
    <_>
      <rects>
        <_>
          11 10 1 4 -1.</_>
        <_>
          11 10 1 2 2.</_></rects>
      <tilted>1</tilted></_>
    <_>
      <rects>
        <_>
          11 10 4 3 -1.</_>
        <_>
          13 10 2 3 2.</_></rects>
      <tilted>0</tilted></_>
    <_>
      <rects>
        <_>
          11 11 4 2 -1.</_>
        <_>
          13 11 2 2 2.</_></rects>
      <tilted>0</tilted></_>
    <_>
      <rects>
        <_>
          11 13 2 2 -1.</_>
        <_>
          11 13 1 2 2.</_></rects>
      <tilted>1</tilted></_>
    <_>
      <rects>
        <_>
          12 5 4 10 -1.</_>
        <_>
          12 10 4 5 2.</_></rects>
      <tilted>0</tilted></_>
    <_>
      <rects>
        <_>
          12 6 4 1 -1.</_>
        <_>
          12 6 2 1 2.</_></rects>
      <tilted>1</tilted></_>
    <_>
      <rects>
        <_>
          12 6 4 2 -1.</_>
        <_>
          12 6 2 2 2.</_></rects>
      <tilted>1</tilted></_>
    <_>
      <rects>
        <_>
          12 11 2 4 -1.</_>
        <_>
          12 11 1 4 2.</_></rects>
      <tilted>1</tilted></_>
    <_>
      <rects>
        <_>
          13 4 2 9 -1.</_>
        <_>
          10 7 2 3 3.</_></rects>
      <tilted>1</tilted></_>
    <_>
      <rects>
        <_>
          13 7 1 6 -1.</_>
        <_>
          13 10 1 3 2.</_></rects>
      <tilted>0</tilted></_>
    <_>
      <rects>
        <_>
          13 9 1 2 -1.</_>
        <_>
          13 9 1 1 2.</_></rects>
      <tilted>1</tilted></_>
    <_>
      <rects>
        <_>
          13 10 2 1 -1.</_>
        <_>
          13 10 1 1 2.</_></rects>
      <tilted>1</tilted></_>
    <_>
      <rects>
        <_>
          13 10 2 4 -1.</_>
        <_>
          13 10 1 4 2.</_></rects>
      <tilted>1</tilted></_>
    <_>
      <rects>
        <_>
          13 11 1 4 -1.</_>
        <_>
          13 13 1 2 2.</_></rects>
      <tilted>0</tilted></_>
    <_>
      <rects>
        <_>
          13 11 2 2 -1.</_>
        <_>
          13 11 1 2 2.</_></rects>
      <tilted>1</tilted></_>
    <_>
      <rects>
        <_>
          13 12 1 4 -1.</_>
        <_>
          13 12 1 2 2.</_></rects>
      <tilted>1</tilted></_>
    <_>
      <rects>
        <_>
          13 12 2 2 -1.</_>
        <_>
          13 12 2 1 2.</_></rects>
      <tilted>1</tilted></_>
    <_>
      <rects>
        <_>
          13 13 1 2 -1.</_>
        <_>
          13 13 1 1 2.</_></rects>
      <tilted>1</tilted></_>
    <_>
      <rects>
        <_>
          14 4 2 4 -1.</_>
        <_>
          14 4 1 2 2.</_>
        <_>
          15 6 1 2 2.</_></rects>
      <tilted>0</tilted></_>
    <_>
      <rects>
        <_>
          14 6 2 4 -1.</_>
        <_>
          14 6 2 2 2.</_></rects>
      <tilted>1</tilted></_>
    <_>
      <rects>
        <_>
          14 10 2 5 -1.</_>
        <_>
          14 10 1 5 2.</_></rects>
      <tilted>1</tilted></_>
    <_>
      <rects>
        <_>
          14 12 1 4 -1.</_>
        <_>
          14 12 1 2 2.</_></rects>
      <tilted>1</tilted></_>
    <_>
      <rects>
        <_>
          14 12 1 6 -1.</_>
        <_>
          12 14 1 2 3.</_></rects>
      <tilted>1</tilted></_>
    <_>
      <rects>
        <_>
          15 7 2 4 -1.</_>
        <_>
          15 7 2 2 2.</_></rects>
      <tilted>1</tilted></_>
    <_>
      <rects>
        <_>
          15 10 3 2 -1.</_>
        <_>
          16 11 1 2 3.</_></rects>
      <tilted>1</tilted></_>
    <_>
      <rects>
        <_>
          16 10 4 6 -1.</_>
        <_>
          16 10 2 6 2.</_></rects>
      <tilted>1</tilted></_>
    <_>
      <rects>
        <_>
          17 10 2 3 -1.</_>
        <_>
          17 10 1 3 2.</_></rects>
      <tilted>1</tilted></_></features></cascade>
</opencv_storage>
