<?xml version="1.0"?>
<opencv_storage>
<cascade>
  <stageType>BOOST</stageType>
  <featureType>HAAR</featureType>
  <height>20</height>
  <width>20</width>
  <stageParams>
    <boostType>GAB</boostType>
    <minHitRate>9.9500000476837158e-01</minHitRate>
    <maxFalseAlarm>5.0000000000000000e-01</maxFalseAlarm>
    <weightTrimRate>9.4999999999999996e-01</weightTrimRate>
    <maxDepth>1</maxDepth>
    <maxWeakCount>100</maxWeakCount></stageParams>
  <featureParams>
    <maxCatCount>0</maxCatCount>
    <featSize>1</featSize>
    <mode>ALL</mode></featureParams>
  <stageNum>3</stageNum>
  <stages>
    <!-- stage 0 -->
    <_>
      <maxWeakCount>4</maxWeakCount>
      <stageThreshold>-1.1857771873474121e+00</stageThreshold>
      <weakClassifiers>
        <_>
          <internalNodes>
            0 -1 2 -2.7169445157051086e-01</internalNodes>
          <leafValues>
            7.1910667419433594e-01 -8.6549562215805054e-01</leafValues></_>
        <_>
          <internalNodes>
            0 -1 8 2.5820242241024971e-02</internalNodes>
          <leafValues>
            -9.0054839849472046e-01 3.3226418495178223e-01</leafValues></_>
        <_>
          <internalNodes>
            0 -1 7 1.6440291801700369e-05</internalNodes>
          <leafValues>
            2.8555786609649658e-01 -9.6216422319412231e-01</leafValues></_>
        <_>
          <internalNodes>
            0 -1 7 -1.6827994841150939e-05</internalNodes>
          <leafValues>
            -9.3810361623764038e-01 4.7225871682167053e-01</leafValues></_></weakClassifiers></_>
    <!-- stage 1 -->
    <_>
      <maxWeakCount>5</maxWeakCount>
      <stageThreshold>-1.5897207260131836e+00</stageThreshold>
      <weakClassifiers>
        <_>
          <internalNodes>
            0 -1 4 -3.4887748956680298e-01</internalNodes>
          <leafValues>
            7.4247080087661743e-01 -7.3359251022338867e-01</leafValues></_>
        <_>
          <internalNodes>
            0 -1 6 1.5228752999973949e-05</internalNodes>
          <leafValues>
            3.6382818222045898e-01 -9.4282162189483643e-01</leafValues></_>
        <_>
          <internalNodes>
            0 -1 6 -1.6242551282630302e-05</internalNodes>
          <leafValues>
            -9.6484917402267456e-01 3.4204939007759094e-01</leafValues></_>
        <_>
          <internalNodes>
            0 -1 5 1.6528655588626862e-01</internalNodes>
          <leafValues>
            -5.6603246927261353e-01 6.0673987865447998e-01</leafValues></_>
        <_>
          <internalNodes>
            0 -1 1 -1.1258341372013092e-01</internalNodes>
          <leafValues>
            3.1067639589309692e-01 -9.1148531436920166e-01</leafValues></_></weakClassifiers></_>
    <!-- stage 2 -->
    <_>
      <maxWeakCount>4</maxWeakCount>
      <stageThreshold>-1.0372332334518433e+00</stageThreshold>
      <weakClassifiers>
        <_>
          <internalNodes>
            0 -1 6 1.4786603969696444e-05</internalNodes>
          <leafValues>
            4.3386533856391907e-01 -9.7190409898757935e-01</leafValues></_>
        <_>
          <internalNodes>
            0 -1 3 -4.3835517764091492e-01</internalNodes>
          <leafValues>
            6.9662272930145264e-01 -6.0018217563629150e-01</leafValues></_>
        <_>
          <internalNodes>
            0 -1 7 1.4494376955553889e-05</internalNodes>
          <leafValues>
            2.8248360753059387e-01 -9.8409587144851685e-01</leafValues></_>
        <_>
          <internalNodes>
            0 -1 0 -1.0451458394527435e-02</internalNodes>
          <leafValues>
            2.5236934423446655e-01 -9.5485562086105347e-01</leafValues></_></weakClassifiers></_></stages>
  <features>
    <_>
      <rects>
        <_>
          0 0 12 9 -1.</_>
        <_>
          6 0 6 9 2.</_></rects>
      <tilted>0</tilted></_>
    <_>
      <rects>
        <_>
          1 0 17 20 -1.</_>
        <_>
          1 10 17 10 2.</_></rects>
      <tilted>0</tilted></_>
    <_>
      <rects>
        <_>
          1 4 16 16 -1.</_>
        <_>
          5 4 8 16 2.</_></rects>
      <tilted>0</tilted></_>
    <_>
      <rects>
        <_>
          2 6 16 14 -1.</_>
        <_>
          6 6 8 14 2.</_></rects>
      <tilted>0</tilted></_>
    <_>
      <rects>
        <_>
          2 7 16 13 -1.</_>
        <_>
          6 7 8 13 2.</_></rects>
      <tilted>0</tilted></_>
    <_>
      <rects>
        <_>
          7 5 8 15 -1.</_>
        <_>
          11 5 4 15 2.</_></rects>
      <tilted>0</tilted></_>
    <_>
      <rects>
        <_>
          17 0 2 11 -1.</_>
        <_>
          18 0 1 11 2.</_></rects>
      <tilted>0</tilted></_>
    <_>
      <rects>
        <_>
          18 1 2 6 -1.</_>
        <_>
          18 3 2 2 3.</_></rects>
      <tilted>0</tilted></_>
    <_>
      <rects>
        <_>
          19 0 1 12 -1.</_>
        <_>
          19 0 1 6 2.</_></rects>
      <tilted>1</tilted></_></features></cascade>
</opencv_storage>
