<?xml version="1.0"?>
<opencv_storage>
<cascade>
  <stageType>BOOST</stageType>
  <featureType>HAAR</featureType>
  <height>20</height>
  <width>20</width>
  <stageParams>
    <boostType>GAB</boostType>
    <minHitRate>9.9500000476837158e-01</minHitRate>
    <maxFalseAlarm>5.0000000000000000e-01</maxFalseAlarm>
    <weightTrimRate>9.4999999999999996e-01</weightTrimRate>
    <maxDepth>1</maxDepth>
    <maxWeakCount>100</maxWeakCount></stageParams>
  <featureParams>
    <maxCatCount>0</maxCatCount>
    <featSize>1</featSize>
    <mode>BASIC</mode></featureParams>
  <stageNum>8</stageNum>
  <stages>
    <!-- stage 0 -->
    <_>
      <maxWeakCount>4</maxWeakCount>
      <stageThreshold>-1.1584330797195435e+00</stageThreshold>
      <weakClassifiers>
        <_>
          <internalNodes>
            0 -1 7 -4.6932432055473328e-01</internalNodes>
          <leafValues>
            7.6683086156845093e-01 -8.5076355934143066e-01</leafValues></_>
        <_>
          <internalNodes>
            0 -1 17 1.6682179272174835e-01</internalNodes>
          <leafValues>
            -8.6740958690643311e-01 3.4822255373001099e-01</leafValues></_>
        <_>
          <internalNodes>
            0 -1 20 1.6752605006331578e-05</internalNodes>
          <leafValues>
            2.9728081822395325e-01 -9.9560791254043579e-01</leafValues></_>
        <_>
          <internalNodes>
            0 -1 4 -1.0700486600399017e-01</internalNodes>
          <leafValues>
            2.6245927810668945e-01 -9.2943125963211060e-01</leafValues></_></weakClassifiers></_>
    <!-- stage 1 -->
    <_>
      <maxWeakCount>4</maxWeakCount>
      <stageThreshold>-1.1468000411987305e+00</stageThreshold>
      <weakClassifiers>
        <_>
          <internalNodes>
            0 -1 10 -5.9516358375549316e-01</internalNodes>
          <leafValues>
            7.2950017452239990e-01 -7.5262820720672607e-01</leafValues></_>
        <_>
          <internalNodes>
            0 -1 21 -1.4213213944458403e-05</internalNodes>
          <leafValues>
            -9.7304153442382813e-01 3.4300470352172852e-01</leafValues></_>
        <_>
          <internalNodes>
            0 -1 13 -4.4102683663368225e-02</internalNodes>
          <leafValues>
            2.7687653899192810e-01 -8.8497936725616455e-01</leafValues></_>
        <_>
          <internalNodes>
            0 -1 24 1.4974192708905321e-05</internalNodes>
          <leafValues>
            3.0199313163757324e-01 -9.6669936180114746e-01</leafValues></_></weakClassifiers></_>
    <!-- stage 2 -->
    <_>
      <maxWeakCount>2</maxWeakCount>
      <stageThreshold>-3.8185790181159973e-01</stageThreshold>
      <weakClassifiers>
        <_>
          <internalNodes>
            0 -1 9 -6.4826929569244385e-01</internalNodes>
          <leafValues>
            6.0149669647216797e-01 -7.3464280366897583e-01</leafValues></_>
        <_>
          <internalNodes>
            0 -1 24 -1.3635723917104769e-05</internalNodes>
          <leafValues>
            -9.8335462808609009e-01 3.7772494554519653e-01</leafValues></_></weakClassifiers></_>
    <!-- stage 3 -->
    <_>
      <maxWeakCount>2</maxWeakCount>
      <stageThreshold>-5.8945935964584351e-01</stageThreshold>
      <weakClassifiers>
        <_>
          <internalNodes>
            0 -1 15 3.9904639124870300e-01</internalNodes>
          <leafValues>
            -7.9033297300338745e-01 2.8955224156379700e-01</leafValues></_>
        <_>
          <internalNodes>
            0 -1 22 1.3673940884473268e-05</internalNodes>
          <leafValues>
            2.0087359845638275e-01 -9.9235111474990845e-01</leafValues></_></weakClassifiers></_>
    <!-- stage 4 -->
    <_>
      <maxWeakCount>4</maxWeakCount>
      <stageThreshold>-1.4498326778411865e+00</stageThreshold>
      <weakClassifiers>
        <_>
          <internalNodes>
            0 -1 16 -4.5977227389812469e-02</internalNodes>
          <leafValues>
            2.7292263507843018e-01 -8.9401137828826904e-01</leafValues></_>
        <_>
          <internalNodes>
            0 -1 3 -1.1000348255038261e-02</internalNodes>
          <leafValues>
            2.1113817393779755e-01 -9.5610296726226807e-01</leafValues></_>
        <_>
          <internalNodes>
            0 -1 22 -1.4324024959933013e-05</internalNodes>
          <leafValues>
            -9.9538534879684448e-01 1.8528370559215546e-01</leafValues></_>
        <_>
          <internalNodes>
            0 -1 19 2.5867339223623276e-02</internalNodes>
          <leafValues>
            -9.5224320888519287e-01 2.8150182962417603e-01</leafValues></_></weakClassifiers></_>
    <!-- stage 5 -->
    <_>
      <maxWeakCount>4</maxWeakCount>
      <stageThreshold>-1.2595975399017334e+00</stageThreshold>
      <weakClassifiers>
        <_>
          <internalNodes>
            0 -1 14 -6.2239080667495728e-02</internalNodes>
          <leafValues>
            -3.4501060843467712e-02 -8.8799506425857544e-01</leafValues></_>
        <_>
          <internalNodes>
            0 -1 0 -1.2431858340278268e-04</internalNodes>
          <leafValues>
            -9.1571688652038574e-01 1.5076319873332977e-01</leafValues></_>
        <_>
          <internalNodes>
            0 -1 0 1.2951830285601318e-05</internalNodes>
          <leafValues>
            3.0120974779129028e-01 -9.3435889482498169e-01</leafValues></_>
        <_>
          <internalNodes>
            0 -1 12 1.8286908045411110e-02</internalNodes>
          <leafValues>
            -7.5621092319488525e-01 2.4290461838245392e-01</leafValues></_></weakClassifiers></_>
    <!-- stage 6 -->
    <_>
      <maxWeakCount>5</maxWeakCount>
      <stageThreshold>-1.4103749990463257e+00</stageThreshold>
      <weakClassifiers>
        <_>
          <internalNodes>
            0 -1 1 -5.2852476073894650e-05</internalNodes>
          <leafValues>
            -4.5621782541275024e-02 -9.6270954608917236e-01</leafValues></_>
        <_>
          <internalNodes>
            0 -1 0 -1.3461204616760369e-05</internalNodes>
          <leafValues>
            -8.9570003747940063e-01 1.5822325646877289e-01</leafValues></_>
        <_>
          <internalNodes>
            0 -1 5 -1.1104904115200043e-01</internalNodes>
          <leafValues>
            3.0862024426460266e-01 -7.9967731237411499e-01</leafValues></_>
        <_>
          <internalNodes>
            0 -1 23 -1.5056685697345529e-05</internalNodes>
          <leafValues>
            -8.6649787425994873e-01 1.8643943965435028e-01</leafValues></_>
        <_>
          <internalNodes>
            0 -1 23 1.4381716937350575e-05</internalNodes>
          <leafValues>
            1.4319868385791779e-01 -9.9305170774459839e-01</leafValues></_></weakClassifiers></_>
    <!-- stage 7 -->
    <_>
      <maxWeakCount>6</maxWeakCount>
      <stageThreshold>-1.3623409271240234e+00</stageThreshold>
      <weakClassifiers>
        <_>
          <internalNodes>
            0 -1 8 -3.4182092547416687e-01</internalNodes>
          <leafValues>
            3.2719111442565918e-01 -7.5611752271652222e-01</leafValues></_>
        <_>
          <internalNodes>
            0 -1 18 6.0656944697257131e-05</internalNodes>
          <leafValues>
            -8.4639072418212891e-01 2.3657321929931641e-01</leafValues></_>
        <_>
          <internalNodes>
            0 -1 23 -1.4467177607002668e-05</internalNodes>
          <leafValues>
            -8.8782721757888794e-01 1.7523252964019775e-01</leafValues></_>
        <_>
          <internalNodes>
            0 -1 2 8.6342479335144162e-05</internalNodes>
          <leafValues>
            1.5594173967838287e-01 -9.6575504541397095e-01</leafValues></_>
        <_>
          <internalNodes>
            0 -1 11 1.8828332424163818e-01</internalNodes>
          <leafValues>
            -2.9638680815696716e-01 5.7264202833175659e-01</leafValues></_>
        <_>
          <internalNodes>
            0 -1 6 -1.4078009407967329e-03</internalNodes>
          <leafValues>
            -6.6364896297454834e-01 2.9925054311752319e-01</leafValues></_></weakClassifiers></_></stages>
  <features>
    <_>
      <rects>
        <_>
          0 0 1 8 -1.</_>
        <_>
          0 4 1 4 2.</_></rects>
      <tilted>0</tilted></_>
    <_>
      <rects>
        <_>
          0 0 12 4 -1.</_>
        <_>
          0 0 6 2 2.</_>
        <_>
          6 2 6 2 2.</_></rects>
      <tilted>0</tilted></_>
    <_>
      <rects>
        <_>
          0 0 12 5 -1.</_>
        <_>
          6 0 6 5 2.</_></rects>
      <tilted>0</tilted></_>
    <_>
      <rects>
        <_>
          0 0 12 9 -1.</_>
        <_>
          6 0 6 9 2.</_></rects>
      <tilted>0</tilted></_>
    <_>
      <rects>
        <_>
          0 0 19 20 -1.</_>
        <_>
          0 10 19 10 2.</_></rects>
      <tilted>0</tilted></_>
    <_>
      <rects>
        <_>
          0 0 20 12 -1.</_>
        <_>
          0 6 20 6 2.</_></rects>
      <tilted>0</tilted></_>
    <_>
      <rects>
        <_>
          0 1 1 16 -1.</_>
        <_>
          0 9 1 8 2.</_></rects>
      <tilted>0</tilted></_>
    <_>
      <rects>
        <_>
          0 5 18 14 -1.</_>
        <_>
          6 5 6 14 3.</_></rects>
      <tilted>0</tilted></_>
    <_>
      <rects>
        <_>
          0 6 12 14 -1.</_>
        <_>
          6 6 6 14 2.</_></rects>
      <tilted>0</tilted></_>
    <_>
      <rects>
        <_>
          0 6 18 14 -1.</_>
        <_>
          6 6 6 14 3.</_></rects>
      <tilted>0</tilted></_>
    <_>
      <rects>
        <_>
          1 7 18 13 -1.</_>
        <_>
          7 7 6 13 3.</_></rects>
      <tilted>0</tilted></_>
    <_>
      <rects>
        <_>
          4 13 12 7 -1.</_>
        <_>
          10 13 6 7 2.</_></rects>
      <tilted>0</tilted></_>
    <_>
      <rects>
        <_>
          4 19 16 1 -1.</_>
        <_>
          12 19 8 1 2.</_></rects>
      <tilted>0</tilted></_>
    <_>
      <rects>
        <_>
          5 0 9 10 -1.</_>
        <_>
          5 5 9 5 2.</_></rects>
      <tilted>0</tilted></_>
    <_>
      <rects>
        <_>
          6 0 14 10 -1.</_>
        <_>
          6 5 14 5 2.</_></rects>
      <tilted>0</tilted></_>
    <_>
      <rects>
        <_>
          6 5 14 15 -1.</_>
        <_>
          13 5 7 15 2.</_></rects>
      <tilted>0</tilted></_>
    <_>
      <rects>
        <_>
          7 0 5 10 -1.</_>
        <_>
          7 5 5 5 2.</_></rects>
      <tilted>0</tilted></_>
    <_>
      <rects>
        <_>
          7 5 12 15 -1.</_>
        <_>
          13 5 6 15 2.</_></rects>
      <tilted>0</tilted></_>
    <_>
      <rects>
        <_>
          8 2 12 2 -1.</_>
        <_>
          8 2 6 1 2.</_>
        <_>
          14 3 6 1 2.</_></rects>
      <tilted>0</tilted></_>
    <_>
      <rects>
        <_>
          8 9 12 3 -1.</_>
        <_>
          14 9 6 3 2.</_></rects>
      <tilted>0</tilted></_>
    <_>
      <rects>
        <_>
          14 0 6 4 -1.</_>
        <_>
          14 2 6 2 2.</_></rects>
      <tilted>0</tilted></_>
    <_>
      <rects>
        <_>
          17 0 2 4 -1.</_>
        <_>
          17 2 2 2 2.</_></rects>
      <tilted>0</tilted></_>
    <_>
      <rects>
        <_>
          17 1 3 6 -1.</_>
        <_>
          17 3 3 2 3.</_></rects>
      <tilted>0</tilted></_>
    <_>
      <rects>
        <_>
          17 1 3 10 -1.</_>
        <_>
          17 6 3 5 2.</_></rects>
      <tilted>0</tilted></_>
    <_>
      <rects>
        <_>
          18 1 2 6 -1.</_>
        <_>
          18 3 2 2 3.</_></rects>
      <tilted>0</tilted></_></features></cascade>
</opencv_storage>
