<?xml version="1.0"?>
<opencv_storage>
<cascade>
  <stageType>BOOST</stageType>
  <featureType>HAAR</featureType>
  <height>20</height>
  <width>20</width>
  <stageParams>
    <boostType>GAB</boostType>
    <minHitRate>9.9500000476837158e-01</minHitRate>
    <maxFalseAlarm>5.0000000000000000e-01</maxFalseAlarm>
    <weightTrimRate>9.4999999999999996e-01</weightTrimRate>
    <maxDepth>1</maxDepth>
    <maxWeakCount>100</maxWeakCount></stageParams>
  <featureParams>
    <maxCatCount>0</maxCatCount>
    <featSize>1</featSize>
    <mode>BASIC</mode></featureParams>
  <stageNum>6</stageNum>
  <stages>
    <!-- stage 0 -->
    <_>
      <maxWeakCount>2</maxWeakCount>
      <stageThreshold>-2.6756715774536133e-01</stageThreshold>
      <weakClassifiers>
        <_>
          <internalNodes>
            0 -1 9 1.8361358344554901e-01</internalNodes>
          <leafValues>
            -8.4192436933517456e-01 8.1570285558700562e-01</leafValues></_>
        <_>
          <internalNodes>
            0 -1 8 -3.8422845304012299e-02</internalNodes>
          <leafValues>
            5.7435727119445801e-01 -8.9134043455123901e-01</leafValues></_></weakClassifiers></_>
    <!-- stage 1 -->
    <_>
      <maxWeakCount>2</maxWeakCount>
      <stageThreshold>-6.9116629660129547e-02</stageThreshold>
      <weakClassifiers>
        <_>
          <internalNodes>
            0 -1 4 -3.7001052498817444e-01</internalNodes>
          <leafValues>
            8.3435583114624023e-01 -6.0536396503448486e-01</leafValues></_>
        <_>
          <internalNodes>
            0 -1 15 1.7917172954184934e-05</internalNodes>
          <leafValues>
            5.3624737262725830e-01 -9.6948075294494629e-01</leafValues></_></weakClassifiers></_>
    <!-- stage 2 -->
    <_>
      <maxWeakCount>2</maxWeakCount>
      <stageThreshold>-2.7663612365722656e-01</stageThreshold>
      <weakClassifiers>
        <_>
          <internalNodes>
            0 -1 15 -1.5815308870514855e-05</internalNodes>
          <leafValues>
            -9.7397190332412720e-01 9.4900709390640259e-01</leafValues></_>
        <_>
          <internalNodes>
            0 -1 14 -1.4295994333224371e-05</internalNodes>
          <leafValues>
            -8.9908057451248169e-01 6.9733577966690063e-01</leafValues></_></weakClassifiers></_>
    <!-- stage 3 -->
    <_>
      <maxWeakCount>1</maxWeakCount>
      <stageThreshold>7.9235953092575073e-01</stageThreshold>
      <weakClassifiers>
        <_>
          <internalNodes>
            0 -1 13 1.5378042007796466e-05</internalNodes>
          <leafValues>
            7.9235953092575073e-01 -9.8451614379882813e-01</leafValues></_></weakClassifiers></_>
    <!-- stage 4 -->
    <_>
      <maxWeakCount>6</maxWeakCount>
      <stageThreshold>-1.1538119316101074e+00</stageThreshold>
      <weakClassifiers>
        <_>
          <internalNodes>
            0 -1 0 -2.3685418069362640e-02</internalNodes>
          <leafValues>
            7.1304535865783691e-01 -9.2246949672698975e-01</leafValues></_>
        <_>
          <internalNodes>
            0 -1 6 -5.8646923303604126e-01</internalNodes>
          <leafValues>
            7.9648745059967041e-01 -4.0109130740165710e-01</leafValues></_>
        <_>
          <internalNodes>
            0 -1 3 -5.7468179147690535e-04</internalNodes>
          <leafValues>
            3.3865642547607422e-01 -8.5295611619949341e-01</leafValues></_>
        <_>
          <internalNodes>
            0 -1 1 -7.9503486631438136e-05</internalNodes>
          <leafValues>
            3.2618391513824463e-01 -6.6429871320724487e-01</leafValues></_>
        <_>
          <internalNodes>
            0 -1 12 -1.7426948033971712e-05</internalNodes>
          <leafValues>
            -6.7134106159210205e-01 3.0972430109977722e-01</leafValues></_>
        <_>
          <internalNodes>
            0 -1 12 1.5580342733301222e-05</internalNodes>
          <leafValues>
            1.8566676974296570e-01 -9.9724954366683960e-01</leafValues></_></weakClassifiers></_>
    <!-- stage 5 -->
    <_>
      <maxWeakCount>6</maxWeakCount>
      <stageThreshold>-1.1581975221633911e+00</stageThreshold>
      <weakClassifiers>
        <_>
          <internalNodes>
            0 -1 10 3.2378569245338440e-02</internalNodes>
          <leafValues>
            -8.8077247142791748e-01 6.3401955366134644e-01</leafValues></_>
        <_>
          <internalNodes>
            0 -1 5 -3.3560699224472046e-01</internalNodes>
          <leafValues>
            7.5240534543991089e-01 -4.4895508885383606e-01</leafValues></_>
        <_>
          <internalNodes>
            0 -1 7 -4.4819034636020660e-02</internalNodes>
          <leafValues>
            2.9103356599807739e-01 -9.0223723649978638e-01</leafValues></_>
        <_>
          <internalNodes>
            0 -1 11 -1.5731506209704094e-05</internalNodes>
          <leafValues>
            -6.1677825450897217e-01 3.3645287156105042e-01</leafValues></_>
        <_>
          <internalNodes>
            0 -1 2 -1.5757677829242311e-05</internalNodes>
          <leafValues>
            -7.0568555593490601e-01 2.8761678934097290e-01</leafValues></_>
        <_>
          <internalNodes>
            0 -1 2 1.5731506209704094e-05</internalNodes>
          <leafValues>
            2.0965787768363953e-01 -9.5449876785278320e-01</leafValues></_></weakClassifiers></_></stages>
  <features>
    <_>
      <rects>
        <_>
          0 0 12 10 -1.</_>
        <_>
          6 0 6 10 2.</_></rects>
      <tilted>0</tilted></_>
    <_>
      <rects>
        <_>
          0 2 10 2 -1.</_>
        <_>
          0 2 5 1 2.</_>
        <_>
          5 3 5 1 2.</_></rects>
      <tilted>0</tilted></_>
    <_>
      <rects>
        <_>
          0 3 4 4 -1.</_>
        <_>
          0 5 4 2 2.</_></rects>
      <tilted>0</tilted></_>
    <_>
      <rects>
        <_>
          0 4 9 16 -1.</_>
        <_>
          0 12 9 8 2.</_></rects>
      <tilted>0</tilted></_>
    <_>
      <rects>
        <_>
          0 5 18 15 -1.</_>
        <_>
          6 5 6 15 3.</_></rects>
      <tilted>0</tilted></_>
    <_>
      <rects>
        <_>
          0 6 12 14 -1.</_>
        <_>
          6 6 6 14 2.</_></rects>
      <tilted>0</tilted></_>
    <_>
      <rects>
        <_>
          1 7 18 13 -1.</_>
        <_>
          7 7 6 13 3.</_></rects>
      <tilted>0</tilted></_>
    <_>
      <rects>
        <_>
          2 0 18 10 -1.</_>
        <_>
          2 5 18 5 2.</_></rects>
      <tilted>0</tilted></_>
    <_>
      <rects>
        <_>
          6 0 8 10 -1.</_>
        <_>
          6 5 8 5 2.</_></rects>
      <tilted>0</tilted></_>
    <_>
      <rects>
        <_>
          7 5 12 15 -1.</_>
        <_>
          13 5 6 15 2.</_></rects>
      <tilted>0</tilted></_>
    <_>
      <rects>
        <_>
          8 8 10 4 -1.</_>
        <_>
          13 8 5 4 2.</_></rects>
      <tilted>0</tilted></_>
    <_>
      <rects>
        <_>
          17 0 2 16 -1.</_>
        <_>
          17 8 2 8 2.</_></rects>
      <tilted>0</tilted></_>
    <_>
      <rects>
        <_>
          17 0 3 14 -1.</_>
        <_>
          17 7 3 7 2.</_></rects>
      <tilted>0</tilted></_>
    <_>
      <rects>
        <_>
          17 1 1 6 -1.</_>
        <_>
          17 3 1 2 3.</_></rects>
      <tilted>0</tilted></_>
    <_>
      <rects>
        <_>
          17 1 3 6 -1.</_>
        <_>
          17 3 3 2 3.</_></rects>
      <tilted>0</tilted></_>
    <_>
      <rects>
        <_>
          18 1 2 6 -1.</_>
        <_>
          18 3 2 2 3.</_></rects>
      <tilted>0</tilted></_></features></cascade>
</opencv_storage>
