<?xml version="1.0"?>
<opencv_storage>
<cascade>
  <stageType>BOOST</stageType>
  <featureType>HAAR</featureType>
  <height>20</height>
  <width>20</width>
  <stageParams>
    <boostType>GAB</boostType>
    <minHitRate>9.9500000476837158e-01</minHitRate>
    <maxFalseAlarm>5.0000000000000000e-01</maxFalseAlarm>
    <weightTrimRate>9.4999999999999996e-01</weightTrimRate>
    <maxDepth>1</maxDepth>
    <maxWeakCount>100</maxWeakCount></stageParams>
  <featureParams>
    <maxCatCount>0</maxCatCount>
    <featSize>1</featSize>
    <mode>BASIC</mode></featureParams>
  <stageNum>10</stageNum>
  <stages>
    <!-- stage 0 -->
    <_>
      <maxWeakCount>9</maxWeakCount>
      <stageThreshold>-1.0488333702087402e+00</stageThreshold>
      <weakClassifiers>
        <_>
          <internalNodes>
            0 -1 38 4.8238202929496765e-02</internalNodes>
          <leafValues>
            -2.9761135578155518e-01 8.6856514215469360e-01</leafValues></_>
        <_>
          <internalNodes>
            0 -1 202 1.4972763892728835e-05</internalNodes>
          <leafValues>
            -4.7336605191230774e-01 5.6613326072692871e-01</leafValues></_>
        <_>
          <internalNodes>
            0 -1 166 4.8690210096538067e-03</internalNodes>
          <leafValues>
            -4.3504908680915833e-01 6.1594796180725098e-01</leafValues></_>
        <_>
          <internalNodes>
            0 -1 40 4.8939986154437065e-03</internalNodes>
          <leafValues>
            -2.6929247379302979e-01 7.4661499261856079e-01</leafValues></_>
        <_>
          <internalNodes>
            0 -1 264 -3.2253344543278217e-03</internalNodes>
          <leafValues>
            7.0062446594238281e-01 -2.1137490868568420e-01</leafValues></_>
        <_>
          <internalNodes>
            0 -1 33 3.0767992138862610e-03</internalNodes>
          <leafValues>
            -2.3439773917198181e-01 7.2031813859939575e-01</leafValues></_>
        <_>
          <internalNodes>
            0 -1 83 -3.1230240128934383e-03</internalNodes>
          <leafValues>
            8.1341117620468140e-01 -1.3691188395023346e-01</leafValues></_>
        <_>
          <internalNodes>
            0 -1 125 -1.4972763892728835e-05</internalNodes>
          <leafValues>
            4.1746148467063904e-01 -3.4688004851341248e-01</leafValues></_>
        <_>
          <internalNodes>
            0 -1 247 1.8386175725026987e-05</internalNodes>
          <leafValues>
            -3.3052274584770203e-01 4.0133425593376160e-01</leafValues></_></weakClassifiers></_>
    <!-- stage 1 -->
    <_>
      <maxWeakCount>8</maxWeakCount>
      <stageThreshold>-5.8752608299255371e-01</stageThreshold>
      <weakClassifiers>
        <_>
          <internalNodes>
            0 -1 259 -1.7923173800227232e-05</internalNodes>
          <leafValues>
            8.0297303199768066e-01 -3.3692917227745056e-01</leafValues></_>
        <_>
          <internalNodes>
            0 -1 42 -5.9503046795725822e-03</internalNodes>
          <leafValues>
            7.8188067674636841e-01 -2.0076969265937805e-01</leafValues></_>
        <_>
          <internalNodes>
            0 -1 215 2.1020341591793112e-05</internalNodes>
          <leafValues>
            -4.1051611304283142e-01 5.0891411304473877e-01</leafValues></_>
        <_>
          <internalNodes>
            0 -1 41 -1.7217267668456770e-05</internalNodes>
          <leafValues>
            6.7481768131256104e-01 -2.8392273187637329e-01</leafValues></_>
        <_>
          <internalNodes>
            0 -1 118 2.7437484823167324e-04</internalNodes>
          <leafValues>
            -3.0026358366012573e-01 6.6992872953414917e-01</leafValues></_>
        <_>
          <internalNodes>
            0 -1 82 -1.9297258404549211e-05</internalNodes>
          <leafValues>
            5.8180195093154907e-01 -3.4244459867477417e-01</leafValues></_>
        <_>
          <internalNodes>
            0 -1 82 2.0556195522658527e-05</internalNodes>
          <leafValues>
            -3.4057721495628357e-01 6.1639970541000366e-01</leafValues></_>
        <_>
          <internalNodes>
            0 -1 86 -1.6968811396509409e-03</internalNodes>
          <leafValues>
            7.5459069013595581e-01 -2.4851009249687195e-01</leafValues></_></weakClassifiers></_>
    <!-- stage 2 -->
    <_>
      <maxWeakCount>15</maxWeakCount>
      <stageThreshold>-1.1472886800765991e+00</stageThreshold>
      <weakClassifiers>
        <_>
          <internalNodes>
            0 -1 102 1.0911278426647186e-01</internalNodes>
          <leafValues>
            -1.6411092877388000e-01 7.4708276987075806e-01</leafValues></_>
        <_>
          <internalNodes>
            0 -1 10 1.8239730596542358e-01</internalNodes>
          <leafValues>
            -1.8179982900619507e-01 6.0388940572738647e-01</leafValues></_>
        <_>
          <internalNodes>
            0 -1 156 2.5789055507630110e-04</internalNodes>
          <leafValues>
            -5.2526694536209106e-01 2.8457903861999512e-01</leafValues></_>
        <_>
          <internalNodes>
            0 -1 21 1.7112584318965673e-03</internalNodes>
          <leafValues>
            -1.9298005104064941e-01 6.4571809768676758e-01</leafValues></_>
        <_>
          <internalNodes>
            0 -1 57 1.7384586390107870e-03</internalNodes>
          <leafValues>
            -1.8169587850570679e-01 6.3574385643005371e-01</leafValues></_>
        <_>
          <internalNodes>
            0 -1 201 -1.3239748077467084e-03</internalNodes>
          <leafValues>
            -5.2672386169433594e-01 2.3514424264431000e-01</leafValues></_>
        <_>
          <internalNodes>
            0 -1 150 7.1665355935692787e-03</internalNodes>
          <leafValues>
            1.9525972008705139e-01 -6.7814880609512329e-01</leafValues></_>
        <_>
          <internalNodes>
            0 -1 84 2.3438318166881800e-03</internalNodes>
          <leafValues>
            -1.8847532570362091e-01 7.0358002185821533e-01</leafValues></_>
        <_>
          <internalNodes>
            0 -1 83 -2.2123451344668865e-03</internalNodes>
          <leafValues>
            4.9958321452140808e-01 -1.3932865858078003e-01</leafValues></_>
        <_>
          <internalNodes>
            0 -1 26 1.0001818835735321e-01</internalNodes>
          <leafValues>
            1.4466843008995056e-01 -5.1277112960815430e-01</leafValues></_>
        <_>
          <internalNodes>
            0 -1 168 2.3729025269858539e-04</internalNodes>
          <leafValues>
            -3.0713880062103271e-01 2.2004020214080811e-01</leafValues></_>
        <_>
          <internalNodes>
            0 -1 172 7.5001162476837635e-03</internalNodes>
          <leafValues>
            -1.5729631483554840e-01 4.2492744326591492e-01</leafValues></_>
        <_>
          <internalNodes>
            0 -1 242 1.4416761696338654e-03</internalNodes>
          <leafValues>
            -2.0307624340057373e-01 3.4630548954010010e-01</leafValues></_>
        <_>
          <internalNodes>
            0 -1 68 -8.4677513223141432e-04</internalNodes>
          <leafValues>
            4.8117974400520325e-01 -1.4825636148452759e-01</leafValues></_>
        <_>
          <internalNodes>
            0 -1 76 1.1533025652170181e-02</internalNodes>
          <leafValues>
            -1.7499980330467224e-01 3.8586291670799255e-01</leafValues></_></weakClassifiers></_>
    <!-- stage 3 -->
    <_>
      <maxWeakCount>22</maxWeakCount>
      <stageThreshold>-1.2286566495895386e+00</stageThreshold>
      <weakClassifiers>
        <_>
          <internalNodes>
            0 -1 37 8.5689760744571686e-02</internalNodes>
          <leafValues>
            -5.1604781299829483e-02 6.7581188678741455e-01</leafValues></_>
        <_>
          <internalNodes>
            0 -1 204 3.6933831870555878e-03</internalNodes>
          <leafValues>
            -2.9620420932769775e-01 3.9545229077339172e-01</leafValues></_>
        <_>
          <internalNodes>
            0 -1 86 3.0026065651327372e-03</internalNodes>
          <leafValues>
            -1.8238762021064758e-01 5.9427642822265625e-01</leafValues></_>
        <_>
          <internalNodes>
            0 -1 57 1.6117325285449624e-03</internalNodes>
          <leafValues>
            -2.4749872088432312e-01 5.2201879024505615e-01</leafValues></_>
        <_>
          <internalNodes>
            0 -1 157 1.3562239473685622e-04</internalNodes>
          <leafValues>
            -4.6897777915000916e-01 2.7179867029190063e-01</leafValues></_>
        <_>
          <internalNodes>
            0 -1 111 1.7711853142827749e-03</internalNodes>
          <leafValues>
            -1.9017325341701508e-01 5.9405362606048584e-01</leafValues></_>
        <_>
          <internalNodes>
            0 -1 192 1.0645244270563126e-02</internalNodes>
          <leafValues>
            1.6887553036212921e-01 -6.5007615089416504e-01</leafValues></_>
        <_>
          <internalNodes>
            0 -1 152 9.3958849902264774e-05</internalNodes>
          <leafValues>
            -4.1444659233093262e-01 2.2704038023948669e-01</leafValues></_>
        <_>
          <internalNodes>
            0 -1 21 2.1854517981410027e-03</internalNodes>
          <leafValues>
            -1.3032522797584534e-01 5.9508991241455078e-01</leafValues></_>
        <_>
          <internalNodes>
            0 -1 52 1.8462729640305042e-03</internalNodes>
          <leafValues>
            -1.3589599728584290e-01 5.0301164388656616e-01</leafValues></_>
        <_>
          <internalNodes>
            0 -1 95 -7.8674167161807418e-04</internalNodes>
          <leafValues>
            4.6532902121543884e-01 -1.7041254043579102e-01</leafValues></_>
        <_>
          <internalNodes>
            0 -1 61 6.1445601284503937e-02</internalNodes>
          <leafValues>
            1.4634692668914795e-01 -4.3691310286521912e-01</leafValues></_>
        <_>
          <internalNodes>
            0 -1 51 -1.3146356213837862e-03</internalNodes>
          <leafValues>
            6.0004717111587524e-01 -1.0575889050960541e-01</leafValues></_>
        <_>
          <internalNodes>
            0 -1 66 -6.4190803095698357e-04</internalNodes>
          <leafValues>
            3.8507932424545288e-01 -1.6785550117492676e-01</leafValues></_>
        <_>
          <internalNodes>
            0 -1 65 -7.8212085645645857e-04</internalNodes>
          <leafValues>
            4.3181222677230835e-01 -1.3316591084003448e-01</leafValues></_>
        <_>
          <internalNodes>
            0 -1 243 1.1924309656023979e-03</internalNodes>
          <leafValues>
            -1.6025561094284058e-01 4.0622729063034058e-01</leafValues></_>
        <_>
          <internalNodes>
            0 -1 228 1.5868127811700106e-03</internalNodes>
          <leafValues>
            8.2782223820686340e-02 -7.2713714838027954e-01</leafValues></_>
        <_>
          <internalNodes>
            0 -1 44 -2.1306113339960575e-03</internalNodes>
          <leafValues>
            4.5862898230552673e-01 -1.3321529328823090e-01</leafValues></_>
        <_>
          <internalNodes>
            0 -1 249 8.2781049422919750e-04</internalNodes>
          <leafValues>
            -9.1604828834533691e-02 5.0035345554351807e-01</leafValues></_>
        <_>
          <internalNodes>
            0 -1 110 -1.3710723258554935e-02</internalNodes>
          <leafValues>
            -7.7142250537872314e-01 8.6123138666152954e-02</leafValues></_>
        <_>
          <internalNodes>
            0 -1 198 7.2544785216450691e-03</internalNodes>
          <leafValues>
            4.1143018752336502e-02 -8.7871479988098145e-01</leafValues></_>
        <_>
          <internalNodes>
            0 -1 80 -2.1238215267658234e-03</internalNodes>
          <leafValues>
            4.2759910225868225e-01 -1.2072719633579254e-01</leafValues></_></weakClassifiers></_>
    <!-- stage 4 -->
    <_>
      <maxWeakCount>32</maxWeakCount>
      <stageThreshold>-1.0395468473434448e+00</stageThreshold>
      <weakClassifiers>
        <_>
          <internalNodes>
            0 -1 235 -2.4484712630510330e-02</internalNodes>
          <leafValues>
            6.9932103157043457e-01 2.3789992555975914e-02</leafValues></_>
        <_>
          <internalNodes>
            0 -1 166 4.7853523865342140e-03</internalNodes>
          <leafValues>
            -3.1263157725334167e-01 3.6051455140113831e-01</leafValues></_>
        <_>
          <internalNodes>
            0 -1 164 -2.4649075930938125e-04</internalNodes>
          <leafValues>
            -5.1325577497482300e-01 1.8711493909358978e-01</leafValues></_>
        <_>
          <internalNodes>
            0 -1 137 1.0541711002588272e-02</internalNodes>
          <leafValues>
            -2.6541653275489807e-01 3.9817914366722107e-01</leafValues></_>
        <_>
          <internalNodes>
            0 -1 58 5.0500365905463696e-03</internalNodes>
          <leafValues>
            -1.6061443090438843e-01 5.3559637069702148e-01</leafValues></_>
        <_>
          <internalNodes>
            0 -1 84 2.7386369183659554e-03</internalNodes>
          <leafValues>
            -1.0929311811923981e-01 6.6404688358306885e-01</leafValues></_>
        <_>
          <internalNodes>
            0 -1 25 3.5569369792938232e-03</internalNodes>
          <leafValues>
            -1.5602932870388031e-01 3.6543419957160950e-01</leafValues></_>
        <_>
          <internalNodes>
            0 -1 94 1.1314130388200283e-02</internalNodes>
          <leafValues>
            -1.3517963886260986e-01 4.2577424645423889e-01</leafValues></_>
        <_>
          <internalNodes>
            0 -1 157 7.9982765018939972e-03</internalNodes>
          <leafValues>
            1.1830327659845352e-01 -5.6752264499664307e-01</leafValues></_>
        <_>
          <internalNodes>
            0 -1 79 -1.8711341544985771e-03</internalNodes>
          <leafValues>
            3.5371646285057068e-01 -1.5197940170764923e-01</leafValues></_>
        <_>
          <internalNodes>
            0 -1 217 -1.5084422193467617e-03</internalNodes>
          <leafValues>
            -5.7181531190872192e-01 9.6725620329380035e-02</leafValues></_>
        <_>
          <internalNodes>
            0 -1 51 -8.0247124424204230e-04</internalNodes>
          <leafValues>
            3.7286946177482605e-01 -1.4340689778327942e-01</leafValues></_>
        <_>
          <internalNodes>
            0 -1 51 7.0011848583817482e-04</internalNodes>
          <leafValues>
            -1.2191640585660934e-01 3.7077039480209351e-01</leafValues></_>
        <_>
          <internalNodes>
            0 -1 106 1.9507113844156265e-02</internalNodes>
          <leafValues>
            8.5824444890022278e-02 -5.4528814554214478e-01</leafValues></_>
        <_>
          <internalNodes>
            0 -1 181 -1.3486216776072979e-03</internalNodes>
          <leafValues>
            3.4729295969009399e-01 -1.3225397467613220e-01</leafValues></_>
        <_>
          <internalNodes>
            0 -1 153 1.7135946836788207e-04</internalNodes>
          <leafValues>
            -2.7346360683441162e-01 1.5662890672683716e-01</leafValues></_>
        <_>
          <internalNodes>
            0 -1 99 -1.1498752282932401e-03</internalNodes>
          <leafValues>
            4.1288536787033081e-01 -1.1727146059274673e-01</leafValues></_>
        <_>
          <internalNodes>
            0 -1 214 -2.3131037130951881e-02</internalNodes>
          <leafValues>
            3.6533939838409424e-01 -1.0801023244857788e-01</leafValues></_>
        <_>
          <internalNodes>
            0 -1 201 7.1812537498772144e-05</internalNodes>
          <leafValues>
            -2.4304227530956268e-01 1.9161161780357361e-01</leafValues></_>
        <_>
          <internalNodes>
            0 -1 9 5.9323236346244812e-02</internalNodes>
          <leafValues>
            -1.2992753088474274e-01 3.6237186193466187e-01</leafValues></_>
        <_>
          <internalNodes>
            0 -1 219 5.1325967069715261e-04</internalNodes>
          <leafValues>
            -1.9539485871791840e-01 2.0735940337181091e-01</leafValues></_>
        <_>
          <internalNodes>
            0 -1 55 6.6238682484254241e-04</internalNodes>
          <leafValues>
            -1.1979240924119949e-01 3.4806779026985168e-01</leafValues></_>
        <_>
          <internalNodes>
            0 -1 165 3.8421256467700005e-03</internalNodes>
          <leafValues>
            5.1374234259128571e-02 -8.3945155143737793e-01</leafValues></_>
        <_>
          <internalNodes>
            0 -1 5 -9.7459908574819565e-03</internalNodes>
          <leafValues>
            -3.7713310122489929e-01 9.2294611036777496e-02</leafValues></_>
        <_>
          <internalNodes>
            0 -1 21 2.6297154836356640e-03</internalNodes>
          <leafValues>
            -8.8441208004951477e-02 4.3012180924415588e-01</leafValues></_>
        <_>
          <internalNodes>
            0 -1 218 4.1719730943441391e-03</internalNodes>
          <leafValues>
            6.5677307546138763e-02 -5.8525907993316650e-01</leafValues></_>
        <_>
          <internalNodes>
            0 -1 243 1.1323085054755211e-03</internalNodes>
          <leafValues>
            -1.4445105195045471e-01 2.9223009943962097e-01</leafValues></_>
        <_>
          <internalNodes>
            0 -1 243 -7.7297270763665438e-04</internalNodes>
          <leafValues>
            3.5573202371597290e-01 -1.1979390680789948e-01</leafValues></_>
        <_>
          <internalNodes>
            0 -1 15 1.3702260330319405e-02</internalNodes>
          <leafValues>
            -7.2945542633533478e-02 4.7963359951972961e-01</leafValues></_>
        <_>
          <internalNodes>
            0 -1 19 -6.1372265219688416e-02</internalNodes>
          <leafValues>
            -6.0125428438186646e-01 6.6739492118358612e-02</leafValues></_>
        <_>
          <internalNodes>
            0 -1 96 -9.2858821153640747e-04</internalNodes>
          <leafValues>
            3.2831865549087524e-01 -1.1556309461593628e-01</leafValues></_>
        <_>
          <internalNodes>
            0 -1 135 7.2072539478540421e-04</internalNodes>
          <leafValues>
            -1.5383447706699371e-01 2.2086594998836517e-01</leafValues></_></weakClassifiers></_>
    <!-- stage 5 -->
    <_>
      <maxWeakCount>38</maxWeakCount>
      <stageThreshold>-1.0036380290985107e+00</stageThreshold>
      <weakClassifiers>
        <_>
          <internalNodes>
            0 -1 171 -6.4698024652898312e-04</internalNodes>
          <leafValues>
            5.2948325872421265e-01 -2.0000000298023224e-01</leafValues></_>
        <_>
          <internalNodes>
            0 -1 199 1.1303665116429329e-02</internalNodes>
          <leafValues>
            -2.5878685712814331e-01 4.1998225450515747e-01</leafValues></_>
        <_>
          <internalNodes>
            0 -1 152 -2.2567305713891983e-03</internalNodes>
          <leafValues>
            -6.1759215593338013e-01 1.2221065908670425e-01</leafValues></_>
        <_>
          <internalNodes>
            0 -1 141 5.4290331900119781e-03</internalNodes>
          <leafValues>
            -2.3939900100231171e-01 2.8748214244842529e-01</leafValues></_>
        <_>
          <internalNodes>
            0 -1 28 2.5718158576637506e-03</internalNodes>
          <leafValues>
            -1.4862488210201263e-01 4.4820544123649597e-01</leafValues></_>
        <_>
          <internalNodes>
            0 -1 119 -1.0714586824178696e-03</internalNodes>
          <leafValues>
            2.7776834368705750e-01 -2.0103555917739868e-01</leafValues></_>
        <_>
          <internalNodes>
            0 -1 63 -5.9069367125630379e-03</internalNodes>
          <leafValues>
            3.9365336298942566e-01 -1.3574586808681488e-01</leafValues></_>
        <_>
          <internalNodes>
            0 -1 197 7.1466192603111267e-03</internalNodes>
          <leafValues>
            7.5216047465801239e-02 -6.5412002801895142e-01</leafValues></_>
        <_>
          <internalNodes>
            0 -1 84 -1.6061060596257448e-03</internalNodes>
          <leafValues>
            3.7339249253273010e-01 -1.3621142506599426e-01</leafValues></_>
        <_>
          <internalNodes>
            0 -1 115 4.4326540082693100e-03</internalNodes>
          <leafValues>
            1.5905727446079254e-01 -4.3114256858825684e-01</leafValues></_>
        <_>
          <internalNodes>
            0 -1 163 3.9577273128088564e-05</internalNodes>
          <leafValues>
            -3.6557891964912415e-01 1.3101400434970856e-01</leafValues></_>
        <_>
          <internalNodes>
            0 -1 253 3.9911940693855286e-03</internalNodes>
          <leafValues>
            -8.1553556025028229e-02 5.1234132051467896e-01</leafValues></_>
        <_>
          <internalNodes>
            0 -1 92 -1.8256131559610367e-02</internalNodes>
          <leafValues>
            -6.0048592090606689e-01 7.2263963520526886e-02</leafValues></_>
        <_>
          <internalNodes>
            0 -1 53 -1.0740964114665985e-01</internalNodes>
          <leafValues>
            5.0433784723281860e-01 -9.3308746814727783e-02</leafValues></_>
        <_>
          <internalNodes>
            0 -1 97 3.5377116873860359e-03</internalNodes>
          <leafValues>
            -6.8734012544155121e-02 4.6453478932380676e-01</leafValues></_>
        <_>
          <internalNodes>
            0 -1 39 -3.8117282092571259e-03</internalNodes>
          <leafValues>
            3.5557451844215393e-01 -1.0027288645505905e-01</leafValues></_>
        <_>
          <internalNodes>
            0 -1 158 4.2106676846742630e-03</internalNodes>
          <leafValues>
            3.5471010953187943e-02 -7.6764345169067383e-01</leafValues></_>
        <_>
          <internalNodes>
            0 -1 112 5.8063701726496220e-04</internalNodes>
          <leafValues>
            -1.2119971960783005e-01 3.3899083733558655e-01</leafValues></_>
        <_>
          <internalNodes>
            0 -1 34 1.2786578387022018e-02</internalNodes>
          <leafValues>
            -1.0645617544651031e-01 3.0698648095130920e-01</leafValues></_>
        <_>
          <internalNodes>
            0 -1 77 8.6306864395737648e-03</internalNodes>
          <leafValues>
            -1.0714688897132874e-01 3.0731311440467834e-01</leafValues></_>
        <_>
          <internalNodes>
            0 -1 224 -8.8868115562945604e-04</internalNodes>
          <leafValues>
            -2.7924707531929016e-01 1.2806260585784912e-01</leafValues></_>
        <_>
          <internalNodes>
            0 -1 238 -9.1787532437592745e-04</internalNodes>
          <leafValues>
            3.3283272385597229e-01 -1.0922861099243164e-01</leafValues></_>
        <_>
          <internalNodes>
            0 -1 151 -2.3399265483021736e-03</internalNodes>
          <leafValues>
            -6.6581684350967407e-01 5.6810546666383743e-02</leafValues></_>
        <_>
          <internalNodes>
            0 -1 185 6.6695651039481163e-03</internalNodes>
          <leafValues>
            9.7324550151824951e-02 -3.3062940835952759e-01</leafValues></_>
        <_>
          <internalNodes>
            0 -1 60 9.6767093054950237e-04</internalNodes>
          <leafValues>
            -1.6297841072082520e-01 2.2494660317897797e-01</leafValues></_>
        <_>
          <internalNodes>
            0 -1 120 2.6728773955255747e-03</internalNodes>
          <leafValues>
            -1.7709282040596008e-01 2.0266005396842957e-01</leafValues></_>
        <_>
          <internalNodes>
            0 -1 64 7.3182821273803711e-02</internalNodes>
          <leafValues>
            -5.2869111299514771e-02 7.4201804399490356e-01</leafValues></_>
        <_>
          <internalNodes>
            0 -1 245 1.6013257205486298e-02</internalNodes>
          <leafValues>
            1.1835929751396179e-01 -3.0757510662078857e-01</leafValues></_>
        <_>
          <internalNodes>
            0 -1 263 9.3889180570840836e-03</internalNodes>
          <leafValues>
            -7.2680763900279999e-02 4.9870026111602783e-01</leafValues></_>
        <_>
          <internalNodes>
            0 -1 176 3.0553825199604034e-03</internalNodes>
          <leafValues>
            -1.3632667064666748e-01 2.4900974333286285e-01</leafValues></_>
        <_>
          <internalNodes>
            0 -1 144 8.9601241052150726e-04</internalNodes>
          <leafValues>
            -1.8256148695945740e-01 1.8873658776283264e-01</leafValues></_>
        <_>
          <internalNodes>
            0 -1 22 2.6342775672674179e-03</internalNodes>
          <leafValues>
            -7.2306126356124878e-02 4.3905419111251831e-01</leafValues></_>
        <_>
          <internalNodes>
            0 -1 122 -5.4056532680988312e-03</internalNodes>
          <leafValues>
            -7.9021853208541870e-01 4.4172670692205429e-02</leafValues></_>
        <_>
          <internalNodes>
            0 -1 111 2.6036533527076244e-03</internalNodes>
          <leafValues>
            -7.4701793491840363e-02 4.6008521318435669e-01</leafValues></_>
        <_>
          <internalNodes>
            0 -1 105 -3.3999266452156007e-04</internalNodes>
          <leafValues>
            2.6017752289772034e-01 -1.1825012415647507e-01</leafValues></_>
        <_>
          <internalNodes>
            0 -1 206 -8.9094077702611685e-04</internalNodes>
          <leafValues>
            -4.8087430000305176e-01 6.3025988638401031e-02</leafValues></_>
        <_>
          <internalNodes>
            0 -1 48 4.6309502795338631e-04</internalNodes>
          <leafValues>
            -1.3169986009597778e-01 2.5350415706634521e-01</leafValues></_>
        <_>
          <internalNodes>
            0 -1 211 -1.6040202230215073e-02</internalNodes>
          <leafValues>
            6.1664456129074097e-01 -4.7434888780117035e-02</leafValues></_></weakClassifiers></_>
    <!-- stage 6 -->
    <_>
      <maxWeakCount>48</maxWeakCount>
      <stageThreshold>-1.0538505315780640e+00</stageThreshold>
      <weakClassifiers>
        <_>
          <internalNodes>
            0 -1 12 1.6289302706718445e-01</internalNodes>
          <leafValues>
            9.2901617288589478e-02 6.8628883361816406e-01</leafValues></_>
        <_>
          <internalNodes>
            0 -1 205 7.5074108317494392e-03</internalNodes>
          <leafValues>
            -2.1471542119979858e-01 3.6769172549247742e-01</leafValues></_>
        <_>
          <internalNodes>
            0 -1 156 4.5287975808605552e-05</internalNodes>
          <leafValues>
            -4.4894212484359741e-01 1.5002577006816864e-01</leafValues></_>
        <_>
          <internalNodes>
            0 -1 121 3.2639321871101856e-03</internalNodes>
          <leafValues>
            1.3692647218704224e-01 -4.1948533058166504e-01</leafValues></_>
        <_>
          <internalNodes>
            0 -1 84 3.2003521919250488e-03</internalNodes>
          <leafValues>
            -9.7641654312610626e-02 5.0732463598251343e-01</leafValues></_>
        <_>
          <internalNodes>
            0 -1 83 -1.2659719213843346e-03</internalNodes>
          <leafValues>
            3.0863395333290100e-01 -2.3459367454051971e-01</leafValues></_>
        <_>
          <internalNodes>
            0 -1 190 -2.1800161339342594e-03</internalNodes>
          <leafValues>
            -6.1511921882629395e-01 8.8722452521324158e-02</leafValues></_>
        <_>
          <internalNodes>
            0 -1 192 1.4339974150061607e-02</internalNodes>
          <leafValues>
            6.6061913967132568e-02 -7.1086966991424561e-01</leafValues></_>
        <_>
          <internalNodes>
            0 -1 59 -4.1173333302140236e-03</internalNodes>
          <leafValues>
            3.3911886811256409e-01 -1.4246898889541626e-01</leafValues></_>
        <_>
          <internalNodes>
            0 -1 203 3.6759851354872808e-05</internalNodes>
          <leafValues>
            -2.3796071112155914e-01 1.7675457894802094e-01</leafValues></_>
        <_>
          <internalNodes>
            0 -1 180 -9.9415471777319908e-04</internalNodes>
          <leafValues>
            3.8217011094093323e-01 -1.1293143033981323e-01</leafValues></_>
        <_>
          <internalNodes>
            0 -1 138 1.9162461161613464e-02</internalNodes>
          <leafValues>
            -7.4158594012260437e-02 5.3462988138198853e-01</leafValues></_>
        <_>
          <internalNodes>
            0 -1 236 -8.0593237653374672e-03</internalNodes>
          <leafValues>
            2.0708575844764709e-01 -1.6451977193355560e-01</leafValues></_>
        <_>
          <internalNodes>
            0 -1 21 8.4193958900868893e-04</internalNodes>
          <leafValues>
            -1.4387986063957214e-01 2.4174688756465912e-01</leafValues></_>
        <_>
          <internalNodes>
            0 -1 248 6.8174432963132858e-03</internalNodes>
          <leafValues>
            -8.6541682481765747e-02 4.2324459552764893e-01</leafValues></_>
        <_>
          <internalNodes>
            0 -1 51 -1.1479806853458285e-03</internalNodes>
          <leafValues>
            3.5405167937278748e-01 -8.2632020115852356e-02</leafValues></_>
        <_>
          <internalNodes>
            0 -1 67 2.6195817627012730e-03</internalNodes>
          <leafValues>
            -6.4697667956352234e-02 5.3545898199081421e-01</leafValues></_>
        <_>
          <internalNodes>
            0 -1 168 1.2451483053155243e-04</internalNodes>
          <leafValues>
            -2.4899095296859741e-01 1.2783040106296539e-01</leafValues></_>
        <_>
          <internalNodes>
            0 -1 177 4.6642944216728210e-03</internalNodes>
          <leafValues>
            -1.3811388611793518e-01 2.3677338659763336e-01</leafValues></_>
        <_>
          <internalNodes>
            0 -1 156 6.0176691040396690e-03</internalNodes>
          <leafValues>
            7.4316449463367462e-02 -4.6955603361129761e-01</leafValues></_>
        <_>
          <internalNodes>
            0 -1 132 1.2379375984892249e-03</internalNodes>
          <leafValues>
            -1.7780326306819916e-01 1.7481826245784760e-01</leafValues></_>
        <_>
          <internalNodes>
            0 -1 30 1.1340503115206957e-03</internalNodes>
          <leafValues>
            -1.0120101273059845e-01 3.0765435099601746e-01</leafValues></_>
        <_>
          <internalNodes>
            0 -1 251 1.3953966554254293e-03</internalNodes>
          <leafValues>
            -1.3141468167304993e-01 2.2575685381889343e-01</leafValues></_>
        <_>
          <internalNodes>
            0 -1 184 -6.1083668842911720e-03</internalNodes>
          <leafValues>
            -5.1232331991195679e-01 5.4414894431829453e-02</leafValues></_>
        <_>
          <internalNodes>
            0 -1 262 7.2337770834565163e-03</internalNodes>
          <leafValues>
            -8.3683192729949951e-02 4.0010023117065430e-01</leafValues></_>
        <_>
          <internalNodes>
            0 -1 241 2.8662777040153742e-03</internalNodes>
          <leafValues>
            -1.1293184012174606e-01 2.8080371022224426e-01</leafValues></_>
        <_>
          <internalNodes>
            0 -1 80 -1.1681234464049339e-03</internalNodes>
          <leafValues>
            2.6274120807647705e-01 -1.2716843187808990e-01</leafValues></_>
        <_>
          <internalNodes>
            0 -1 239 3.5928918805439025e-05</internalNodes>
          <leafValues>
            -1.6888286173343658e-01 1.6122679412364960e-01</leafValues></_>
        <_>
          <internalNodes>
            0 -1 266 1.6887264791876078e-03</internalNodes>
          <leafValues>
            9.5272459089756012e-02 -2.9156273603439331e-01</leafValues></_>
        <_>
          <internalNodes>
            0 -1 232 -2.5112659204751253e-03</internalNodes>
          <leafValues>
            1.9890910387039185e-01 -1.3593132793903351e-01</leafValues></_>
        <_>
          <internalNodes>
            0 -1 193 3.4851644886657596e-04</internalNodes>
          <leafValues>
            -2.1805472671985626e-01 1.2290178239345551e-01</leafValues></_>
        <_>
          <internalNodes>
            0 -1 90 -3.3809295855462551e-03</internalNodes>
          <leafValues>
            -4.0593132376670837e-01 7.0050440728664398e-02</leafValues></_>
        <_>
          <internalNodes>
            0 -1 111 -2.0218784920871258e-03</internalNodes>
          <leafValues>
            3.9969903230667114e-01 -8.1792615354061127e-02</leafValues></_>
        <_>
          <internalNodes>
            0 -1 127 2.8810465708374977e-02</internalNodes>
          <leafValues>
            7.7545166015625000e-02 -4.5679923892021179e-01</leafValues></_>
        <_>
          <internalNodes>
            0 -1 240 1.6716704703867435e-04</internalNodes>
          <leafValues>
            -1.5439558029174805e-01 2.2657488286495209e-01</leafValues></_>
        <_>
          <internalNodes>
            0 -1 189 9.3653693329542875e-04</internalNodes>
          <leafValues>
            1.0645591467618942e-01 -2.8024762868881226e-01</leafValues></_>
        <_>
          <internalNodes>
            0 -1 181 -1.5886191977187991e-03</internalNodes>
          <leafValues>
            2.7059209346771240e-01 -1.1038103699684143e-01</leafValues></_>
        <_>
          <internalNodes>
            0 -1 198 -1.0391883552074432e-03</internalNodes>
          <leafValues>
            -2.7132368087768555e-01 1.0129158198833466e-01</leafValues></_>
        <_>
          <internalNodes>
            0 -1 198 3.7449412047863007e-03</internalNodes>
          <leafValues>
            7.2800502181053162e-02 -3.9487838745117188e-01</leafValues></_>
        <_>
          <internalNodes>
            0 -1 107 1.2423339067026973e-03</internalNodes>
          <leafValues>
            -1.0620316118001938e-01 2.9831764101982117e-01</leafValues></_>
        <_>
          <internalNodes>
            0 -1 146 5.1061733392998576e-04</internalNodes>
          <leafValues>
            -1.3426540791988373e-01 2.2123813629150391e-01</leafValues></_>
        <_>
          <internalNodes>
            0 -1 48 -7.3000148404389620e-04</internalNodes>
          <leafValues>
            2.5556999444961548e-01 -1.1190031468868256e-01</leafValues></_>
        <_>
          <internalNodes>
            0 -1 216 3.8773978303652257e-05</internalNodes>
          <leafValues>
            -1.7094941437244415e-01 1.7544943094253540e-01</leafValues></_>
        <_>
          <internalNodes>
            0 -1 178 -3.5697437124326825e-04</internalNodes>
          <leafValues>
            1.6596668958663940e-01 -1.7741717398166656e-01</leafValues></_>
        <_>
          <internalNodes>
            0 -1 246 1.0348272044211626e-03</internalNodes>
          <leafValues>
            7.8525833785533905e-02 -3.5079044103622437e-01</leafValues></_>
        <_>
          <internalNodes>
            0 -1 91 -1.7661189485806972e-04</internalNodes>
          <leafValues>
            1.6976928710937500e-01 -1.5169705450534821e-01</leafValues></_>
        <_>
          <internalNodes>
            0 -1 116 6.8927928805351257e-03</internalNodes>
          <leafValues>
            9.6309013664722443e-02 -3.0586296319961548e-01</leafValues></_>
        <_>
          <internalNodes>
            0 -1 172 7.3361899703741074e-03</internalNodes>
          <leafValues>
            -1.1785178631544113e-01 2.3644194006919861e-01</leafValues></_></weakClassifiers></_>
    <!-- stage 7 -->
    <_>
      <maxWeakCount>58</maxWeakCount>
      <stageThreshold>-1.0145068168640137e+00</stageThreshold>
      <weakClassifiers>
        <_>
          <internalNodes>
            0 -1 142 1.0795293375849724e-02</internalNodes>
          <leafValues>
            -6.6435083746910095e-02 5.4036426544189453e-01</leafValues></_>
        <_>
          <internalNodes>
            0 -1 126 -1.8621452909428626e-05</internalNodes>
          <leafValues>
            2.1075230836868286e-01 -4.0891081094741821e-01</leafValues></_>
        <_>
          <internalNodes>
            0 -1 58 -5.1251328550279140e-03</internalNodes>
          <leafValues>
            5.8512777090072632e-01 -1.0506156831979752e-01</leafValues></_>
        <_>
          <internalNodes>
            0 -1 40 8.5507212206721306e-03</internalNodes>
          <leafValues>
            -2.1306011080741882e-01 2.7562838792800903e-01</leafValues></_>
        <_>
          <internalNodes>
            0 -1 208 3.1888304511085153e-04</internalNodes>
          <leafValues>
            -1.6208556294441223e-01 2.4596817791461945e-01</leafValues></_>
        <_>
          <internalNodes>
            0 -1 117 -9.6655345987528563e-04</internalNodes>
          <leafValues>
            -3.5554793477058411e-01 1.4285561442375183e-01</leafValues></_>
        <_>
          <internalNodes>
            0 -1 70 3.5722069442272186e-02</internalNodes>
          <leafValues>
            7.9725533723831177e-02 -6.1209738254547119e-01</leafValues></_>
        <_>
          <internalNodes>
            0 -1 258 4.0229661390185356e-03</internalNodes>
          <leafValues>
            -1.0949401557445526e-01 4.0762421488761902e-01</leafValues></_>
        <_>
          <internalNodes>
            0 -1 167 -2.2571343288291246e-04</internalNodes>
          <leafValues>
            1.9667574763298035e-01 -1.6547936201095581e-01</leafValues></_>
        <_>
          <internalNodes>
            0 -1 188 -1.8338796216994524e-03</internalNodes>
          <leafValues>
            -6.2246477603912354e-01 4.2090415954589844e-02</leafValues></_>
        <_>
          <internalNodes>
            0 -1 136 7.4303239583969116e-02</internalNodes>
          <leafValues>
            -1.0444276034832001e-01 3.2174119353294373e-01</leafValues></_>
        <_>
          <internalNodes>
            0 -1 100 4.6861139126121998e-03</internalNodes>
          <leafValues>
            -7.3829464614391327e-02 4.4277074933052063e-01</leafValues></_>
        <_>
          <internalNodes>
            0 -1 72 1.9071371061727405e-03</internalNodes>
          <leafValues>
            -8.6626209318637848e-02 3.4698140621185303e-01</leafValues></_>
        <_>
          <internalNodes>
            0 -1 96 -5.4317188914865255e-04</internalNodes>
          <leafValues>
            2.5937810540199280e-01 -1.4584769308567047e-01</leafValues></_>
        <_>
          <internalNodes>
            0 -1 222 1.0211868211627007e-02</internalNodes>
          <leafValues>
            6.4376711845397949e-02 -4.7890129685401917e-01</leafValues></_>
        <_>
          <internalNodes>
            0 -1 139 -1.0309838689863682e-02</internalNodes>
          <leafValues>
            2.4434028565883636e-01 -1.3389901816844940e-01</leafValues></_>
        <_>
          <internalNodes>
            0 -1 78 -2.4323952384293079e-03</internalNodes>
          <leafValues>
            3.6074849963188171e-01 -8.4448076784610748e-02</leafValues></_>
        <_>
          <internalNodes>
            0 -1 153 2.6923213154077530e-03</internalNodes>
          <leafValues>
            8.7121829390525818e-02 -4.0944215655326843e-01</leafValues></_>
        <_>
          <internalNodes>
            0 -1 164 4.0071230614557862e-04</internalNodes>
          <leafValues>
            -2.8126820921897888e-01 1.1696115136146545e-01</leafValues></_>
        <_>
          <internalNodes>
            0 -1 20 2.3885238915681839e-03</internalNodes>
          <leafValues>
            -8.8574193418025970e-02 3.7027242779731750e-01</leafValues></_>
        <_>
          <internalNodes>
            0 -1 243 1.2374951038509607e-03</internalNodes>
          <leafValues>
            -1.2765847146511078e-01 2.8653997182846069e-01</leafValues></_>
        <_>
          <internalNodes>
            0 -1 229 -7.7337131369858980e-04</internalNodes>
          <leafValues>
            1.9146676361560822e-01 -1.4260129630565643e-01</leafValues></_>
        <_>
          <internalNodes>
            0 -1 132 6.2933377921581268e-04</internalNodes>
          <leafValues>
            -1.8915824592113495e-01 1.4587411284446716e-01</leafValues></_>
        <_>
          <internalNodes>
            0 -1 71 1.0921545326709747e-02</internalNodes>
          <leafValues>
            -1.1194490641355515e-01 2.6312243938446045e-01</leafValues></_>
        <_>
          <internalNodes>
            0 -1 162 4.2049569310620427e-04</internalNodes>
          <leafValues>
            -1.0137108713388443e-01 2.6118960976600647e-01</leafValues></_>
        <_>
          <internalNodes>
            0 -1 124 -6.4123757183551788e-03</internalNodes>
          <leafValues>
            -7.0701599121093750e-01 4.1310064494609833e-02</leafValues></_>
        <_>
          <internalNodes>
            0 -1 220 1.5472300219698809e-05</internalNodes>
          <leafValues>
            -1.6607898473739624e-01 1.5731216967105865e-01</leafValues></_>
        <_>
          <internalNodes>
            0 -1 261 3.2892688177525997e-03</internalNodes>
          <leafValues>
            1.0137691348791122e-01 -2.8149002790451050e-01</leafValues></_>
        <_>
          <internalNodes>
            0 -1 18 -4.4573761522769928e-02</internalNodes>
          <leafValues>
            -4.8564174771308899e-01 4.8307351768016815e-02</leafValues></_>
        <_>
          <internalNodes>
            0 -1 36 -4.2709549888968468e-03</internalNodes>
          <leafValues>
            2.0837411284446716e-01 -1.2363900989294052e-01</leafValues></_>
        <_>
          <internalNodes>
            0 -1 45 1.8064385280013084e-02</internalNodes>
          <leafValues>
            6.8478584289550781e-02 -4.6707445383071899e-01</leafValues></_>
        <_>
          <internalNodes>
            0 -1 223 2.8976616449654102e-03</internalNodes>
          <leafValues>
            3.3720921725034714e-02 -6.2682831287384033e-01</leafValues></_>
        <_>
          <internalNodes>
            0 -1 118 3.3229822292923927e-04</internalNodes>
          <leafValues>
            -1.4559067785739899e-01 1.7778997123241425e-01</leafValues></_>
        <_>
          <internalNodes>
            0 -1 84 -1.3719478156417608e-03</internalNodes>
          <leafValues>
            3.0572304129600525e-01 -1.0773511976003647e-01</leafValues></_>
        <_>
          <internalNodes>
            0 -1 87 -2.0547392778098583e-03</internalNodes>
          <leafValues>
            3.2672244310379028e-01 -9.3951523303985596e-02</leafValues></_>
        <_>
          <internalNodes>
            0 -1 104 1.3830650597810745e-02</internalNodes>
          <leafValues>
            9.2950530350208282e-02 -3.2248017191886902e-01</leafValues></_>
        <_>
          <internalNodes>
            0 -1 150 -9.0885870158672333e-03</internalNodes>
          <leafValues>
            -2.6555815339088440e-01 1.1632185429334641e-01</leafValues></_>
        <_>
          <internalNodes>
            0 -1 154 1.9525397874531336e-05</internalNodes>
          <leafValues>
            -1.9619864225387573e-01 1.3296787440776825e-01</leafValues></_>
        <_>
          <internalNodes>
            0 -1 73 2.8718924149870872e-02</internalNodes>
          <leafValues>
            5.4834906011819839e-02 -4.9761569499969482e-01</leafValues></_>
        <_>
          <internalNodes>
            0 -1 191 -1.6869176179170609e-03</internalNodes>
          <leafValues>
            -4.8138251900672913e-01 4.7812398523092270e-02</leafValues></_>
        <_>
          <internalNodes>
            0 -1 174 -4.1387311648577452e-04</internalNodes>
          <leafValues>
            2.0508559048175812e-01 -1.2544776499271393e-01</leafValues></_>
        <_>
          <internalNodes>
            0 -1 4 -1.8945077434182167e-02</internalNodes>
          <leafValues>
            -3.7595555186271667e-01 6.9082386791706085e-02</leafValues></_>
        <_>
          <internalNodes>
            0 -1 147 -4.1696976404637098e-04</internalNodes>
          <leafValues>
            2.4744817614555359e-01 -1.0673604160547256e-01</leafValues></_>
        <_>
          <internalNodes>
            0 -1 103 -1.4475750923156738e-01</internalNodes>
          <leafValues>
            5.0417482852935791e-01 -5.0644315779209137e-02</leafValues></_>
        <_>
          <internalNodes>
            0 -1 265 -5.2718818187713623e-03</internalNodes>
          <leafValues>
            4.5139187574386597e-01 -5.3729947656393051e-02</leafValues></_>
        <_>
          <internalNodes>
            0 -1 225 5.1925389561802149e-04</internalNodes>
          <leafValues>
            -1.3390599191188812e-01 1.8933084607124329e-01</leafValues></_>
        <_>
          <internalNodes>
            0 -1 50 -1.1657496914267540e-02</internalNodes>
          <leafValues>
            -6.2744855880737305e-01 4.6244014054536819e-02</leafValues></_>
        <_>
          <internalNodes>
            0 -1 134 -4.6602732618339360e-04</internalNodes>
          <leafValues>
            2.3818449676036835e-01 -1.3157345354557037e-01</leafValues></_>
        <_>
          <internalNodes>
            0 -1 98 -2.9310788959264755e-03</internalNodes>
          <leafValues>
            5.6215697526931763e-01 -4.0500756353139877e-02</leafValues></_>
        <_>
          <internalNodes>
            0 -1 43 2.7556971181184053e-03</internalNodes>
          <leafValues>
            -4.9931962043046951e-02 4.7215184569358826e-01</leafValues></_>
        <_>
          <internalNodes>
            0 -1 114 4.0220054797828197e-03</internalNodes>
          <leafValues>
            4.4523812830448151e-02 -6.3726615905761719e-01</leafValues></_>
        <_>
          <internalNodes>
            0 -1 43 -1.2609907425940037e-03</internalNodes>
          <leafValues>
            2.9937767982482910e-01 -9.0773433446884155e-02</leafValues></_>
        <_>
          <internalNodes>
            0 -1 92 -1.0489661246538162e-02</internalNodes>
          <leafValues>
            -3.5779064893722534e-01 7.3307171463966370e-02</leafValues></_>
        <_>
          <internalNodes>
            0 -1 16 -3.1945675611495972e-01</internalNodes>
          <leafValues>
            7.2583514451980591e-01 -3.7667296826839447e-02</leafValues></_>
        <_>
          <internalNodes>
            0 -1 23 1.8869981169700623e-02</internalNodes>
          <leafValues>
            7.1876138448715210e-02 -3.9425283670425415e-01</leafValues></_>
        <_>
          <internalNodes>
            0 -1 129 -4.5785389840602875e-02</internalNodes>
          <leafValues>
            2.8791013360023499e-01 -8.7283559143543243e-02</leafValues></_>
        <_>
          <internalNodes>
            0 -1 159 5.0271274521946907e-03</internalNodes>
          <leafValues>
            7.7856540679931641e-02 -3.5416799783706665e-01</leafValues></_>
        <_>
          <internalNodes>
            0 -1 169 6.1959185404703021e-04</internalNodes>
          <leafValues>
            -1.2921977043151855e-01 1.9886876642704010e-01</leafValues></_></weakClassifiers></_>
    <!-- stage 8 -->
    <_>
      <maxWeakCount>38</maxWeakCount>
      <stageThreshold>-9.8106217384338379e-01</stageThreshold>
      <weakClassifiers>
        <_>
          <internalNodes>
            0 -1 10 1.3517555594444275e-01</internalNodes>
          <leafValues>
            -1.5248468518257141e-01 7.0776492357254028e-01</leafValues></_>
        <_>
          <internalNodes>
            0 -1 212 -9.3630282208323479e-05</internalNodes>
          <leafValues>
            2.4721243977546692e-01 -3.6197137832641602e-01</leafValues></_>
        <_>
          <internalNodes>
            0 -1 163 -2.3852189769968390e-04</internalNodes>
          <leafValues>
            -5.6843256950378418e-01 1.3468863070011139e-01</leafValues></_>
        <_>
          <internalNodes>
            0 -1 17 3.0027726292610168e-01</internalNodes>
          <leafValues>
            -1.1411265283823013e-01 6.1309987306594849e-01</leafValues></_>
        <_>
          <internalNodes>
            0 -1 123 -2.6420806534588337e-03</internalNodes>
          <leafValues>
            -6.1730122566223145e-01 6.4945437014102936e-02</leafValues></_>
        <_>
          <internalNodes>
            0 -1 155 -2.9008684214204550e-03</internalNodes>
          <leafValues>
            -7.1846210956573486e-01 7.2979733347892761e-02</leafValues></_>
        <_>
          <internalNodes>
            0 -1 154 1.7763532232493162e-03</internalNodes>
          <leafValues>
            7.0862717926502228e-02 -5.6682211160659790e-01</leafValues></_>
        <_>
          <internalNodes>
            0 -1 195 3.6275072488933802e-05</internalNodes>
          <leafValues>
            -2.6809531450271606e-01 1.7556023597717285e-01</leafValues></_>
        <_>
          <internalNodes>
            0 -1 183 -3.9599812589585781e-03</internalNodes>
          <leafValues>
            -6.4098966121673584e-01 6.5125033259391785e-02</leafValues></_>
        <_>
          <internalNodes>
            0 -1 250 1.2901178561151028e-02</internalNodes>
          <leafValues>
            -9.6250794827938080e-02 4.2121982574462891e-01</leafValues></_>
        <_>
          <internalNodes>
            0 -1 160 8.7075633928179741e-04</internalNodes>
          <leafValues>
            -2.0528970658779144e-01 1.6690692305564880e-01</leafValues></_>
        <_>
          <internalNodes>
            0 -1 182 2.5178631767630577e-03</internalNodes>
          <leafValues>
            -1.7697092890739441e-01 1.9782072305679321e-01</leafValues></_>
        <_>
          <internalNodes>
            0 -1 81 2.0908098667860031e-03</internalNodes>
          <leafValues>
            -1.9706049561500549e-01 1.5702930092811584e-01</leafValues></_>
        <_>
          <internalNodes>
            0 -1 194 5.3490558639168739e-03</internalNodes>
          <leafValues>
            3.2194647938013077e-02 -5.7959848642349243e-01</leafValues></_>
        <_>
          <internalNodes>
            0 -1 27 -1.2295942287892103e-03</internalNodes>
          <leafValues>
            2.3081159591674805e-01 -1.3155840337276459e-01</leafValues></_>
        <_>
          <internalNodes>
            0 -1 234 -2.0395830273628235e-02</internalNodes>
          <leafValues>
            2.6790526509284973e-01 -1.0615206509828568e-01</leafValues></_>
        <_>
          <internalNodes>
            0 -1 149 2.5840820744633675e-03</internalNodes>
          <leafValues>
            6.6324189305305481e-02 -5.0820171833038330e-01</leafValues></_>
        <_>
          <internalNodes>
            0 -1 83 -1.8224430968984962e-03</internalNodes>
          <leafValues>
            2.3686254024505615e-01 -1.1413804441690445e-01</leafValues></_>
        <_>
          <internalNodes>
            0 -1 107 -1.2042978778481483e-03</internalNodes>
          <leafValues>
            2.8519797325134277e-01 -9.9867656826972961e-02</leafValues></_>
        <_>
          <internalNodes>
            0 -1 56 3.2295137643814087e-03</internalNodes>
          <leafValues>
            -1.7293569445610046e-01 2.0328269898891449e-01</leafValues></_>
        <_>
          <internalNodes>
            0 -1 46 1.9951835274696350e-02</internalNodes>
          <leafValues>
            7.5317323207855225e-02 -4.1784477233886719e-01</leafValues></_>
        <_>
          <internalNodes>
            0 -1 223 2.9116692021489143e-03</internalNodes>
          <leafValues>
            4.7052897512912750e-02 -6.6490131616592407e-01</leafValues></_>
        <_>
          <internalNodes>
            0 -1 175 4.3035901035182178e-04</internalNodes>
          <leafValues>
            -1.4973397552967072e-01 1.8057766556739807e-01</leafValues></_>
        <_>
          <internalNodes>
            0 -1 80 3.5120642278343439e-03</internalNodes>
          <leafValues>
            -6.6860251128673553e-02 3.8592100143432617e-01</leafValues></_>
        <_>
          <internalNodes>
            0 -1 106 1.2461367994546890e-02</internalNodes>
          <leafValues>
            9.0291872620582581e-02 -3.2396334409713745e-01</leafValues></_>
        <_>
          <internalNodes>
            0 -1 88 1.6074806917458773e-03</internalNodes>
          <leafValues>
            -1.2625268101692200e-01 2.6005771756172180e-01</leafValues></_>
        <_>
          <internalNodes>
            0 -1 191 -2.2178932558745146e-03</internalNodes>
          <leafValues>
            -5.8337038755416870e-01 5.6127741932868958e-02</leafValues></_>
        <_>
          <internalNodes>
            0 -1 209 -5.2867541089653969e-03</internalNodes>
          <leafValues>
            2.5148740410804749e-01 -1.0040780901908875e-01</leafValues></_>
        <_>
          <internalNodes>
            0 -1 128 3.9860419929027557e-04</internalNodes>
          <leafValues>
            -2.1034902334213257e-01 1.3481952250003815e-01</leafValues></_>
        <_>
          <internalNodes>
            0 -1 254 1.5765205025672913e-03</internalNodes>
          <leafValues>
            -9.7646787762641907e-02 2.6862058043479919e-01</leafValues></_>
        <_>
          <internalNodes>
            0 -1 256 -5.2753125783056021e-04</internalNodes>
          <leafValues>
            2.3820520937442780e-01 -1.1234591156244278e-01</leafValues></_>
        <_>
          <internalNodes>
            0 -1 7 -5.4791932925581932e-03</internalNodes>
          <leafValues>
            -3.8616466522216797e-01 6.9827854633331299e-02</leafValues></_>
        <_>
          <internalNodes>
            0 -1 2 1.1191314458847046e-01</internalNodes>
          <leafValues>
            -9.4820484519004822e-02 2.7313697338104248e-01</leafValues></_>
        <_>
          <internalNodes>
            0 -1 6 -1.8360467255115509e-01</internalNodes>
          <leafValues>
            6.9198173284530640e-01 -3.8494545966386795e-02</leafValues></_>
        <_>
          <internalNodes>
            0 -1 109 1.0551321611274034e-04</internalNodes>
          <leafValues>
            -1.9696727395057678e-01 1.1652574688196182e-01</leafValues></_>
        <_>
          <internalNodes>
            0 -1 213 2.6542216073721647e-03</internalNodes>
          <leafValues>
            -1.0394117981195450e-01 2.1059496700763702e-01</leafValues></_>
        <_>
          <internalNodes>
            0 -1 186 -2.4401869159191847e-03</internalNodes>
          <leafValues>
            -4.3316248059272766e-01 6.9475375115871429e-02</leafValues></_>
        <_>
          <internalNodes>
            0 -1 3 -2.8070516418665648e-04</internalNodes>
          <leafValues>
            -2.0237010717391968e-01 1.0236579924821854e-01</leafValues></_></weakClassifiers></_>
    <!-- stage 9 -->
    <_>
      <maxWeakCount>65</maxWeakCount>
      <stageThreshold>-9.5401632785797119e-01</stageThreshold>
      <weakClassifiers>
        <_>
          <internalNodes>
            0 -1 13 1.8212816119194031e-01</internalNodes>
          <leafValues>
            -1.2210012646391988e-03 6.4881980419158936e-01</leafValues></_>
        <_>
          <internalNodes>
            0 -1 153 4.0933689888333902e-05</internalNodes>
          <leafValues>
            -3.7100395560264587e-01 2.1077880263328552e-01</leafValues></_>
        <_>
          <internalNodes>
            0 -1 187 6.4756965730339289e-04</internalNodes>
          <leafValues>
            -3.8933894038200378e-01 1.5753681957721710e-01</leafValues></_>
        <_>
          <internalNodes>
            0 -1 108 3.3488068729639053e-03</internalNodes>
          <leafValues>
            1.1721143126487732e-01 -4.6103242039680481e-01</leafValues></_>
        <_>
          <internalNodes>
            0 -1 8 1.9329342991113663e-02</internalNodes>
          <leafValues>
            -1.4860683679580688e-01 3.3831006288528442e-01</leafValues></_>
        <_>
          <internalNodes>
            0 -1 208 5.6844786740839481e-04</internalNodes>
          <leafValues>
            -1.8661144375801086e-01 2.0611110329627991e-01</leafValues></_>
        <_>
          <internalNodes>
            0 -1 160 8.5612041875720024e-03</internalNodes>
          <leafValues>
            5.7018004357814789e-02 -5.3686046600341797e-01</leafValues></_>
        <_>
          <internalNodes>
            0 -1 143 6.3981302082538605e-04</internalNodes>
          <leafValues>
            -1.9245886802673340e-01 1.4728353917598724e-01</leafValues></_>
        <_>
          <internalNodes>
            0 -1 227 4.3903544428758323e-04</internalNodes>
          <leafValues>
            -1.5525585412979126e-01 2.1254161000251770e-01</leafValues></_>
        <_>
          <internalNodes>
            0 -1 29 1.8357375636696815e-02</internalNodes>
          <leafValues>
            6.7678786814212799e-02 -4.8406383395195007e-01</leafValues></_>
        <_>
          <internalNodes>
            0 -1 148 4.9652219749987125e-03</internalNodes>
          <leafValues>
            6.9794774055480957e-02 -3.9026176929473877e-01</leafValues></_>
        <_>
          <internalNodes>
            0 -1 85 -1.1527416063472629e-03</internalNodes>
          <leafValues>
            2.6211848855018616e-01 -1.1238780617713928e-01</leafValues></_>
        <_>
          <internalNodes>
            0 -1 237 1.5686968341469765e-02</internalNodes>
          <leafValues>
            -1.4879152178764343e-01 2.1616221964359283e-01</leafValues></_>
        <_>
          <internalNodes>
            0 -1 133 8.4725832566618919e-03</internalNodes>
          <leafValues>
            -1.1336484551429749e-01 2.6209557056427002e-01</leafValues></_>
        <_>
          <internalNodes>
            0 -1 173 -1.7351304995827377e-04</internalNodes>
          <leafValues>
            1.2772256135940552e-01 -2.5006717443466187e-01</leafValues></_>
        <_>
          <internalNodes>
            0 -1 200 7.9703558003529906e-04</internalNodes>
          <leafValues>
            -1.8033692240715027e-01 1.6395409405231476e-01</leafValues></_>
        <_>
          <internalNodes>
            0 -1 228 1.9469578983262181e-03</internalNodes>
          <leafValues>
            5.1211372017860413e-02 -8.1206995248794556e-01</leafValues></_>
        <_>
          <internalNodes>
            0 -1 11 -1.6726188361644745e-02</internalNodes>
          <leafValues>
            2.2670568525791168e-01 -1.1749602854251862e-01</leafValues></_>
        <_>
          <internalNodes>
            0 -1 35 -1.3393199443817139e-01</internalNodes>
          <leafValues>
            6.0033905506134033e-01 -4.6905882656574249e-02</leafValues></_>
        <_>
          <internalNodes>
            0 -1 151 -1.9224984571337700e-03</internalNodes>
          <leafValues>
            -5.5548709630966187e-01 5.4875213652849197e-02</leafValues></_>
        <_>
          <internalNodes>
            0 -1 151 1.0803870391100645e-03</internalNodes>
          <leafValues>
            9.9860221147537231e-02 -2.4565878510475159e-01</leafValues></_>
        <_>
          <internalNodes>
            0 -1 113 1.8617968307808042e-03</internalNodes>
          <leafValues>
            -1.0193259268999100e-01 2.3716640472412109e-01</leafValues></_>
        <_>
          <internalNodes>
            0 -1 113 -1.3261163840070367e-03</internalNodes>
          <leafValues>
            2.9401123523712158e-01 -9.3896605074405670e-02</leafValues></_>
        <_>
          <internalNodes>
            0 -1 75 1.4791683852672577e-01</internalNodes>
          <leafValues>
            -1.0127110034227371e-01 2.3097740113735199e-01</leafValues></_>
        <_>
          <internalNodes>
            0 -1 32 -9.7772467415779829e-04</internalNodes>
          <leafValues>
            2.6911354064941406e-01 -8.9428238570690155e-02</leafValues></_>
        <_>
          <internalNodes>
            0 -1 233 -1.2293693143874407e-03</internalNodes>
          <leafValues>
            1.6489470005035400e-01 -1.3746374845504761e-01</leafValues></_>
        <_>
          <internalNodes>
            0 -1 231 1.6727813053876162e-03</internalNodes>
          <leafValues>
            -7.8350216150283813e-02 3.4002268314361572e-01</leafValues></_>
        <_>
          <internalNodes>
            0 -1 123 6.3598640263080597e-03</internalNodes>
          <leafValues>
            3.7675116211175919e-02 -6.4517444372177124e-01</leafValues></_>
        <_>
          <internalNodes>
            0 -1 31 1.4328628312796354e-03</internalNodes>
          <leafValues>
            -9.6279114484786987e-02 2.3162996768951416e-01</leafValues></_>
        <_>
          <internalNodes>
            0 -1 196 -1.2491875095292926e-03</internalNodes>
          <leafValues>
            -5.2811616659164429e-01 3.9412572979927063e-02</leafValues></_>
        <_>
          <internalNodes>
            0 -1 130 -4.4530959712574258e-05</internalNodes>
          <leafValues>
            1.0974707454442978e-01 -1.9521689414978027e-01</leafValues></_>
        <_>
          <internalNodes>
            0 -1 131 1.9184531993232667e-04</internalNodes>
          <leafValues>
            -1.6681110858917236e-01 1.5168476104736328e-01</leafValues></_>
        <_>
          <internalNodes>
            0 -1 93 2.3531105369329453e-02</internalNodes>
          <leafValues>
            2.7252033352851868e-02 -8.2342725992202759e-01</leafValues></_>
        <_>
          <internalNodes>
            0 -1 69 1.4186010230332613e-03</internalNodes>
          <leafValues>
            -1.0009814053773880e-01 2.2225385904312134e-01</leafValues></_>
        <_>
          <internalNodes>
            0 -1 158 2.9913834296166897e-03</internalNodes>
          <leafValues>
            4.5724064111709595e-02 -4.7222313284873962e-01</leafValues></_>
        <_>
          <internalNodes>
            0 -1 161 1.7923173800227232e-05</internalNodes>
          <leafValues>
            -1.7588952183723450e-01 1.2783259153366089e-01</leafValues></_>
        <_>
          <internalNodes>
            0 -1 140 -2.4082127958536148e-02</internalNodes>
          <leafValues>
            -3.7068155407905579e-01 6.0534395277500153e-02</leafValues></_>
        <_>
          <internalNodes>
            0 -1 255 7.7348167542368174e-04</internalNodes>
          <leafValues>
            -1.1377626657485962e-01 1.9363091886043549e-01</leafValues></_>
        <_>
          <internalNodes>
            0 -1 1 -3.6945036845281720e-04</internalNodes>
          <leafValues>
            -2.0247593522071838e-01 1.0012176632881165e-01</leafValues></_>
        <_>
          <internalNodes>
            0 -1 54 5.0201930105686188e-02</internalNodes>
          <leafValues>
            -1.2744928896427155e-01 1.5510763227939606e-01</leafValues></_>
        <_>
          <internalNodes>
            0 -1 179 -1.4400143176317215e-02</internalNodes>
          <leafValues>
            3.6260098218917847e-01 -8.2826040685176849e-02</leafValues></_>
        <_>
          <internalNodes>
            0 -1 226 5.4188363719731569e-04</internalNodes>
          <leafValues>
            -1.5950962901115417e-01 1.2117864936590195e-01</leafValues></_>
        <_>
          <internalNodes>
            0 -1 62 1.8332357285544276e-03</internalNodes>
          <leafValues>
            -1.1945213377475739e-01 1.8447448313236237e-01</leafValues></_>
        <_>
          <internalNodes>
            0 -1 145 7.5555648654699326e-03</internalNodes>
          <leafValues>
            7.9391680657863617e-02 -2.5932610034942627e-01</leafValues></_>
        <_>
          <internalNodes>
            0 -1 170 2.6021676603704691e-04</internalNodes>
          <leafValues>
            -1.3935288786888123e-01 1.5988887846469879e-01</leafValues></_>
        <_>
          <internalNodes>
            0 -1 230 3.0713417800143361e-04</internalNodes>
          <leafValues>
            -1.4367397129535675e-01 1.7591737210750580e-01</leafValues></_>
        <_>
          <internalNodes>
            0 -1 49 2.4361773394048214e-03</internalNodes>
          <leafValues>
            -6.3181631267070770e-02 3.3022278547286987e-01</leafValues></_>
        <_>
          <internalNodes>
            0 -1 74 1.5546740032732487e-03</internalNodes>
          <leafValues>
            6.0966454446315765e-02 -3.5711100697517395e-01</leafValues></_>
        <_>
          <internalNodes>
            0 -1 47 1.8984889902640134e-04</internalNodes>
          <leafValues>
            -1.3665148615837097e-01 1.6423586010932922e-01</leafValues></_>
        <_>
          <internalNodes>
            0 -1 210 -3.9834954804973677e-05</internalNodes>
          <leafValues>
            9.9877767264842987e-02 -2.0341104269027710e-01</leafValues></_>
        <_>
          <internalNodes>
            0 -1 207 2.1268730051815510e-03</internalNodes>
          <leafValues>
            5.9272423386573792e-02 -3.5706791281700134e-01</leafValues></_>
        <_>
          <internalNodes>
            0 -1 252 8.6063909111544490e-04</internalNodes>
          <leafValues>
            -9.5659144222736359e-02 1.9403731822967529e-01</leafValues></_>
        <_>
          <internalNodes>
            0 -1 89 3.9840815588831902e-03</internalNodes>
          <leafValues>
            -8.4917165338993073e-02 2.1215498447418213e-01</leafValues></_>
        <_>
          <internalNodes>
            0 -1 24 1.6697606444358826e-01</internalNodes>
          <leafValues>
            -1.3149350881576538e-01 1.4835815131664276e-01</leafValues></_>
        <_>
          <internalNodes>
            0 -1 257 1.4569694176316261e-03</internalNodes>
          <leafValues>
            -1.0367044061422348e-01 1.8266987800598145e-01</leafValues></_>
        <_>
          <internalNodes>
            0 -1 163 2.7578612789511681e-03</internalNodes>
          <leafValues>
            6.1505123972892761e-02 -3.3983924984931946e-01</leafValues></_>
        <_>
          <internalNodes>
            0 -1 260 -1.9468686077743769e-03</internalNodes>
          <leafValues>
            3.4328567981719971e-01 -6.6106155514717102e-02</leafValues></_>
        <_>
          <internalNodes>
            0 -1 0 3.0952677479945123e-04</internalNodes>
          <leafValues>
            1.0139130800962448e-01 -1.9936145842075348e-01</leafValues></_>
        <_>
          <internalNodes>
            0 -1 197 5.9985549887642264e-04</internalNodes>
          <leafValues>
            -1.4975096285343170e-01 1.3088561594486237e-01</leafValues></_>
        <_>
          <internalNodes>
            0 -1 115 3.2486469717696309e-04</internalNodes>
          <leafValues>
            -2.1915392577648163e-01 1.2100436538457870e-01</leafValues></_>
        <_>
          <internalNodes>
            0 -1 221 -1.2138877063989639e-02</internalNodes>
          <leafValues>
            1.9882923364639282e-01 -9.2720016837120056e-02</leafValues></_>
        <_>
          <internalNodes>
            0 -1 243 9.6025073435157537e-04</internalNodes>
          <leafValues>
            -1.0803763568401337e-01 1.7988587915897369e-01</leafValues></_>
        <_>
          <internalNodes>
            0 -1 244 2.6710503734648228e-03</internalNodes>
          <leafValues>
            4.2880378663539886e-02 -4.6936297416687012e-01</leafValues></_>
        <_>
          <internalNodes>
            0 -1 101 3.4328989568166435e-04</internalNodes>
          <leafValues>
            8.8258951902389526e-02 -2.1266800165176392e-01</leafValues></_>
        <_>
          <internalNodes>
            0 -1 14 -2.4317056522704661e-04</internalNodes>
          <leafValues>
            -1.8690542876720428e-01 1.0047331452369690e-01</leafValues></_></weakClassifiers></_></stages>
  <features>
    <_>
      <rects>
        <_>
          0 0 3 1 -1.</_>
        <_>
          1 0 1 1 3.</_></rects>
      <tilted>0</tilted></_>
    <_>
      <rects>
        <_>
          0 12 3 1 -1.</_>
        <_>
          1 12 1 1 3.</_></rects>
      <tilted>0</tilted></_>
    <_>
      <rects>
        <_>
          0 12 18 5 -1.</_>
        <_>
          6 12 6 5 3.</_></rects>
      <tilted>0</tilted></_>
    <_>
      <rects>
        <_>
          0 17 1 3 -1.</_>
        <_>
          0 18 1 1 3.</_></rects>
      <tilted>0</tilted></_>
    <_>
      <rects>
        <_>
          0 18 8 2 -1.</_>
        <_>
          4 18 4 2 2.</_></rects>
      <tilted>0</tilted></_>
    <_>
      <rects>
        <_>
          0 19 10 1 -1.</_>
        <_>
          5 19 5 1 2.</_></rects>
      <tilted>0</tilted></_>
    <_>
      <rects>
        <_>
          1 12 18 5 -1.</_>
        <_>
          7 12 6 5 3.</_></rects>
      <tilted>0</tilted></_>
    <_>
      <rects>
        <_>
          1 13 1 6 -1.</_>
        <_>
          1 15 1 2 3.</_></rects>
      <tilted>0</tilted></_>
    <_>
      <rects>
        <_>
          1 13 8 2 -1.</_>
        <_>
          5 13 4 2 2.</_></rects>
      <tilted>0</tilted></_>
    <_>
      <rects>
        <_>
          2 6 18 2 -1.</_>
        <_>
          8 6 6 2 3.</_></rects>
      <tilted>0</tilted></_>
    <_>
      <rects>
        <_>
          2 7 18 6 -1.</_>
        <_>
          8 7 6 6 3.</_></rects>
      <tilted>0</tilted></_>
    <_>
      <rects>
        <_>
          2 8 12 6 -1.</_>
        <_>
          2 8 6 3 2.</_>
        <_>
          8 11 6 3 2.</_></rects>
      <tilted>0</tilted></_>
    <_>
      <rects>
        <_>
          2 8 18 4 -1.</_>
        <_>
          8 8 6 4 3.</_></rects>
      <tilted>0</tilted></_>
    <_>
      <rects>
        <_>
          2 8 18 6 -1.</_>
        <_>
          8 8 6 6 3.</_></rects>
      <tilted>0</tilted></_>
    <_>
      <rects>
        <_>
          2 14 2 2 -1.</_>
        <_>
          2 14 1 1 2.</_>
        <_>
          3 15 1 1 2.</_></rects>
      <tilted>0</tilted></_>
    <_>
      <rects>
        <_>
          2 16 18 3 -1.</_>
        <_>
          2 17 18 1 3.</_></rects>
      <tilted>0</tilted></_>
    <_>
      <rects>
        <_>
          3 6 15 11 -1.</_>
        <_>
          8 6 5 11 3.</_></rects>
      <tilted>0</tilted></_>
    <_>
      <rects>
        <_>
          3 7 15 9 -1.</_>
        <_>
          8 7 5 9 3.</_></rects>
      <tilted>0</tilted></_>
    <_>
      <rects>
        <_>
          3 10 9 4 -1.</_>
        <_>
          6 10 3 4 3.</_></rects>
      <tilted>0</tilted></_>
    <_>
      <rects>
        <_>
          3 10 9 5 -1.</_>
        <_>
          6 10 3 5 3.</_></rects>
      <tilted>0</tilted></_>
    <_>
      <rects>
        <_>
          3 11 3 1 -1.</_>
        <_>
          4 11 1 1 3.</_></rects>
      <tilted>0</tilted></_>
    <_>
      <rects>
        <_>
          3 12 3 1 -1.</_>
        <_>
          4 12 1 1 3.</_></rects>
      <tilted>0</tilted></_>
    <_>
      <rects>
        <_>
          3 13 3 1 -1.</_>
        <_>
          4 13 1 1 3.</_></rects>
      <tilted>0</tilted></_>
    <_>
      <rects>
        <_>
          3 13 3 6 -1.</_>
        <_>
          3 16 3 3 2.</_></rects>
      <tilted>0</tilted></_>
    <_>
      <rects>
        <_>
          4 2 12 18 -1.</_>
        <_>
          4 8 12 6 3.</_></rects>
      <tilted>0</tilted></_>
    <_>
      <rects>
        <_>
          4 9 3 7 -1.</_>
        <_>
          5 9 1 7 3.</_></rects>
      <tilted>0</tilted></_>
    <_>
      <rects>
        <_>
          4 9 12 7 -1.</_>
        <_>
          10 9 6 7 2.</_></rects>
      <tilted>0</tilted></_>
    <_>
      <rects>
        <_>
          4 10 2 3 -1.</_>
        <_>
          5 10 1 3 2.</_></rects>
      <tilted>0</tilted></_>
    <_>
      <rects>
        <_>
          4 11 2 4 -1.</_>
        <_>
          4 11 1 2 2.</_>
        <_>
          5 13 1 2 2.</_></rects>
      <tilted>0</tilted></_>
    <_>
      <rects>
        <_>
          4 11 6 4 -1.</_>
        <_>
          6 11 2 4 3.</_></rects>
      <tilted>0</tilted></_>
    <_>
      <rects>
        <_>
          4 12 3 1 -1.</_>
        <_>
          5 12 1 1 3.</_></rects>
      <tilted>0</tilted></_>
    <_>
      <rects>
        <_>
          4 12 4 2 -1.</_>
        <_>
          4 12 2 1 2.</_>
        <_>
          6 13 2 1 2.</_></rects>
      <tilted>0</tilted></_>
    <_>
      <rects>
        <_>
          4 13 2 1 -1.</_>
        <_>
          5 13 1 1 2.</_></rects>
      <tilted>0</tilted></_>
    <_>
      <rects>
        <_>
          4 13 4 4 -1.</_>
        <_>
          4 13 2 2 2.</_>
        <_>
          6 15 2 2 2.</_></rects>
      <tilted>0</tilted></_>
    <_>
      <rects>
        <_>
          5 5 2 8 -1.</_>
        <_>
          5 9 2 4 2.</_></rects>
      <tilted>0</tilted></_>
    <_>
      <rects>
        <_>
          5 5 9 15 -1.</_>
        <_>
          5 10 9 5 3.</_></rects>
      <tilted>0</tilted></_>
    <_>
      <rects>
        <_>
          5 6 3 12 -1.</_>
        <_>
          6 6 1 12 3.</_></rects>
      <tilted>0</tilted></_>
    <_>
      <rects>
        <_>
          5 6 12 7 -1.</_>
        <_>
          9 6 4 7 3.</_></rects>
      <tilted>0</tilted></_>
    <_>
      <rects>
        <_>
          5 7 12 6 -1.</_>
        <_>
          9 7 4 6 3.</_></rects>
      <tilted>0</tilted></_>
    <_>
      <rects>
        <_>
          5 9 3 2 -1.</_>
        <_>
          6 9 1 2 3.</_></rects>
      <tilted>0</tilted></_>
    <_>
      <rects>
        <_>
          5 9 6 2 -1.</_>
        <_>
          7 9 2 2 3.</_></rects>
      <tilted>0</tilted></_>
    <_>
      <rects>
        <_>
          5 10 2 1 -1.</_>
        <_>
          6 10 1 1 2.</_></rects>
      <tilted>0</tilted></_>
    <_>
      <rects>
        <_>
          5 10 4 6 -1.</_>
        <_>
          5 10 2 3 2.</_>
        <_>
          7 13 2 3 2.</_></rects>
      <tilted>0</tilted></_>
    <_>
      <rects>
        <_>
          5 11 1 3 -1.</_>
        <_>
          5 12 1 1 3.</_></rects>
      <tilted>0</tilted></_>
    <_>
      <rects>
        <_>
          5 11 2 3 -1.</_>
        <_>
          5 12 2 1 3.</_></rects>
      <tilted>0</tilted></_>
    <_>
      <rects>
        <_>
          5 11 6 4 -1.</_>
        <_>
          7 11 2 4 3.</_></rects>
      <tilted>0</tilted></_>
    <_>
      <rects>
        <_>
          5 11 6 2 -1.</_>
        <_>
          8 11 3 2 2.</_></rects>
      <tilted>0</tilted></_>
    <_>
      <rects>
        <_>
          5 12 1 2 -1.</_>
        <_>
          5 13 1 1 2.</_></rects>
      <tilted>0</tilted></_>
    <_>
      <rects>
        <_>
          5 12 2 2 -1.</_>
        <_>
          5 12 1 1 2.</_>
        <_>
          6 13 1 1 2.</_></rects>
      <tilted>0</tilted></_>
    <_>
      <rects>
        <_>
          5 12 4 2 -1.</_>
        <_>
          5 12 2 1 2.</_>
        <_>
          7 13 2 1 2.</_></rects>
      <tilted>0</tilted></_>
    <_>
      <rects>
        <_>
          5 12 9 1 -1.</_>
        <_>
          8 12 3 1 3.</_></rects>
      <tilted>0</tilted></_>
    <_>
      <rects>
        <_>
          5 13 2 2 -1.</_>
        <_>
          5 13 1 1 2.</_>
        <_>
          6 14 1 1 2.</_></rects>
      <tilted>0</tilted></_>
    <_>
      <rects>
        <_>
          5 14 4 2 -1.</_>
        <_>
          5 14 2 1 2.</_>
        <_>
          7 15 2 1 2.</_></rects>
      <tilted>0</tilted></_>
    <_>
      <rects>
        <_>
          6 1 9 14 -1.</_>
        <_>
          6 8 9 7 2.</_></rects>
      <tilted>0</tilted></_>
    <_>
      <rects>
        <_>
          6 3 9 17 -1.</_>
        <_>
          9 3 3 17 3.</_></rects>
      <tilted>0</tilted></_>
    <_>
      <rects>
        <_>
          6 8 2 2 -1.</_>
        <_>
          6 8 1 1 2.</_>
        <_>
          7 9 1 1 2.</_></rects>
      <tilted>0</tilted></_>
    <_>
      <rects>
        <_>
          6 8 6 3 -1.</_>
        <_>
          8 8 2 3 3.</_></rects>
      <tilted>0</tilted></_>
    <_>
      <rects>
        <_>
          6 9 3 1 -1.</_>
        <_>
          7 9 1 1 3.</_></rects>
      <tilted>0</tilted></_>
    <_>
      <rects>
        <_>
          6 9 3 2 -1.</_>
        <_>
          7 9 1 2 3.</_></rects>
      <tilted>0</tilted></_>
    <_>
      <rects>
        <_>
          6 9 2 6 -1.</_>
        <_>
          6 9 1 3 2.</_>
        <_>
          7 12 1 3 2.</_></rects>
      <tilted>0</tilted></_>
    <_>
      <rects>
        <_>
          6 9 3 3 -1.</_>
        <_>
          6 10 3 1 3.</_></rects>
      <tilted>0</tilted></_>
    <_>
      <rects>
        <_>
          6 9 10 8 -1.</_>
        <_>
          11 9 5 8 2.</_></rects>
      <tilted>0</tilted></_>
    <_>
      <rects>
        <_>
          6 10 3 3 -1.</_>
        <_>
          7 10 1 3 3.</_></rects>
      <tilted>0</tilted></_>
    <_>
      <rects>
        <_>
          6 10 4 4 -1.</_>
        <_>
          6 10 2 2 2.</_>
        <_>
          8 12 2 2 2.</_></rects>
      <tilted>0</tilted></_>
    <_>
      <rects>
        <_>
          6 10 12 2 -1.</_>
        <_>
          10 10 4 2 3.</_></rects>
      <tilted>0</tilted></_>
    <_>
      <rects>
        <_>
          6 11 2 2 -1.</_>
        <_>
          6 11 1 1 2.</_>
        <_>
          7 12 1 1 2.</_></rects>
      <tilted>0</tilted></_>
    <_>
      <rects>
        <_>
          6 12 1 3 -1.</_>
        <_>
          6 13 1 1 3.</_></rects>
      <tilted>0</tilted></_>
    <_>
      <rects>
        <_>
          6 13 1 3 -1.</_>
        <_>
          6 14 1 1 3.</_></rects>
      <tilted>0</tilted></_>
    <_>
      <rects>
        <_>
          6 13 2 2 -1.</_>
        <_>
          6 13 1 1 2.</_>
        <_>
          7 14 1 1 2.</_></rects>
      <tilted>0</tilted></_>
    <_>
      <rects>
        <_>
          6 13 2 4 -1.</_>
        <_>
          6 13 1 2 2.</_>
        <_>
          7 15 1 2 2.</_></rects>
      <tilted>0</tilted></_>
    <_>
      <rects>
        <_>
          6 13 8 3 -1.</_>
        <_>
          10 13 4 3 2.</_></rects>
      <tilted>0</tilted></_>
    <_>
      <rects>
        <_>
          6 13 6 6 -1.</_>
        <_>
          6 15 6 2 3.</_></rects>
      <tilted>0</tilted></_>
    <_>
      <rects>
        <_>
          6 14 4 2 -1.</_>
        <_>
          6 14 2 1 2.</_>
        <_>
          8 15 2 1 2.</_></rects>
      <tilted>0</tilted></_>
    <_>
      <rects>
        <_>
          6 18 9 2 -1.</_>
        <_>
          9 18 3 2 3.</_></rects>
      <tilted>0</tilted></_>
    <_>
      <rects>
        <_>
          7 0 3 1 -1.</_>
        <_>
          8 0 1 1 3.</_></rects>
      <tilted>0</tilted></_>
    <_>
      <rects>
        <_>
          7 0 7 14 -1.</_>
        <_>
          7 7 7 7 2.</_></rects>
      <tilted>0</tilted></_>
    <_>
      <rects>
        <_>
          7 1 11 6 -1.</_>
        <_>
          7 3 11 2 3.</_></rects>
      <tilted>0</tilted></_>
    <_>
      <rects>
        <_>
          7 2 5 6 -1.</_>
        <_>
          7 4 5 2 3.</_></rects>
      <tilted>0</tilted></_>
    <_>
      <rects>
        <_>
          7 6 2 4 -1.</_>
        <_>
          7 6 1 2 2.</_>
        <_>
          8 8 1 2 2.</_></rects>
      <tilted>0</tilted></_>
    <_>
      <rects>
        <_>
          7 7 3 2 -1.</_>
        <_>
          8 7 1 2 3.</_></rects>
      <tilted>0</tilted></_>
    <_>
      <rects>
        <_>
          7 7 2 4 -1.</_>
        <_>
          7 7 1 2 2.</_>
        <_>
          8 9 1 2 2.</_></rects>
      <tilted>0</tilted></_>
    <_>
      <rects>
        <_>
          7 7 2 6 -1.</_>
        <_>
          7 9 2 2 3.</_></rects>
      <tilted>0</tilted></_>
    <_>
      <rects>
        <_>
          7 8 2 2 -1.</_>
        <_>
          7 8 1 1 2.</_>
        <_>
          8 9 1 1 2.</_></rects>
      <tilted>0</tilted></_>
    <_>
      <rects>
        <_>
          7 8 3 2 -1.</_>
        <_>
          8 8 1 2 3.</_></rects>
      <tilted>0</tilted></_>
    <_>
      <rects>
        <_>
          7 9 3 1 -1.</_>
        <_>
          8 9 1 1 3.</_></rects>
      <tilted>0</tilted></_>
    <_>
      <rects>
        <_>
          7 9 2 2 -1.</_>
        <_>
          8 9 1 2 2.</_></rects>
      <tilted>0</tilted></_>
    <_>
      <rects>
        <_>
          7 9 3 2 -1.</_>
        <_>
          8 9 1 2 3.</_></rects>
      <tilted>0</tilted></_>
    <_>
      <rects>
        <_>
          7 9 2 4 -1.</_>
        <_>
          7 9 1 2 2.</_>
        <_>
          8 11 1 2 2.</_></rects>
      <tilted>0</tilted></_>
    <_>
      <rects>
        <_>
          7 10 2 4 -1.</_>
        <_>
          7 10 1 2 2.</_>
        <_>
          8 12 1 2 2.</_></rects>
      <tilted>0</tilted></_>
    <_>
      <rects>
        <_>
          7 10 4 4 -1.</_>
        <_>
          7 10 2 2 2.</_>
        <_>
          9 12 2 2 2.</_></rects>
      <tilted>0</tilted></_>
    <_>
      <rects>
        <_>
          7 11 4 2 -1.</_>
        <_>
          9 11 2 2 2.</_></rects>
      <tilted>0</tilted></_>
    <_>
      <rects>
        <_>
          7 12 3 1 -1.</_>
        <_>
          8 12 1 1 3.</_></rects>
      <tilted>0</tilted></_>
    <_>
      <rects>
        <_>
          7 12 6 4 -1.</_>
        <_>
          9 12 2 4 3.</_></rects>
      <tilted>0</tilted></_>
    <_>
      <rects>
        <_>
          7 13 4 3 -1.</_>
        <_>
          9 13 2 3 2.</_></rects>
      <tilted>0</tilted></_>
    <_>
      <rects>
        <_>
          7 13 5 6 -1.</_>
        <_>
          7 15 5 2 3.</_></rects>
      <tilted>0</tilted></_>
    <_>
      <rects>
        <_>
          7 14 1 3 -1.</_>
        <_>
          7 15 1 1 3.</_></rects>
      <tilted>0</tilted></_>
    <_>
      <rects>
        <_>
          7 14 2 2 -1.</_>
        <_>
          7 14 1 1 2.</_>
        <_>
          8 15 1 1 2.</_></rects>
      <tilted>0</tilted></_>
    <_>
      <rects>
        <_>
          7 14 2 3 -1.</_>
        <_>
          7 15 2 1 3.</_></rects>
      <tilted>0</tilted></_>
    <_>
      <rects>
        <_>
          7 15 1 2 -1.</_>
        <_>
          7 16 1 1 2.</_></rects>
      <tilted>0</tilted></_>
    <_>
      <rects>
        <_>
          7 15 1 3 -1.</_>
        <_>
          7 16 1 1 3.</_></rects>
      <tilted>0</tilted></_>
    <_>
      <rects>
        <_>
          7 16 3 3 -1.</_>
        <_>
          7 17 3 1 3.</_></rects>
      <tilted>0</tilted></_>
    <_>
      <rects>
        <_>
          8 0 2 1 -1.</_>
        <_>
          9 0 1 1 2.</_></rects>
      <tilted>0</tilted></_>
    <_>
      <rects>
        <_>
          8 2 6 18 -1.</_>
        <_>
          8 8 6 6 3.</_></rects>
      <tilted>0</tilted></_>
    <_>
      <rects>
        <_>
          8 3 8 12 -1.</_>
        <_>
          12 3 4 12 2.</_></rects>
      <tilted>0</tilted></_>
    <_>
      <rects>
        <_>
          8 6 3 10 -1.</_>
        <_>
          8 11 3 5 2.</_></rects>
      <tilted>0</tilted></_>
    <_>
      <rects>
        <_>
          8 7 2 2 -1.</_>
        <_>
          8 7 1 1 2.</_>
        <_>
          9 8 1 1 2.</_></rects>
      <tilted>0</tilted></_>
    <_>
      <rects>
        <_>
          8 7 4 8 -1.</_>
        <_>
          8 11 4 4 2.</_></rects>
      <tilted>0</tilted></_>
    <_>
      <rects>
        <_>
          8 8 3 1 -1.</_>
        <_>
          9 8 1 1 3.</_></rects>
      <tilted>0</tilted></_>
    <_>
      <rects>
        <_>
          8 8 2 8 -1.</_>
        <_>
          8 12 2 4 2.</_></rects>
      <tilted>0</tilted></_>
    <_>
      <rects>
        <_>
          8 8 3 4 -1.</_>
        <_>
          8 10 3 2 2.</_></rects>
      <tilted>0</tilted></_>
    <_>
      <rects>
        <_>
          8 8 6 4 -1.</_>
        <_>
          8 10 6 2 2.</_></rects>
      <tilted>0</tilted></_>
    <_>
      <rects>
        <_>
          8 9 3 1 -1.</_>
        <_>
          9 9 1 1 3.</_></rects>
      <tilted>0</tilted></_>
    <_>
      <rects>
        <_>
          8 9 2 2 -1.</_>
        <_>
          8 9 1 1 2.</_>
        <_>
          9 10 1 1 2.</_></rects>
      <tilted>0</tilted></_>
    <_>
      <rects>
        <_>
          8 9 2 4 -1.</_>
        <_>
          8 9 1 2 2.</_>
        <_>
          9 11 1 2 2.</_></rects>
      <tilted>0</tilted></_>
    <_>
      <rects>
        <_>
          8 9 2 3 -1.</_>
        <_>
          8 10 2 1 3.</_></rects>
      <tilted>0</tilted></_>
    <_>
      <rects>
        <_>
          8 9 4 2 -1.</_>
        <_>
          10 9 2 2 2.</_></rects>
      <tilted>0</tilted></_>
    <_>
      <rects>
        <_>
          8 9 4 3 -1.</_>
        <_>
          10 9 2 3 2.</_></rects>
      <tilted>0</tilted></_>
    <_>
      <rects>
        <_>
          8 9 4 4 -1.</_>
        <_>
          10 9 2 4 2.</_></rects>
      <tilted>0</tilted></_>
    <_>
      <rects>
        <_>
          8 10 2 2 -1.</_>
        <_>
          8 10 1 1 2.</_>
        <_>
          9 11 1 1 2.</_></rects>
      <tilted>0</tilted></_>
    <_>
      <rects>
        <_>
          8 10 3 4 -1.</_>
        <_>
          9 10 1 4 3.</_></rects>
      <tilted>0</tilted></_>
    <_>
      <rects>
        <_>
          8 10 2 6 -1.</_>
        <_>
          8 12 2 2 3.</_></rects>
      <tilted>0</tilted></_>
    <_>
      <rects>
        <_>
          8 10 6 1 -1.</_>
        <_>
          11 10 3 1 2.</_></rects>
      <tilted>0</tilted></_>
    <_>
      <rects>
        <_>
          8 10 3 2 -1.</_>
        <_>
          8 11 3 1 2.</_></rects>
      <tilted>0</tilted></_>
    <_>
      <rects>
        <_>
          8 10 3 3 -1.</_>
        <_>
          8 11 3 1 3.</_></rects>
      <tilted>0</tilted></_>
    <_>
      <rects>
        <_>
          8 10 4 3 -1.</_>
        <_>
          8 11 4 1 3.</_></rects>
      <tilted>0</tilted></_>
    <_>
      <rects>
        <_>
          8 11 1 2 -1.</_>
        <_>
          8 12 1 1 2.</_></rects>
      <tilted>0</tilted></_>
    <_>
      <rects>
        <_>
          8 11 2 4 -1.</_>
        <_>
          8 13 2 2 2.</_></rects>
      <tilted>0</tilted></_>
    <_>
      <rects>
        <_>
          8 11 4 9 -1.</_>
        <_>
          10 11 2 9 2.</_></rects>
      <tilted>0</tilted></_>
    <_>
      <rects>
        <_>
          8 11 3 3 -1.</_>
        <_>
          8 12 3 1 3.</_></rects>
      <tilted>0</tilted></_>
    <_>
      <rects>
        <_>
          8 11 6 9 -1.</_>
        <_>
          8 14 6 3 3.</_></rects>
      <tilted>0</tilted></_>
    <_>
      <rects>
        <_>
          8 12 1 2 -1.</_>
        <_>
          8 13 1 1 2.</_></rects>
      <tilted>0</tilted></_>
    <_>
      <rects>
        <_>
          8 12 1 3 -1.</_>
        <_>
          8 13 1 1 3.</_></rects>
      <tilted>0</tilted></_>
    <_>
      <rects>
        <_>
          8 12 4 3 -1.</_>
        <_>
          8 13 4 1 3.</_></rects>
      <tilted>0</tilted></_>
    <_>
      <rects>
        <_>
          8 12 6 6 -1.</_>
        <_>
          8 14 6 2 3.</_></rects>
      <tilted>0</tilted></_>
    <_>
      <rects>
        <_>
          8 13 3 1 -1.</_>
        <_>
          9 13 1 1 3.</_></rects>
      <tilted>0</tilted></_>
    <_>
      <rects>
        <_>
          8 14 5 3 -1.</_>
        <_>
          8 15 5 1 3.</_></rects>
      <tilted>0</tilted></_>
    <_>
      <rects>
        <_>
          9 0 4 10 -1.</_>
        <_>
          9 5 4 5 2.</_></rects>
      <tilted>0</tilted></_>
    <_>
      <rects>
        <_>
          9 2 1 10 -1.</_>
        <_>
          9 7 1 5 2.</_></rects>
      <tilted>0</tilted></_>
    <_>
      <rects>
        <_>
          9 3 3 4 -1.</_>
        <_>
          9 5 3 2 2.</_></rects>
      <tilted>0</tilted></_>
    <_>
      <rects>
        <_>
          9 3 5 6 -1.</_>
        <_>
          9 5 5 2 3.</_></rects>
      <tilted>0</tilted></_>
    <_>
      <rects>
        <_>
          9 5 2 12 -1.</_>
        <_>
          9 11 2 6 2.</_></rects>
      <tilted>0</tilted></_>
    <_>
      <rects>
        <_>
          9 5 5 6 -1.</_>
        <_>
          9 7 5 2 3.</_></rects>
      <tilted>0</tilted></_>
    <_>
      <rects>
        <_>
          9 6 6 7 -1.</_>
        <_>
          11 6 2 7 3.</_></rects>
      <tilted>0</tilted></_>
    <_>
      <rects>
        <_>
          9 7 2 4 -1.</_>
        <_>
          10 7 1 4 2.</_></rects>
      <tilted>0</tilted></_>
    <_>
      <rects>
        <_>
          9 7 5 3 -1.</_>
        <_>
          9 8 5 1 3.</_></rects>
      <tilted>0</tilted></_>
    <_>
      <rects>
        <_>
          9 7 5 10 -1.</_>
        <_>
          9 12 5 5 2.</_></rects>
      <tilted>0</tilted></_>
    <_>
      <rects>
        <_>
          9 8 3 1 -1.</_>
        <_>
          10 8 1 1 3.</_></rects>
      <tilted>0</tilted></_>
    <_>
      <rects>
        <_>
          9 8 2 2 -1.</_>
        <_>
          9 8 1 1 2.</_>
        <_>
          10 9 1 1 2.</_></rects>
      <tilted>0</tilted></_>
    <_>
      <rects>
        <_>
          9 8 2 5 -1.</_>
        <_>
          10 8 1 5 2.</_></rects>
      <tilted>0</tilted></_>
    <_>
      <rects>
        <_>
          9 8 2 3 -1.</_>
        <_>
          9 9 2 1 3.</_></rects>
      <tilted>0</tilted></_>
    <_>
      <rects>
        <_>
          9 8 2 8 -1.</_>
        <_>
          9 12 2 4 2.</_></rects>
      <tilted>0</tilted></_>
    <_>
      <rects>
        <_>
          9 8 3 2 -1.</_>
        <_>
          9 9 3 1 2.</_></rects>
      <tilted>0</tilted></_>
    <_>
      <rects>
        <_>
          9 8 3 4 -1.</_>
        <_>
          9 10 3 2 2.</_></rects>
      <tilted>0</tilted></_>
    <_>
      <rects>
        <_>
          9 9 4 1 -1.</_>
        <_>
          11 9 2 1 2.</_></rects>
      <tilted>0</tilted></_>
    <_>
      <rects>
        <_>
          9 9 2 2 -1.</_>
        <_>
          9 10 2 1 2.</_></rects>
      <tilted>0</tilted></_>
    <_>
      <rects>
        <_>
          9 9 2 3 -1.</_>
        <_>
          9 10 2 1 3.</_></rects>
      <tilted>0</tilted></_>
    <_>
      <rects>
        <_>
          9 9 4 2 -1.</_>
        <_>
          11 9 2 2 2.</_></rects>
      <tilted>0</tilted></_>
    <_>
      <rects>
        <_>
          9 9 4 3 -1.</_>
        <_>
          11 9 2 3 2.</_></rects>
      <tilted>0</tilted></_>
    <_>
      <rects>
        <_>
          9 9 3 2 -1.</_>
        <_>
          9 10 3 1 2.</_></rects>
      <tilted>0</tilted></_>
    <_>
      <rects>
        <_>
          9 9 3 4 -1.</_>
        <_>
          9 11 3 2 2.</_></rects>
      <tilted>0</tilted></_>
    <_>
      <rects>
        <_>
          9 9 4 4 -1.</_>
        <_>
          9 11 4 2 2.</_></rects>
      <tilted>0</tilted></_>
    <_>
      <rects>
        <_>
          9 10 1 3 -1.</_>
        <_>
          9 11 1 1 3.</_></rects>
      <tilted>0</tilted></_>
    <_>
      <rects>
        <_>
          9 10 2 2 -1.</_>
        <_>
          9 10 1 1 2.</_>
        <_>
          10 11 1 1 2.</_></rects>
      <tilted>0</tilted></_>
    <_>
      <rects>
        <_>
          9 10 4 1 -1.</_>
        <_>
          11 10 2 1 2.</_></rects>
      <tilted>0</tilted></_>
    <_>
      <rects>
        <_>
          9 10 4 2 -1.</_>
        <_>
          11 10 2 2 2.</_></rects>
      <tilted>0</tilted></_>
    <_>
      <rects>
        <_>
          9 10 3 2 -1.</_>
        <_>
          9 11 3 1 2.</_></rects>
      <tilted>0</tilted></_>
    <_>
      <rects>
        <_>
          9 10 3 6 -1.</_>
        <_>
          9 12 3 2 3.</_></rects>
      <tilted>0</tilted></_>
    <_>
      <rects>
        <_>
          9 11 3 2 -1.</_>
        <_>
          10 11 1 2 3.</_></rects>
      <tilted>0</tilted></_>
    <_>
      <rects>
        <_>
          9 11 2 3 -1.</_>
        <_>
          9 12 2 1 3.</_></rects>
      <tilted>0</tilted></_>
    <_>
      <rects>
        <_>
          9 11 3 2 -1.</_>
        <_>
          9 12 3 1 2.</_></rects>
      <tilted>0</tilted></_>
    <_>
      <rects>
        <_>
          9 11 4 2 -1.</_>
        <_>
          9 12 4 1 2.</_></rects>
      <tilted>0</tilted></_>
    <_>
      <rects>
        <_>
          9 12 1 4 -1.</_>
        <_>
          9 14 1 2 2.</_></rects>
      <tilted>0</tilted></_>
    <_>
      <rects>
        <_>
          9 12 4 6 -1.</_>
        <_>
          9 14 4 2 3.</_></rects>
      <tilted>0</tilted></_>
    <_>
      <rects>
        <_>
          9 13 1 2 -1.</_>
        <_>
          9 14 1 1 2.</_></rects>
      <tilted>0</tilted></_>
    <_>
      <rects>
        <_>
          9 13 3 2 -1.</_>
        <_>
          10 13 1 2 3.</_></rects>
      <tilted>0</tilted></_>
    <_>
      <rects>
        <_>
          9 13 2 3 -1.</_>
        <_>
          9 14 2 1 3.</_></rects>
      <tilted>0</tilted></_>
    <_>
      <rects>
        <_>
          9 13 3 6 -1.</_>
        <_>
          9 15 3 2 3.</_></rects>
      <tilted>0</tilted></_>
    <_>
      <rects>
        <_>
          9 13 4 6 -1.</_>
        <_>
          9 15 4 2 3.</_></rects>
      <tilted>0</tilted></_>
    <_>
      <rects>
        <_>
          9 14 1 2 -1.</_>
        <_>
          9 15 1 1 2.</_></rects>
      <tilted>0</tilted></_>
    <_>
      <rects>
        <_>
          10 1 2 10 -1.</_>
        <_>
          10 6 2 5 2.</_></rects>
      <tilted>0</tilted></_>
    <_>
      <rects>
        <_>
          10 4 1 3 -1.</_>
        <_>
          10 5 1 1 3.</_></rects>
      <tilted>0</tilted></_>
    <_>
      <rects>
        <_>
          10 5 2 3 -1.</_>
        <_>
          10 6 2 1 3.</_></rects>
      <tilted>0</tilted></_>
    <_>
      <rects>
        <_>
          10 5 3 6 -1.</_>
        <_>
          10 7 3 2 3.</_></rects>
      <tilted>0</tilted></_>
    <_>
      <rects>
        <_>
          10 7 2 4 -1.</_>
        <_>
          10 9 2 2 2.</_></rects>
      <tilted>0</tilted></_>
    <_>
      <rects>
        <_>
          10 7 2 6 -1.</_>
        <_>
          10 9 2 2 3.</_></rects>
      <tilted>0</tilted></_>
    <_>
      <rects>
        <_>
          10 7 2 6 -1.</_>
        <_>
          10 10 2 3 2.</_></rects>
      <tilted>0</tilted></_>
    <_>
      <rects>
        <_>
          10 7 3 3 -1.</_>
        <_>
          10 8 3 1 3.</_></rects>
      <tilted>0</tilted></_>
    <_>
      <rects>
        <_>
          10 7 3 6 -1.</_>
        <_>
          10 10 3 3 2.</_></rects>
      <tilted>0</tilted></_>
    <_>
      <rects>
        <_>
          10 8 1 4 -1.</_>
        <_>
          10 10 1 2 2.</_></rects>
      <tilted>0</tilted></_>
    <_>
      <rects>
        <_>
          10 8 2 2 -1.</_>
        <_>
          10 9 2 1 2.</_></rects>
      <tilted>0</tilted></_>
    <_>
      <rects>
        <_>
          10 8 2 4 -1.</_>
        <_>
          10 10 2 2 2.</_></rects>
      <tilted>0</tilted></_>
    <_>
      <rects>
        <_>
          10 8 3 2 -1.</_>
        <_>
          10 9 3 1 2.</_></rects>
      <tilted>0</tilted></_>
    <_>
      <rects>
        <_>
          10 8 3 6 -1.</_>
        <_>
          10 11 3 3 2.</_></rects>
      <tilted>0</tilted></_>
    <_>
      <rects>
        <_>
          10 9 2 3 -1.</_>
        <_>
          11 9 1 3 2.</_></rects>
      <tilted>0</tilted></_>
    <_>
      <rects>
        <_>
          10 9 2 4 -1.</_>
        <_>
          11 9 1 4 2.</_></rects>
      <tilted>0</tilted></_>
    <_>
      <rects>
        <_>
          10 9 4 1 -1.</_>
        <_>
          12 9 2 1 2.</_></rects>
      <tilted>0</tilted></_>
    <_>
      <rects>
        <_>
          10 9 2 2 -1.</_>
        <_>
          10 10 2 1 2.</_></rects>
      <tilted>0</tilted></_>
    <_>
      <rects>
        <_>
          10 9 4 2 -1.</_>
        <_>
          12 9 2 2 2.</_></rects>
      <tilted>0</tilted></_>
    <_>
      <rects>
        <_>
          10 9 2 4 -1.</_>
        <_>
          10 11 2 2 2.</_></rects>
      <tilted>0</tilted></_>
    <_>
      <rects>
        <_>
          10 9 6 3 -1.</_>
        <_>
          12 9 2 3 3.</_></rects>
      <tilted>0</tilted></_>
    <_>
      <rects>
        <_>
          10 9 4 4 -1.</_>
        <_>
          12 9 2 4 2.</_></rects>
      <tilted>0</tilted></_>
    <_>
      <rects>
        <_>
          10 9 3 4 -1.</_>
        <_>
          10 11 3 2 2.</_></rects>
      <tilted>0</tilted></_>
    <_>
      <rects>
        <_>
          10 10 2 2 -1.</_>
        <_>
          11 10 1 2 2.</_></rects>
      <tilted>0</tilted></_>
    <_>
      <rects>
        <_>
          10 10 4 1 -1.</_>
        <_>
          12 10 2 1 2.</_></rects>
      <tilted>0</tilted></_>
    <_>
      <rects>
        <_>
          10 10 2 6 -1.</_>
        <_>
          10 12 2 2 3.</_></rects>
      <tilted>0</tilted></_>
    <_>
      <rects>
        <_>
          10 10 3 6 -1.</_>
        <_>
          10 12 3 2 3.</_></rects>
      <tilted>0</tilted></_>
    <_>
      <rects>
        <_>
          10 11 2 1 -1.</_>
        <_>
          11 11 1 1 2.</_></rects>
      <tilted>0</tilted></_>
    <_>
      <rects>
        <_>
          10 11 1 3 -1.</_>
        <_>
          10 12 1 1 3.</_></rects>
      <tilted>0</tilted></_>
    <_>
      <rects>
        <_>
          10 11 2 2 -1.</_>
        <_>
          10 12 2 1 2.</_></rects>
      <tilted>0</tilted></_>
    <_>
      <rects>
        <_>
          10 11 4 6 -1.</_>
        <_>
          10 11 2 3 2.</_>
        <_>
          12 14 2 3 2.</_></rects>
      <tilted>0</tilted></_>
    <_>
      <rects>
        <_>
          10 12 1 2 -1.</_>
        <_>
          10 13 1 1 2.</_></rects>
      <tilted>0</tilted></_>
    <_>
      <rects>
        <_>
          10 12 4 2 -1.</_>
        <_>
          12 12 2 2 2.</_></rects>
      <tilted>0</tilted></_>
    <_>
      <rects>
        <_>
          10 13 1 2 -1.</_>
        <_>
          10 14 1 1 2.</_></rects>
      <tilted>0</tilted></_>
    <_>
      <rects>
        <_>
          11 3 2 6 -1.</_>
        <_>
          11 5 2 2 3.</_></rects>
      <tilted>0</tilted></_>
    <_>
      <rects>
        <_>
          11 5 6 11 -1.</_>
        <_>
          13 5 2 11 3.</_></rects>
      <tilted>0</tilted></_>
    <_>
      <rects>
        <_>
          11 6 1 2 -1.</_>
        <_>
          11 7 1 1 2.</_></rects>
      <tilted>0</tilted></_>
    <_>
      <rects>
        <_>
          11 8 2 1 -1.</_>
        <_>
          12 8 1 1 2.</_></rects>
      <tilted>0</tilted></_>
    <_>
      <rects>
        <_>
          11 8 1 4 -1.</_>
        <_>
          11 10 1 2 2.</_></rects>
      <tilted>0</tilted></_>
    <_>
      <rects>
        <_>
          11 8 2 4 -1.</_>
        <_>
          12 8 1 4 2.</_></rects>
      <tilted>0</tilted></_>
    <_>
      <rects>
        <_>
          11 8 2 5 -1.</_>
        <_>
          12 8 1 5 2.</_></rects>
      <tilted>0</tilted></_>
    <_>
      <rects>
        <_>
          11 8 4 2 -1.</_>
        <_>
          11 8 2 1 2.</_>
        <_>
          13 9 2 1 2.</_></rects>
      <tilted>0</tilted></_>
    <_>
      <rects>
        <_>
          11 8 6 6 -1.</_>
        <_>
          13 8 2 6 3.</_></rects>
      <tilted>0</tilted></_>
    <_>
      <rects>
        <_>
          11 8 3 6 -1.</_>
        <_>
          11 11 3 3 2.</_></rects>
      <tilted>0</tilted></_>
    <_>
      <rects>
        <_>
          11 9 2 2 -1.</_>
        <_>
          12 9 1 2 2.</_></rects>
      <tilted>0</tilted></_>
    <_>
      <rects>
        <_>
          11 9 2 4 -1.</_>
        <_>
          11 11 2 2 2.</_></rects>
      <tilted>0</tilted></_>
    <_>
      <rects>
        <_>
          11 10 2 3 -1.</_>
        <_>
          12 10 1 3 2.</_></rects>
      <tilted>0</tilted></_>
    <_>
      <rects>
        <_>
          11 10 3 4 -1.</_>
        <_>
          12 10 1 4 3.</_></rects>
